0.007544252555817366,-0.027837436646223068,-0.013233985751867294,0.03035205602645874,0.013464702293276787,-0.013771675527095795,-0.03321471065282822,0.030553199350833893,0.013476187363266945,0.021912407130002975,-0.01265011541545391,0.021271351724863052,-0.023413382470607758,0.0003307524893898517,0.008000151254236698,-0.01072526816278696,-0.02743581123650074,0.015604214742779732,-0.003841063706204295,-0.024491585791110992,0.03097088634967804,-0.0034843510948121548,-0.004695778712630272,-0.02172136679291725,0.030997686088085175,-0.028245091438293457,-0.010324206203222275,0.005174401216208935,-0.034903742372989655,0.027866750955581665,0.02231631800532341,-0.011533055454492569,0.011964945122599602,-0.005666330456733704,0.010767225176095963,-0.02154843509197235,-0.004455164540559053,0.01611476205289364,-0.006603366695344448,0.006018019746989012,0.023386918008327484,0.006613028235733509,-0.03100017085671425,-0.012186463922262192,0.022424547001719475,-0.028899261727929115,0.012499642558395863,0.010116648860275745,0.001730256131850183,-0.030423196032643318,-0.03404023125767708,-0.020147034898400307,-0.01624969393014908,-0.009075446054339409,0.01719437725841999,0.004859934560954571,-0.002026469213888049,-0.021747134625911713,-0.008970014750957489,-0.030740903690457344,0.019881103187799454,0.019247500225901604,-0.005084785632789135,-0.00030311784939840436,-0.002768315374851227,-0.03336568549275398,-0.017349623143672943,0.025031091645359993,-0.03570857271552086,-0.005422299262136221,-0.03641621395945549,-0.008497025817632675,-0.005357778165489435,-0.046743810176849365,-0.023353390395641327,0.0056431107223033905,0.008469698019325733,0.025175785645842552,0.01424007024616003,0.005071531981229782,0.00230942084454,-0.0351964496076107,-0.008528552949428558,0.03038395196199417,0.014286281540989876,-0.015131381340324879,-0.01567145809531212,0.026416059583425522,-0.035728178918361664,-0.008286233060061932,-0.02070976048707962,0.0216544009745121,-0.01858852244913578,-0.024955835193395615,0.015654349699616432,-0.003262164071202278,-0.019314013421535492,-0.007023075129836798,-0.044144775718450546,-0.020873907953500748,-0.009501424618065357,-0.024247121065855026,-0.06357987970113754,-0.03742126747965813,-0.019023144617676735,-0.01765865832567215,-0.006387284025549889,-0.05183511599898338,-0.03997666388750076,0.03262031823396683,-0.020050805062055588,-0.03190942853689194,-0.013070942834019661,0.01392282359302044,-0.03435266762971878,-0.024684719741344452,0.014947579242289066,-0.021092139184474945,-0.032477933913469315,-0.02190602757036686,-0.0035781252663582563,0.003518335521221161,-0.006375460885465145,-0.022062165662646294,0.008503574877977371,-0.002315826015546918,-0.006076190620660782,-0.032521914690732956,0.015575077384710312,0.011261027306318283,-0.016123734414577484,-0.029654016718268394,-0.016382377594709396,-0.016246650367975235,-0.0054409257136285305,-0.04498695209622383,-0.010991291143000126,-0.02737954817712307,-0.009917170740664005,-0.03393416479229927,-0.008298258297145367,0.0035102844703942537,0.009987952187657356,-0.024929778650403023,0.0022558255586773157,0.025668971240520477,-0.030896538868546486,-0.0067029111087322235,-0.05462556332349777,-0.0345948189496994,-0.053827814757823944,0.0008067230810411274,-0.04438798874616623,0.021253302693367004,0.09549093246459961,0.06365068256855011,0.05120193213224411,0.10270636528730392,0.0757293775677681,0.07024228572845459,-0.002366736764088273,-0.0083265146240592,-0.025915535166859627,-0.01642933115363121,-0.03022533655166626,-0.006295863073319197,0.019210869446396828,-0.010531941428780556,-0.001390735968016088,0.012073133140802383,0.010623297654092312,0.005386929493397474,0.013792654499411583,0.01602957211434841,0.01572597585618496,-0.014563228003680706,-0.030744416639208794,-0.034625522792339325,-0.040656205266714096,-0.013180140405893326,0.01676882430911064,-0.003415582701563835,0.04075760766863823,0.07521209865808487,0.05892656370997429,0.11003271490335464,0.06941437721252441,0.09287654608488083,0.07819713652133942,0.03163875639438629,0.06792379170656204,0.05955860763788223,-0.00475764786824584,-0.05552845820784569,-0.051326218992471695,-0.04464949294924736,-0.019164837896823883,-0.005262257531285286,-0.005243621300905943,-0.003938939888030291,-0.001586565631441772,-0.0034331774804741144,0.013846827670931816,-0.04525637999176979,-0.06179005280137062,-0.031648632138967514,-0.05729854106903076,0.011393273249268532,0.0008854376501403749,0.05015593767166138,0.004426694940775633,-3.271332388976589e-05,0.02240902930498123,0.08957646042108536,0.07943511009216309,0.1024746298789978,0.0717155933380127,0.06169271841645241,0.06841861456632614,0.04171169921755791,-0.0031117473263293505,-0.013898215256631374,-0.052009217441082,0.004545298404991627,-0.004521271679550409,-0.007049246225506067,0.006546268239617348,-0.026394575834274292,-0.014552486129105091,-0.051114946603775024,-0.014712982811033726,-0.0009409054764546454,-0.07141191512346268,-0.01138965506106615,-0.019381286576390266,-0.011175212450325489,0.01752358116209507,0.007875491864979267,0.033581092953681946,0.07144740223884583,0.06712698191404343,0.10348603874444962,0.14772209525108337,0.10303721576929092,0.07672182470560074,0.02773660235106945,0.05133349820971489,0.0582645945250988,0.04486839473247528,-0.028400354087352753,-0.012395051307976246,0.005992863327264786,-0.033069074153900146,-0.013889032416045666,0.017934316769242287,0.009305260144174099,-0.006789957173168659,-0.0013917199103161693,-0.011126006953418255,-0.007688803598284721,-0.042619507759809494,-1.0553660104051232e-05,0.000528895587194711,0.039304837584495544,0.022231556475162506,0.016899267211556435,0.08463727682828903,0.060588471591472626,0.04667186364531517,0.09057959914207458,0.09583653509616852,0.16834264993667603,0.10448241978883743,0.02246881276369095,0.04210616648197174,0.08032433688640594,0.0798109620809555,-0.00984562560915947,-0.023259680718183517,-0.03739798069000244,0.0009418166591785848,0.03391696885228157,0.01501503773033619,0.014011885039508343,0.006558158900588751,-0.007316949311643839,-0.023850586265325546,-0.041388414800167084,-0.035048048943281174,-0.015553707256913185,-0.0005900966352783144,0.014638383872807026,0.003347253194078803,0.01144405361264944,0.008204560726881027,0.022064875811338425,-0.018064498901367188,-0.05640450492501259,0.050585970282554626,0.0915922001004219,0.121148481965065,0.08492107689380646,0.06313484162092209,0.11667840927839279,0.10797085613012314,0.055420052260160446,-0.007164201699197292,0.01120796985924244,0.02920382283627987,-0.02481618896126747,-0.01530513633042574,-0.0022659157402813435,-0.028875315561890602,-0.040126677602529526,-0.006968722213059664,-0.00603826018050313,0.0014634763356298208,0.03274579718708992,0.016515420749783516,-0.020290786400437355,0.032137464731931686,0.03973609581589699,-0.044421277940273285,-0.15277829766273499,-0.18415600061416626,-0.1478264480829239,-0.08774793893098831,0.001809384091757238,0.07259512692689896,0.058791760355234146,0.07959730923175812,0.14088580012321472,0.15328086912631989,0.10334566235542297,0.0028678695671260357,-0.03492949157953262,-0.03550722077488899,0.0015291089657694101,-0.005827886518090963,0.014623054303228855,-0.01871027797460556,-0.02983897365629673,0.032053738832473755,0.04830270633101463,0.021568085998296738,-0.005706077441573143,0.027148595079779625,0.03930693864822388,0.04566849395632744,0.042969439178705215,-0.09932994097471237,-0.22068919241428375,-0.23076269030570984,-0.20713812112808228,-0.10122387856245041,-0.05035032331943512,0.0006096048164181411,0.016429075971245766,0.04128444567322731,0.10930540412664413,0.17363615334033966,0.07604849338531494,-0.008976265788078308,0.012922029010951519,-0.008054591715335846,0.015132877975702286,-0.026705501601099968,0.014298386871814728,-0.01658126525580883,-0.03073268197476864,-0.0001835794246289879,0.06803155690431595,0.08395800739526749,0.018260465934872627,0.0522724986076355,0.10190743952989578,0.06168556585907936,-5.744426016462967e-05,-0.1355719417333603,-0.20923075079917908,-0.25365546345710754,-0.20361627638339996,-0.1127471923828125,-0.0809793770313263,-0.0429394505918026,-0.0370485745370388,0.06018264219164848,0.1404000222682953,0.1693176031112671,0.0711948350071907,-0.024063438177108765,0.013610314577817917,-0.014348908327519894,-0.005528966896235943,0.0253546554595232,-0.012844477780163288,0.011033061891794205,-0.002011409029364586,0.0668737068772316,0.10613047331571579,0.06905399262905121,0.05661914870142937,0.11408786475658417,0.10075971484184265,0.06924404948949814,-0.0928652286529541,-0.16630485653877258,-0.19919392466545105,-0.23064251244068146,-0.223613440990448,-0.13273383677005768,-0.04562542587518692,-0.02808830328285694,0.0015795768704265356,0.07982360571622849,0.08202867209911346,0.1573508381843567,0.09471683204174042,-0.03114943392574787,0.008368379436433315,-0.02577364444732666,0.024804778397083282,0.01748403161764145,0.024250442162156105,0.002642071573063731,-0.0050092232413589954,0.07640129327774048,0.09411666542291641,0.11216671764850616,0.10354184359312057,0.09251902997493744,0.12647095322608948,-0.004626522306352854,-0.10888652503490448,-0.17906975746154785,-0.2331916242837906,-0.19668307900428772,-0.18183308839797974,-0.09096792340278625,-0.05554450303316116,-0.0017657827120274305,0.017957443371415138,0.043825797736644745,0.06002113223075867,0.13827483355998993,0.058260802179574966,0.012792828492820263,-0.01035512238740921,0.029629576951265335,-0.006053623277693987,0.007268322631716728,0.03247498720884323,-0.038289010524749756,-0.0004261735884938389,0.07060215622186661,0.09645770490169525,0.08138085901737213,0.08900802582502365,0.12338024377822876,0.11928435415029526,-0.027861807495355606,-0.14945532381534576,-0.20761743187904358,-0.23520658910274506,-0.21924902498722076,-0.12320483475923538,-0.051457349210977554,0.0013499746564775705,0.03132384642958641,0.029195835813879967,0.07128506153821945,0.0819319561123848,0.09175488352775574,0.0443129763007164,-0.0003920026356354356,-0.0032309030648320913,-0.010281139053404331,0.029494255781173706,-0.020207460969686508,0.009828738868236542,-0.03244846314191818,-0.003952143248170614,0.07397272437810898,0.10685824602842331,0.06932254880666733,0.08111408352851868,0.13100305199623108,0.1380796581506729,-0.007383348420262337,-0.15369877219200134,-0.21005193889141083,-0.22334308922290802,-0.13851997256278992,-0.09878312796354294,-0.01056878361850977,0.0034661053214222193,0.02605610340833664,0.002437951508909464,0.0689549595117569,0.05998135730624199,0.05447922274470329,0.030995141714811325,-0.014493455179035664,-0.001544911414384842,0.01609162427484989,0.03436718136072159,-0.017340954393148422,0.027758894488215446,-0.03145749494433403,0.02221699431538582,0.025470523163676262,0.0874619111418724,0.07234851270914078,0.10086255520582199,0.11420983076095581,0.1415582150220871,0.0010094329481944442,-0.11613860726356506,-0.16582134366035461,-0.1356600522994995,-0.07614879310131073,-0.010077494196593761,0.0063556041568517685,0.02959625795483589,-0.019243156537413597,-0.007670409977436066,0.05850375071167946,0.02446918375790119,-0.02683604322373867,-0.00237680203281343,-0.04105962812900543,-0.01184079796075821,-0.028468990698456764,0.0034054662100970745,0.034611452370882034,0.02326679788529873,-0.048977963626384735,0.019769931212067604,0.021412117406725883,0.06025795266032219,0.09007421135902405,0.08699832111597061,0.10259494930505753,0.18156422674655914,0.11949147284030914,-0.0014179093996062875,-0.06690553575754166,-0.09280708432197571,-0.035632722079753876,-0.01793857477605343,-0.0052156527526676655,0.02906790003180504,0.030885225161910057,0.029539303854107857,0.02010892517864704,-0.008579598739743233,0.005784792359918356,0.005157783627510071,-0.020430682227015495,0.03002668358385563,0.02108016610145569,0.011620856821537018,0.027771281078457832,0.006121294107288122,0.00019105795945506543,-0.020991435274481773,0.02424284815788269,0.06640878319740295,0.06477904319763184,0.04475114122033119,0.1063789427280426,0.161312073469162,0.15032680332660675,0.09597565233707428,0.058360062539577484,0.010356451384723186,-0.007707144599407911,-0.04562804102897644,0.00013573856267612427,-0.060097288340330124,-0.033733759075403214,-0.04071351885795593,-0.029912102967500687,-0.003187192138284445,-0.009166724048554897,-0.0005002620164304972,-0.028285544365644455,0.017459062859416008,-0.023539379239082336,-0.02678830921649933,0.018664279952645302,-0.019342096522450447,-0.026462208479642868,0.012498095631599426,0.004611815791577101,0.03029548190534115,0.06118396297097206,0.03342987596988678,0.05626559257507324,0.10196252167224884,0.1239350289106369,0.09504597634077072,0.028798576444387436,0.002573826117441058,0.009477060288190842,-0.009683536365628242,-0.030749455094337463,-0.016204647719860077,-0.02454475313425064,-0.04766023904085159,-0.029924100264906883,-0.056220799684524536,-0.05079687759280205,-0.0017379398923367262,-0.028926020488142967,-0.0025315475650131702,0.013445322401821613,0.026903484016656876,0.03355579078197479,-0.01520525012165308,0.0028113750740885735,-0.046640411019325256,-0.02206454798579216,0.03461010009050369,0.06685684621334076,0.08743135631084442,0.07249440997838974,0.10334150493144989,0.121888168156147,0.1216292753815651,0.10554496943950653,0.07804441452026367,0.02685617096722126,0.040268246084451675,-0.010314122773706913,-0.027554530650377274,-0.05090339481830597,-0.02503948286175728,-0.05875331163406372,-0.020189447328448296,0.0018236933974549174,0.0114185381680727,-0.019951924681663513,0.03267121687531471,-0.028591740876436234,-0.022141437977552414,-0.0272507481276989,-0.02549445815384388,0.0025024390779435635,-0.006945368368178606,0.006008882541209459,-0.021320726722478867,0.005335656460374594,0.045996349304914474,0.05567334592342377,0.13446442782878876,0.15861542522907257,0.1379002332687378,0.13894876837730408,0.1262984275817871,0.03264318034052849,-0.012691643089056015,-0.03803333640098572,-0.026602711528539658,-0.09998249262571335,-0.05390721932053566,-0.03130345791578293,-0.04332457855343819,0.01537394430488348,-0.030511368066072464,-0.028973974287509918,0.001990788383409381,-0.024817530065774918,-0.035799384117126465,-0.00048601056914776564,0.00586902629584074,-0.028036167845129967,-0.02914486639201641,-0.017133163288235664,-0.029225405305624008,-0.028112243860960007,-0.0010241084964945912,-0.050174176692962646,-0.031558237969875336,0.006270386278629303,-0.005195504520088434,0.03627530857920647,-0.023013686761260033,-0.025851642712950706,-0.05066249147057533,-0.04522335156798363,-0.046919308602809906,-0.007332023233175278,-0.04665736109018326,-0.047767993062734604,0.02530563250184059,-0.018142689019441605,-0.03287871181964874,0.031795043498277664,0.03052927367389202,-0.02096523344516754,0.02954394370317459,0.010044077411293983,0.031648438423871994,-0.033642228692770004,0.001746806432493031,0.018851833418011665,0.0035676024854183197,-0.04350213333964348,-0.01705644093453884,-0.026428962126374245,-0.031854014843702316,-0.0771275982260704,-0.04557903856039047,-0.06810252368450165,-0.033521946519613266,-0.08057806640863419,-0.040841247886419296,-0.03521319478750229,-0.05044328793883324,-0.0078125623986125,-0.029167519882321358,-0.038553886115550995,0.02427889034152031,0.009639158844947815,0.014341599307954311,-0.026232406497001648,-0.00019233732018619776,-0.0030392264015972614,0.013441281393170357,0.02285495400428772,-0.0022820362355560064,0.034418947994709015,0.01916133426129818,0.028944581747055054,0.02119714580476284,-0.00462366035208106,-0.004870079457759857,-0.04314659908413887,-0.021754898130893707,4.461810749489814e-05,0.0016428877133876085,-0.022511497139930725,0.0017130833584815264,-0.026470473036170006,-0.0089704729616642,-0.024391353130340576,0.017832981422543526,0.023571131750941277,0.00121116335503757,-0.02731635980308056,-0.001264694845303893,-0.0219980888068676,-0.030350595712661743,-0.0322483666241169,0.01080516166985035,-0.004020588472485542,-0.03535842150449753,-0.016290437430143356,0.02924906462430954,-0.010875234380364418,-0.004104194231331348,0.02644222229719162,-0.0004586362629197538,0.024302640929818153,-0.008794779889285564,0.018767008557915688,0.022560395300388336,0.027577495202422142,0.016489854082465172,0.029891204088926315,0.011331172659993172,0.013537419959902763,-0.023949896916747093,-0.011885457672178745,-0.014241465367376804,0.005954359192401171,-0.0023189829662442207,0.01855405792593956,0.012295952998101711,-0.02238861657679081,-0.030583301559090614,0.015550842508673668,0.023760832846164703,-0.022802136838436127
-0.028458891436457634,0.04470116272568703,-0.013051786459982395,0.03619583323597908,0.005527646280825138,0.03732697293162346,0.0444292388856411,-0.00792780239135027,-0.012625954113900661,-0.012792370282113552,0.013601808808743954,0.009590829722583294,-0.007371088489890099,0.05383632332086563,0.054615508764982224,0.03389222174882889,0.028263352811336517,0.03836521878838539,0.040092092007398605,-0.00449442770332098,0.044081348925828934,0.05414945259690285,0.010988389141857624,0.0034299667458981276,0.0001588459126651287,0.009941264055669308,0.024760853499174118,0.04742797091603279,0.025195300579071045,-0.0029058156069368124,0.037056442350149155,0.04049363359808922,0.031554270535707474,0.0028750780038535595,0.030353713780641556,0.003907328005880117,0.03455941006541252,0.03682859241962433,0.0041121989488601685,0.0015717768110334873,0.015146487392485142,0.048554129898548126,0.0017270139651373029,0.020859606564044952,-6.645696703344584e-05,0.01343248039484024,-0.009678900241851807,0.0486685186624527,0.005624927580356598,0.03489946201443672,0.008642665110528469,0.02574150450527668,0.03356087580323219,0.05594633147120476,0.015329176560044289,-0.0019472630228847265,-0.008972473442554474,0.05451161041855812,-0.003130892524495721,-0.002007192699238658,-0.01248488761484623,0.011752757243812084,0.020635265856981277,0.05285903066396713,-0.005626855883747339,0.013065952807664871,0.029837243258953094,0.002057223115116358,0.006047740578651428,0.04331907257437706,0.026623081415891647,0.05915581062436104,0.04251173138618469,0.019659286364912987,0.012453918345272541,0.012556040659546852,0.015705808997154236,0.016134679317474365,0.03763856366276741,0.019686002284288406,0.01299427542835474,0.046913959085941315,0.03364963456988335,0.036278340965509415,0.02138400822877884,-0.01065873634070158,0.012234876863658428,0.006078375969082117,0.029817234724760056,0.028832437470555305,0.013979784213006496,-0.012627151794731617,0.01301182247698307,-0.019358189776539803,0.02061898075044155,0.025029025971889496,-0.014490838162600994,0.022659489884972572,0.008830753155052662,-0.021468104794621468,-0.011942778714001179,-0.006546941120177507,-0.029075054451823235,0.016064878553152084,-0.039019227027893066,-0.0037538243923336267,-0.01700965128839016,-0.014551093801856041,0.03484056890010834,0.0021800240501761436,0.04807666689157486,0.019159579649567604,0.025516502559185028,0.04464966431260109,0.04052696377038956,0.0220334492623806,0.0234169140458107,0.025529274716973305,0.019365942105650902,0.0309319905936718,0.00573243573307991,-0.037152718752622604,-0.03667617589235306,-0.04941084235906601,0.02021062932908535,-0.011957683600485325,0.03571590781211853,0.05702937766909599,0.05841626971960068,0.026602448895573616,0.02413807064294815,0.022440269589424133,0.049527108669281006,0.04672767594456673,0.06574781239032745,0.06920095533132553,0.0002700294426176697,-0.008526332676410675,0.008248482830822468,0.012378242798149586,0.037463586777448654,0.05562692508101463,-0.010352169163525105,-0.008511451072990894,0.012391035445034504,0.05205561965703964,0.04864618927240372,-0.006777449976652861,-0.017793750390410423,-0.052327219396829605,-0.0681781992316246,-0.03461422026157379,-0.05166063457727432,-0.008370818570256233,0.03579298406839371,0.09046564251184464,0.045643653720617294,0.014812801964581013,-0.042304497212171555,0.041139233857393265,0.06081673875451088,0.06602990627288818,0.1166655495762825,0.08231106400489807,0.05758951976895332,-0.00967010110616684,-0.0032478407956659794,-0.0014797109179198742,0.028372136875987053,0.04544288292527199,0.024687645956873894,-0.010271277278661728,-0.015302729792892933,0.053378164768218994,0.016277708113193512,-0.02327500656247139,-0.006407599896192551,-0.07986731827259064,-0.06413941085338593,-0.09873118251562119,-0.03721074387431145,-0.04123515635728836,-0.045356716960668564,-0.03374091163277626,-0.09793972969055176,-0.06339491903781891,-0.10947787016630173,-0.04008495435118675,0.02262631058692932,0.05559508502483368,0.022589290514588356,0.031583089381456375,0.015291152521967888,-0.02295292355120182,-0.012183621525764465,0.05161042883992195,0.0029623424634337425,0.03731159865856171,0.01354691106826067,0.015676507726311684,0.01460196077823639,0.042270224541425705,0.02865484170615673,-0.05476660653948784,-0.054567039012908936,-0.07080736011266708,-0.12085351347923279,-0.1121722087264061,-0.07433530688285828,-0.07142160087823868,-0.0708751380443573,-0.08839971572160721,-0.1096251830458641,-0.13179849088191986,-0.08222111314535141,-0.050238028168678284,-0.0007617099909111857,0.0478878915309906,0.023037301376461983,-0.022335540503263474,-0.02128189615905285,-0.026878662407398224,0.026047158986330032,0.04873914644122124,0.037954624742269516,-0.009691639803349972,-0.012340170331299305,0.03305792063474655,0.025888942182064056,0.007055326830595732,-0.019878486171364784,-0.04340173304080963,-0.03980420157313347,-0.11151634156703949,-0.09722883254289627,-0.1278778314590454,-0.07517261058092117,-0.01094167772680521,-0.031562674790620804,-0.022306086495518684,0.0331060029566288,-0.03744236007332802,0.0033023140858858824,-0.028518665581941605,-0.037834327667951584,-0.06822656840085983,-0.07726038992404938,-0.07489889115095139,-0.04154597967863083,-0.061830729246139526,-0.024051904678344727,0.04114767163991928,0.019238468259572983,0.01609121449291706,0.015926962718367577,0.043633975088596344,0.05033503472805023,0.025420699268579483,-0.021915839985013008,-0.03561056777834892,-0.03484543040394783,-0.10199786722660065,-0.1200711578130722,-0.09503601491451263,-0.043614909052848816,-0.03734080120921135,-0.013006458058953285,0.09361055493354797,0.15755459666252136,0.054322849959135056,-0.008754387497901917,-0.04776216670870781,-0.047227341681718826,-0.12475358694791794,-0.09747546911239624,-0.11906740069389343,-0.06343070417642593,-0.06609512120485306,-0.024368098005652428,0.017405344173312187,0.04598532244563103,-0.014004595577716827,-0.005513003561645746,-0.01424259040504694,0.020335769280791283,-0.019050752744078636,-0.028366969898343086,-0.00691139604896307,-0.03840816020965576,-0.08977268636226654,-0.07028716802597046,-0.07875628769397736,-0.05467233434319496,-0.03588327765464783,0.0889793112874031,0.16048330068588257,0.19355973601341248,0.12132442742586136,0.0041555315256118774,-0.061895258724689484,-0.08519066125154495,-0.08981575071811676,-0.11263005435466766,-0.10833746194839478,-0.06765018403530121,0.0005664736381731927,0.014878137037158012,-0.003656938672065735,0.023371508345007896,0.02155029959976673,0.01378077082335949,-0.0043075429275631905,0.009998098015785217,0.014815288595855236,-0.017423110082745552,0.008103403262794018,-0.009555566124618053,-0.07585512101650238,-0.08021508157253265,-0.08746542781591415,-0.09026309847831726,-0.05569223314523697,0.0922469049692154,0.19056591391563416,0.22115525603294373,0.08740968257188797,-0.03515543416142464,-0.027909716591238976,-0.07814783602952957,-0.07180631160736084,-0.04323462396860123,-0.04309955984354019,-0.05252659693360329,-0.02201315015554428,0.011135122738778591,-0.006003886926919222,0.02254652976989746,0.001929710153490305,0.04988715425133705,-0.00971691869199276,0.047145843505859375,0.007677986286580563,-0.02489369735121727,0.02023005485534668,-0.0587698370218277,-0.058720823377370834,-0.0645737275481224,-0.1349666565656662,-0.1414315104484558,-0.09167899936437607,0.1338483840227127,0.20954491198062897,0.19740311801433563,0.07572907209396362,0.003971755970269442,-0.03915749490261078,-0.08352159708738327,-0.03965151309967041,-0.024691548198461533,-0.05055925250053406,-0.032186683267354965,0.018169621005654335,0.031486544758081436,0.018173672258853912,-0.011696316301822662,0.055419765412807465,0.034957319498062134,-0.011913681402802467,0.025825683027505875,-0.0021554501727223396,0.02472742274403572,-0.006834782660007477,-0.0532003678381443,-0.03581807762384415,-0.05476799234747887,-0.12684038281440735,-0.19849306344985962,-0.15219871699810028,0.19008930027484894,0.2065354883670807,0.1542414277791977,0.008067630231380463,-0.06858757138252258,-0.10181374847888947,-0.07145297527313232,-0.038974836468696594,-0.03424374386668205,-0.001845544669777155,-0.02189371921122074,-0.03113715536892414,-0.010777117684483528,0.05190947651863098,-0.0021632479038089514,-0.0015306493733078241,-0.009321838617324829,0.05181300640106201,0.020892944186925888,0.026048528030514717,0.0211381446570158,0.012341481633484364,-0.02547418139874935,-0.0737757533788681,-0.09988023340702057,-0.1459013670682907,-0.19210900366306305,-0.06663455814123154,0.16249758005142212,0.21813225746154785,0.22369852662086487,-0.034401923418045044,-0.06306923180818558,-0.09790876507759094,-0.08634649962186813,-0.0500684529542923,-0.02888333424925804,-0.0223255418241024,-0.009309295564889908,0.018898839130997658,0.019483553245663643,0.011894519440829754,-0.002293964847922325,0.005988325458019972,0.01133290957659483,-0.014164874330163002,0.010949120856821537,0.0016754816751927137,-0.005782876163721085,-0.015784576535224915,-0.05267886444926262,-0.028240030631422997,-0.13385586440563202,-0.1625981479883194,-0.12413377314805984,0.010007916018366814,0.15493586659431458,0.17158231139183044,0.1546964794397354,-0.049743201583623886,-0.16308370232582092,-0.11887065321207047,-0.1101854145526886,-0.05250505357980728,-0.07430796325206757,-0.022850127890706062,0.0006128659006208181,0.013722404837608337,-0.0007046813261695206,0.02471921592950821,0.03631182760000229,0.010463761165738106,0.010444811545312405,0.047158464789390564,0.0260405782610178,0.029507659375667572,-0.03474144637584686,-0.045394569635391235,-0.03896445035934448,-0.0892479419708252,-0.1081283763051033,-0.05988118052482605,-0.05153190344572067,0.015610541217029095,0.14954526722431183,0.20618803799152374,0.039390984922647476,-0.13107705116271973,-0.15085814893245697,-0.1168072447180748,-0.10573907196521759,-0.044358085840940475,-0.05995747447013855,-0.004599431995302439,0.010438743978738785,0.011933608911931515,-4.7132925828918815e-05,0.04532209411263466,0.007638926617801189,-0.006984797306358814,0.05518652871251106,0.040697094053030014,0.004233768675476313,0.01242332998663187,-0.025384869426488876,-0.08317063748836517,-0.09870351105928421,-0.08585433661937714,-0.07491879165172577,-0.01845628395676613,-0.036967094987630844,0.052563250064849854,0.16617466509342194,0.1516457200050354,0.016416683793067932,-0.08516239374876022,-0.1539178192615509,-0.13200855255126953,-0.0837453305721283,-0.03698568791151047,-0.03830511495471001,-0.052064355462789536,-0.04316960275173187,-0.02514629065990448,0.015358027070760727,0.002264945302158594,0.03927288576960564,0.022260677069425583,0.005145697854459286,0.018601486459374428,0.012569128535687923,0.015973154455423355,-0.04098620265722275,-0.13542184233665466,-0.11197373270988464,-0.061423663049936295,-0.02938547544181347,-0.013692591339349747,0.013405418023467064,0.049874693155288696,0.10373380780220032,0.12415967136621475,-0.04718291014432907,-0.11220528185367584,-0.10828004032373428,-0.04269326850771904,-0.08738815784454346,-0.042218271642923355,-0.036769092082977295,-0.056492879986763,-0.0161394402384758,0.016304861754179,0.01034009363502264,0.008369965478777885,0.03975677862763405,0.008849731646478176,-0.013949699699878693,0.04737275466322899,0.0074590397998690605,0.02879280410706997,-0.07992873340845108,-0.11366250365972519,-0.11126810312271118,-0.034854706376791,-0.044767074286937714,-0.0066143544390797615,-0.005086093209683895,0.03965360298752785,0.09565918892621994,0.024171268567442894,-0.000630626396741718,-0.020924415439367294,-0.009745590388774872,-0.029865767806768417,-0.014192224480211735,-0.025034857913851738,-0.03654136508703232,0.013278807513415813,-0.03510555997490883,-0.006044173147529364,0.04013132303953171,0.029553648084402084,0.0412435419857502,0.008655245415866375,0.01181122288107872,0.039086028933525085,0.03417998552322388,-0.009595449082553387,-0.05268300324678421,-0.010319994762539864,-0.04186840355396271,-0.001027683145366609,0.026680100709199905,0.02703380025923252,0.00898132286965847,0.013093501329421997,0.01539734285324812,-0.009768243879079819,-0.02687295712530613,0.03175651654601097,0.03695835545659065,0.010057177394628525,0.00438469834625721,0.015419376082718372,-0.03594595566391945,0.008241555653512478,-0.025154074653983116,0.01073385775089264,0.017987258732318878,-0.013395072892308235,-0.008241732604801655,0.03853320702910423,0.031097881495952606,0.019946713000535965,0.029478251934051514,-0.000567009556107223,0.05541462451219559,0.05101398006081581,0.0455007366836071,0.013911860063672066,0.025054696947336197,0.026274967938661575,-0.03812794014811516,-0.050330355763435364,-0.05141223222017288,-0.029064875096082687,-0.0036278548650443554,0.039115019142627716,0.0535404197871685,-0.002766259014606476,0.019726557657122612,-0.003309492953121662,-0.03827907145023346,-0.004571689758449793,0.03035232238471508,-0.014878254383802414,0.04928429052233696,0.004322085529565811,0.011080729775130749,0.028132762759923935,-0.014017805457115173,-0.012567415833473206,0.0013844503555446863,0.05269557610154152,0.10476188361644745,0.09018988162279129,0.07512220740318298,0.0684860497713089,0.011423757299780846,-0.0009276209166273475,-0.09336093813180923,-0.14753735065460205,-0.16610559821128845,-0.015006688423454762,0.04480632022023201,0.05015181005001068,0.08594608306884766,0.05589738488197327,-0.00889166072010994,0.02409934811294079,-0.026784108951687813,0.0037643543910235167,-0.02583128772675991,0.03827431797981262,-0.008852081373333931,0.030143016949295998,0.04682878777384758,0.04848911985754967,-0.011890302412211895,-0.0037287890445441008,0.03913458436727524,-0.007043430116027594,0.04205312579870224,0.07140298932790756,0.038587771356105804,0.04661739245057106,0.01897112838923931,-0.019049325957894325,-0.06991155445575714,-0.05779328942298889,-0.05691290646791458,-0.06758132576942444,0.05109328776597977,0.04946269094944,0.055383194237947464,0.026675455272197723,0.00900196097791195,0.029138104990124702,-0.010962537489831448,0.034243226051330566,-0.0067871930077672005,0.02677191235125065,0.01918102242052555,0.054940640926361084,-0.004547769203782082,0.009125689044594765,-0.0012893897946923971,0.03437148407101631,-0.01686127483844757,0.0001982245739782229,0.032212965190410614,0.006128333974629641,-0.020429199561476707,-0.014766537584364414,-0.017170311883091927,-0.10130032896995544,-0.08575372397899628,-0.07770319283008575,-0.06927495449781418,-0.11127305030822754,-0.07627348601818085,-0.011141088791191578,0.02846192941069603,0.03981290012598038,-0.007976891472935677,-0.018046237528324127,0.027609463781118393,0.028911249712109566,0.04596077650785446,0.033655691891908646,0.04824674502015114,0.03442997485399246,-0.0021139259915798903,0.053697336465120316,0.037368256598711014,-0.010171708650887012,0.025293780490756035,0.03876594826579094,-0.0025123516097664833,-0.013028361834585667,0.016784317791461945,-0.009877191856503487,0.008301532827317715,-0.07109913229942322,-0.046102993190288544,-0.019746020436286926,-0.025223253294825554,-0.012078345753252506,-0.016321081668138504,-0.013127900660037994,-0.021834081038832664,0.026800919324159622,0.00013098066847305745,0.030187536031007767,0.05219796672463417,0.034531448036432266,-0.004761211108416319,-0.001718844287097454,0.026692867279052734,0.021264759823679924,-0.013491158373653889,0.03314035013318062,-0.013351739384233952,0.019063569605350494,-0.009949280880391598,0.0342685803771019,0.05446617305278778,0.011929711326956749,0.03145461156964302,-0.015074800699949265,0.0463729128241539,0.040342722088098526,0.03631627559661865,0.01992541179060936,0.012675097212195396,0.0053891390562057495,-0.020096996799111366,-0.015127845108509064,0.0018519969889894128,0.04405848681926727,0.02708667889237404,0.02705446258187294,0.03567523881793022,0.019982835277915,0.04679292067885399,0.033197637647390366,0.046213001012802124,-0.0017275195568799973,0.01896224170923233,0.04953288659453392,0.03391832485795021,0.010458012111485004,0.03546642139554024,-0.006356407422572374,-0.0014575710520148277,0.020578596740961075,0.010160339996218681,0.007021048571914434,0.03561319783329964,0.01261812075972557,-0.00939853023737669,0.005499269813299179,-0.008790179155766964,0.04615276679396629,0.04584358632564545,-0.012662339955568314,-0.0125227440148592,0.018985051661729813,0.00392527412623167,0.054143212735652924,0.03132544457912445,-0.008048483170568943,0.02637464366853237,0.014481865800917149,0.042785581201314926,0.03687503561377525,-0.004839494824409485
0.03495330736041069,-0.004543410148471594,-0.02255219593644142,-0.03324253857135773,-0.004169323015958071,-0.038105957210063934,0.018387869000434875,-0.02526864781975746,-0.00245159724727273,-0.04281977564096451,0.014788072556257248,-0.01626620814204216,-0.011902518570423126,-0.021025843918323517,-0.02770138345658779,-0.040404241532087326,-0.010014123283326626,-0.030517885461449623,0.009889841079711914,-0.04063519090414047,0.004153761547058821,-0.029669377952814102,-0.04252634197473526,0.0037391672376543283,-0.040484704077243805,-0.04006826877593994,-0.005793148186057806,-0.013125777244567871,0.004777033347636461,-0.003052408341318369,-0.04038088023662567,0.014848660677671432,-0.0147322379052639,-0.02810833789408207,-0.025237126275897026,0.021236417815089226,0.0240105539560318,6.321839464362711e-05,-0.01591883786022663,-0.018279753625392914,-0.0323871374130249,-0.02256782352924347,-0.011437630280852318,0.01737048849463463,-0.03704956918954849,-0.01558456476777792,0.007597987540066242,-0.0053291418589651585,-0.031578268855810165,-0.01049158163368702,0.0062632933259010315,-0.008949176408350468,0.0012229749700054526,-0.022699907422065735,0.0033004283905029297,-0.019073475152254105,-0.012720465660095215,-0.014665868133306503,-0.038944900035858154,0.009130326099693775,0.009254480712115765,0.012855314649641514,0.010882235132157803,-0.03358052298426628,-0.028098788112401962,-0.02192506566643715,-0.021036047488451004,0.004712873138487339,0.0243858490139246,-0.033332131803035736,-0.033383700996637344,0.0008952597272582352,-0.00786084495484829,-0.0008010969031602144,0.018791722133755684,-0.04667462781071663,-0.008034806698560715,0.01030451525002718,-0.0026911678723990917,-0.03216682747006416,-0.04268839210271835,-0.02930452488362789,-0.0128311887383461,0.009068630635738373,-0.040168844163417816,-0.004917810205370188,0.007473816629499197,-0.02137201651930809,-0.039976462721824646,-0.004210285842418671,-0.044766757637262344,0.005386744160205126,-0.0008606135961599648,0.015473177656531334,0.02188531681895256,0.04672108590602875,0.07281091064214706,0.0389014333486557,0.04317561909556389,0.03355155512690544,0.039615292102098465,0.041641946882009506,-0.017413610592484474,-0.003301649820059538,-0.032192595303058624,-0.02020694501698017,-0.059920065104961395,-0.041398629546165466,0.013762245886027813,0.0050091869197785854,0.016080977395176888,-0.026902785524725914,-0.009954981505870819,-0.046270377933979034,-0.04610053449869156,-0.011484943330287933,-0.0010716951219365,-0.023359352722764015,0.007176082115620375,-0.020496869459748268,-0.010437360033392906,0.03490078076720238,0.0732114389538765,0.10555639863014221,0.10631649941205978,0.10190745443105698,0.11311018466949463,0.10108385235071182,0.027971176430583,0.02863530069589615,0.05432289093732834,0.024541528895497322,-0.028270654380321503,-0.05115802213549614,-0.07942825555801392,-0.05643460527062416,-0.017138110473752022,-0.03956429660320282,-0.01840111054480076,0.017919976264238358,0.012069216929376125,-0.044680073857307434,0.0053672813810408115,-0.00306704081594944,-0.021407580003142357,0.010439648292958736,-0.032859258353710175,0.04074447974562645,0.017524030059576035,0.11788266152143478,0.0925946906208992,0.14733028411865234,0.10889928787946701,0.1339740753173828,0.09303717315196991,0.11945080757141113,0.10748254507780075,0.125682532787323,0.09406121075153351,0.061622291803359985,-0.017357422038912773,0.004844846203923225,-0.02868644706904888,-0.07665234059095383,-0.024827558547258377,-0.0031861434690654278,-0.007352718152105808,-0.008766859769821167,0.005682461895048618,0.020685702562332153,-0.042380254715681076,0.020226331427693367,-0.04015336185693741,-0.03428645059466362,0.019106142222881317,0.05223244056105614,0.08371919393539429,0.10738608241081238,0.10748262703418732,0.05174120143055916,0.06711622327566147,0.03173225745558739,0.07372419536113739,0.05977882444858551,0.03851906582713127,0.06115772947669029,0.02556350827217102,0.015054985880851746,0.03695029392838478,-0.020684627816081047,-0.02813647873699665,-0.02345762401819229,-0.09381423890590668,-0.021058790385723114,-0.0360095240175724,0.017285805195569992,-0.006251272279769182,-0.03762558102607727,-0.04146899655461311,-0.006711133290082216,-0.0211467444896698,0.00325051904655993,0.013846499845385551,0.07578082382678986,0.06074906140565872,0.08285019546747208,0.04190463200211525,0.050691694021224976,0.029940081760287285,0.023104997351765633,0.04881913214921951,0.027863290160894394,0.00614471361041069,-0.007280291523784399,-0.03802303224802017,-0.020459767431020737,-0.012506191618740559,0.013641122728586197,-0.035073526203632355,0.0020216554403305054,-0.0785011425614357,-0.06509733200073242,-0.01966303028166294,-0.026135684922337532,-0.021411817520856857,-0.0026036363560706377,0.01940270885825157,0.00846862606704235,0.00895968172699213,0.04042504355311394,0.02698427066206932,0.06616657972335815,0.06927021592855453,0.04676106572151184,0.027533335611224174,0.08746130764484406,0.09345066547393799,0.05480717495083809,0.052013613283634186,0.09119942039251328,0.05614614486694336,-0.002648655092343688,-0.017440728843212128,-0.004692438989877701,0.04263238236308098,-0.028246961534023285,0.0011270631803199649,-0.03488990664482117,-0.024193665012717247,-0.032525770366191864,-0.004922966472804546,0.020135384052991867,-0.04613085836172104,-0.02826884016394615,-0.031199181452393532,-0.03587600961327553,-0.02570541948080063,0.02922699600458145,0.004357694182544947,-0.007098391652107239,0.011370576918125153,-0.03496648743748665,0.03372035175561905,0.06167314946651459,0.03991486504673958,0.022047927603125572,0.019429117441177368,0.02351476438343525,0.05133688077330589,0.02113470807671547,0.04415195807814598,0.023073850199580193,0.0018520496087148786,0.02065338008105755,0.008012119680643082,-0.03261492773890495,-0.08394506573677063,-0.041420768946409225,-0.055750906467437744,-0.0089503712952137,0.01195275317877531,0.01832503452897072,0.013870995491743088,0.02254507876932621,-0.001923109288327396,0.011507198214530945,-0.0021963713224977255,0.005661810282617807,-0.04915638640522957,-0.09202644228935242,-0.09046987444162369,-0.05514560639858246,-0.07099366933107376,-0.1090085506439209,-0.08677129447460175,-0.05750230699777603,-0.06467367708683014,0.019433533772826195,0.002177012152969837,0.03693309426307678,-0.0056483009830117226,0.0067659360356628895,0.002753759501501918,-0.051135674118995667,-0.07035437971353531,-0.033020343631505966,0.004784363321959972,-0.010006625205278397,0.00022401518072001636,0.01429041102528572,0.0204378180205822,-0.02362261526286602,0.014607046730816364,-0.0012871347134932876,-0.015044675208628178,-0.09973593801259995,-0.12673456966876984,-0.15878765285015106,-0.15749341249465942,-0.19857452809810638,-0.1675749123096466,-0.2379935085773468,-0.21882808208465576,-0.22466619312763214,-0.10617267340421677,-0.07594656199216843,-0.05459867790341377,-0.036207497119903564,-0.00313481199555099,-0.037254299968481064,-0.01512589305639267,-0.025151625275611877,-0.035590317100286484,-0.055811040103435516,0.020592056214809418,0.01153390109539032,-0.022264190018177032,-0.03970395028591156,0.023397646844387054,0.008215467445552349,0.004416756797581911,-0.04230610281229019,-0.10331068187952042,-0.1958160400390625,-0.22275424003601074,-0.19360820949077606,-0.152006596326828,-0.17491675913333893,-0.21904729306697845,-0.1816195696592331,-0.2250680774450302,-0.15702617168426514,-0.16447202861309052,-0.09204107522964478,-0.07573555409908295,-0.040804676711559296,0.017773285508155823,-0.018761316314339638,-0.007811078801751137,-0.08323878794908524,-0.0770367905497551,-0.043399956077337265,-0.021300125867128372,0.01789603941142559,-0.028485549613833427,0.02351224608719349,-0.0351908840239048,-0.03707272931933403,0.009798349812626839,-0.05869509279727936,-0.10836251080036163,-0.16975511610507965,-0.19569215178489685,-0.18059247732162476,-0.14041602611541748,-0.07953520119190216,-0.09326863288879395,-0.07237006723880768,-0.037850648164749146,-0.08915076404809952,-0.063245989382267,-0.09616904705762863,-0.051998160779476166,-0.030866870656609535,-0.014620974659919739,-0.033256303519010544,-0.0222468301653862,-0.04290029779076576,-0.0548371896147728,-0.009038113988935947,0.021646903827786446,0.03093210980296135,-0.0034151712898164988,0.016275744885206223,-0.004397338721901178,-0.03179582208395004,-0.03579835221171379,-0.056000225245952606,-0.08212538808584213,-0.11190347373485565,-0.11002407968044281,-0.06876841932535172,-0.010271964594721794,-0.013621140271425247,0.007284470368176699,0.021590180695056915,0.03888256475329399,0.023164743557572365,-0.039811424911022186,-0.028941504657268524,-0.056879352778196335,-0.04791085422039032,-0.06505613774061203,-0.05906838923692703,-0.04386633262038231,-0.09262894839048386,-0.015404206700623035,0.028106704354286194,-0.0020551802590489388,0.003948082681745291,-0.0376097746193409,-0.02183675579726696,0.017360571771860123,0.0018548979423940182,-0.01847657933831215,-0.02904413267970085,-0.03705454245209694,-0.005837481003254652,-0.011349976994097233,0.048470206558704376,0.0243682861328125,-0.00635204091668129,0.05615782365202904,0.08680369704961777,0.08828739821910858,0.04999467730522156,0.039132989943027496,-0.002664606785401702,-0.027911875396966934,-0.05726990848779678,-0.015948664397001266,-0.01705145835876465,-0.024892432615160942,-0.04107985273003578,0.013498128391802311,0.03079293482005596,0.07582257688045502,0.03785077854990959,-0.03586529195308685,-0.02587311528623104,0.002370369154959917,-0.03054708242416382,0.00024486472830176353,0.018615106120705605,0.051272280514240265,0.06395973265171051,0.027618836611509323,0.02916596829891205,0.05102109536528587,0.05613138526678085,0.08653496950864792,0.13688994944095612,0.10457576811313629,0.03791800141334534,0.010327466763556004,0.05182958021759987,0.03899848833680153,-0.04040609300136566,-0.02746456116437912,0.0005259840399958193,0.027238143607974052,0.0032586604356765747,0.04002063721418381,0.05125829949975014,0.0870080441236496,0.020750857889652252,-0.01031577493995428,-0.029161691665649414,-0.012307272292673588,0.0013522895751520991,0.00012294482439756393,0.09070755541324615,0.11285123974084854,0.08547847718000412,0.04968657344579697,0.05632136017084122,0.03284676373004913,0.1003739982843399,0.09789970517158508,0.11622923612594604,0.10135413706302643,0.07046978175640106,0.05449795722961426,0.02814382314682007,0.024698970839381218,0.033300671726465225,0.009262277744710445,0.01364835724234581,0.03513677790760994,0.06788185238838196,0.09486948698759079,0.10375005006790161,0.09300749003887177,0.050658877938985825,0.006616066209971905,0.0014393150340765715,-0.017143921926617622,-0.039430633187294006,0.03903622925281525,0.08123090118169785,0.11061005294322968,0.09299343824386597,0.12521035969257355,0.05592484027147293,0.07810882478952408,0.10050823539495468,0.10464010387659073,0.12896233797073364,0.13384832441806793,0.05065498501062393,0.051091838628053665,0.031594082713127136,0.059075385332107544,0.047524597495794296,0.02419452741742134,0.034178029745817184,0.07166134566068649,0.11522380262613297,0.1493065357208252,0.11869215965270996,0.041084032505750656,0.03232591971755028,0.008171724155545235,-0.029062746092677116,-0.02258520945906639,-0.006255613639950752,-0.03279760479927063,0.08059605211019516,0.08969692140817642,0.07381309568881989,0.11315839737653732,0.10629484057426453,0.10638748854398727,0.08755703270435333,0.14992135763168335,0.09895731508731842,0.12510059773921967,0.040883492678403854,0.05929303541779518,0.03260762244462967,0.02903331257402897,0.05131896957755089,0.009268702939152718,0.051909320056438446,0.0391727015376091,0.11315654218196869,0.10766211152076721,0.10455833375453949,0.02536078356206417,-0.017595289275050163,0.005182560067623854,-0.04222957044839859,-0.008646649308502674,-0.02511897310614586,-0.013882098719477654,0.07369137555360794,0.08669617027044296,0.11137421429157257,0.10032714903354645,0.11058925092220306,0.12633788585662842,0.07788699865341187,0.1236521303653717,0.04061753302812576,0.03741537407040596,-0.007547760847955942,0.02445019595324993,0.028502333909273148,0.046214260160923004,0.07303798943758011,0.05986637622117996,0.03773614019155502,0.11076091974973679,0.12370528280735016,0.10076083242893219,0.0498286597430706,0.030539289116859436,0.024014003574848175,-0.015755068510770798,-0.03762011229991913,-0.009390871971845627,-0.00596513831987977,0.025929486379027367,0.02310952916741371,0.05979621037840843,0.07112416625022888,0.04232707619667053,0.0866558626294136,0.09190306812524796,0.07250044494867325,0.06203867867588997,0.023106424137949944,0.014576632529497147,0.0024526810739189386,-0.048483867198228836,0.03318389505147934,0.03017956018447876,0.11538179218769073,0.11100133508443832,0.05910751596093178,0.1095103770494461,0.07681353390216827,0.08670715987682343,0.05669517070055008,0.02192409336566925,0.01401155348867178,-0.02269667573273182,-0.04175514727830887,-0.045398447662591934,0.015182959847152233,0.02355526015162468,0.0213785283267498,0.029729854315519333,0.060369737446308136,0.04056413844227791,0.06217823177576065,0.10382969677448273,0.059006959199905396,0.0791039764881134,-0.02962147817015648,-0.037965334951877594,-0.04699522256851196,-0.030412448570132256,-0.008702348917722702,0.017484014853835106,0.05050618574023247,0.05765887349843979,0.05863643437623978,0.06801533699035645,0.07053379714488983,0.04881138727068901,0.011626668274402618,0.0059703923761844635,-0.004878251347690821,-0.03267623484134674,0.020562373101711273,-0.007246664259582758,0.0007110030855983496,0.01034632883965969,-0.019082123413681984,-0.03804999962449074,-0.002477726200595498,-0.01822858303785324,-0.028405167162418365,0.011072457768023014,-0.03455265238881111,-0.0019448822131380439,0.007488335948437452,-0.058125849813222885,-0.06400353461503983,-0.06947899609804153,-0.04941573366522789,-0.026954587548971176,0.03419950231909752,0.03574712947010994,0.011184821836650372,0.040356963872909546,0.012215135619044304,-0.009116463363170624,0.006443752441555262,0.024063443765044212,-0.025454485788941383,0.02289092168211937,0.016275545582175255,0.004536007065325975,-0.02161886915564537,-0.019954923540353775,-0.03572296351194382,-0.03913586214184761,-0.02271026000380516,-0.06846192479133606,-0.04757441207766533,-0.06251171231269836,-0.0763687938451767,-0.09126879274845123,-0.04615999385714531,-0.07040899991989136,-0.051329322159290314,-0.07121656090021133,-0.012565728276968002,-0.034594547003507614,-0.012429666705429554,-0.060644716024398804,-0.00572813069447875,-0.01127445138990879,-0.025952771306037903,0.021870773285627365,-0.0036626693326979876,-0.03033839911222458,0.012343019247055054,-0.005706798750907183,0.007532974239438772,0.01977287232875824,0.0118718221783638,-0.009592377580702305,-0.018551478162407875,-0.038795411586761475,-0.0393046960234642,-0.061849672347307205,-0.042624667286872864,-0.05841929838061333,-0.04474018141627312,-0.02879498153924942,-0.04341419041156769,-0.052101749926805496,-0.06321367621421814,-0.037816256284713745,-0.015872443094849586,-0.025168202817440033,-0.018396170809864998,-0.04971610754728317,-0.03360986337065697,-0.050182368606328964,0.005956764332950115,-0.027544640004634857,0.008685891516506672,0.01865258254110813,0.004247794393450022,-0.005780980456620455,0.018119879066944122,-0.02339615672826767,-0.005563617218285799,0.010350080206990242,-0.02744273841381073,-0.01495775580406189,-0.0008083177963271737,-0.04721641167998314,-0.01015730481594801,-0.03960549458861351,0.006824820768088102,-0.03869958221912384,0.015650318935513496,-0.05095241591334343,-0.050196826457977295,-0.027052706107497215,-0.03397662565112114,0.010285274125635624,0.011953527107834816,0.007036997005343437,-0.020341837778687477,-0.027637002989649773,-0.04566393047571182,0.015707148239016533,-0.005701225250959396,-0.03169277310371399,-0.03347993642091751,-0.03709062933921814,-0.005711343605071306,0.02168453484773636,-0.0024599041789770126,0.01463795080780983,0.01109913270920515,-0.0370112843811512,-0.0063525717705488205,0.018381187692284584,-0.022048108279705048,-0.029046783223748207,0.01901995576918125,-0.016707751899957657,-0.02602553181350231,-0.03803084045648575,-0.02243519201874733,0.003518645418807864,-0.033275753259658813,-0.007597958669066429,-0.044124387204647064,-0.02519574761390686,-0.00499474722892046,0.016903268173336983,-0.0320756733417511,0.02362026832997799,0.00410121213644743,-0.01693708822131157,0.02354814112186432,0.013734863139688969
0.0009963226038962603,-0.018142588436603546,0.017872199416160583,-0.030477456748485565,0.016120675951242447,0.02199568971991539,0.0035256952978670597,-0.004395204596221447,-0.020473122596740723,-0.03306081146001816,0.018468216061592102,-0.006626521237194538,-0.019034095108509064,-0.005792886950075626,-0.03149349242448807,-0.03549787402153015,-0.0024835863150656223,-0.028628453612327576,0.004892940167337656,-0.02889232337474823,0.022766757756471634,0.021298084408044815,-0.020428985357284546,-0.009295245632529259,0.0067767067812383175,-0.008097374811768532,0.0024046599864959717,0.0004427132662385702,0.010414622724056244,-0.024581149220466614,-0.016084667295217514,-0.0009761338587850332,0.014860976487398148,-0.019231434911489487,-0.015890035778284073,0.01193578727543354,-0.0032013573218137026,0.010485425591468811,-0.036231908947229385,-0.0012580474140122533,0.012596258893609047,0.021065888926386833,-0.008004138246178627,-0.03008594736456871,-0.021346693858504295,0.02159271202981472,-0.0036808240693062544,-0.022387269884347916,0.0068403310142457485,0.001872444641776383,0.0004941995721310377,-0.031207870692014694,-0.04197065159678459,0.00696571683511138,0.023644838482141495,0.003952694591134787,-0.042956843972206116,-0.04397137463092804,0.01007910817861557,-0.006038594525307417,0.007233711425215006,0.015108393505215645,0.017615394666790962,-0.0034347781911492348,-0.026466015726327896,-0.016459695994853973,-0.01564381644129753,-0.029619524255394936,-0.03057977370917797,0.005006060004234314,0.0013842643238604069,-0.03423871099948883,-0.010623040609061718,-0.03182986378669739,-0.010275784879922867,-0.02666717953979969,-0.014424496330320835,-0.03354935720562935,-0.045858483761548996,-0.002621699823066592,-0.008911889046430588,0.011453798040747643,-0.03952445462346077,0.011360561475157738,-0.03750160336494446,-0.044424913823604584,-0.0396447479724884,0.02313236892223358,-0.012721586041152477,0.011734728701412678,0.0001738507125992328,0.005257057026028633,-0.03428066149353981,-0.013181883841753006,-0.018406935036182404,0.021706486120820045,0.022504037246108055,0.017741896212100983,0.027087023481726646,0.013086601160466671,0.07193848490715027,0.0478520505130291,0.04284664988517761,-0.011966935358941555,0.03265910968184471,0.0010637030936777592,-0.02417011372745037,-0.01078907959163189,-0.00012717407662421465,-0.030014993622899055,-0.034341346472501755,-0.02216854691505432,-0.030155442655086517,-0.034707095474004745,-0.04092682525515556,-0.01761590503156185,0.02392352744936943,0.017634736374020576,-0.02063687890768051,-0.007742609828710556,0.05624115467071533,0.027254102751612663,0.06742747873067856,0.052330002188682556,0.09282519668340683,0.1160399541258812,0.1019071638584137,0.07965303212404251,0.06443332135677338,0.04071803390979767,0.03741665929555893,0.020580273121595383,0.01465787086635828,-0.040672507137060165,-0.0662444680929184,-0.04823324456810951,0.0007830143440514803,-0.016163889318704605,-0.024118509143590927,-0.007419269997626543,-0.010356821119785309,-0.0274091437458992,-0.04530475288629532,-0.029454633593559265,0.02535208687186241,0.021329771727323532,0.014499098993837833,0.05541566386818886,0.04685864597558975,0.05267765000462532,0.10256007313728333,0.04936928674578667,0.07964431494474411,0.03443211689591408,0.020613811910152435,0.03957400470972061,0.05579400807619095,0.03595554828643799,-0.0129076624289155,0.0009738560765981674,-0.00566556490957737,-0.0588497593998909,-0.0691208615899086,-0.08022899180650711,-0.020585233345627785,-0.03284306451678276,-0.03255375847220421,0.020564017817378044,-0.006692067254334688,-0.012356262654066086,-0.03191555291414261,0.02560870349407196,-0.013479765504598618,0.012230944819748402,0.06905527412891388,0.07463822513818741,0.06644674390554428,0.09468188881874084,0.07033159583806992,0.07486101239919662,0.03183239698410034,0.06810309737920761,0.03373689576983452,0.054398685693740845,0.05253709480166435,0.067474864423275,0.032088954001665115,0.03168538957834244,0.003078989451751113,-0.00014714698772877455,-0.03871307894587517,-0.06695274263620377,-0.04651043191552162,-0.042747125029563904,0.010180199518799782,0.020054886117577553,-0.030223103240132332,-0.02370958961546421,0.014199698343873024,-0.036258015781641006,-0.005905728787183762,0.020818980410695076,0.09836248308420181,0.07117702811956406,0.05824032798409462,0.009148971177637577,0.061467863619327545,0.04903777316212654,0.03478687256574631,0.07677623629570007,0.07389422506093979,0.08015844970941544,0.07713724672794342,0.06323540955781937,0.055762674659490585,0.07117920368909836,0.0497182197868824,0.05593285337090492,-0.0008803027449175715,-0.0145240668207407,-0.05330593138933182,-0.05026882141828537,-0.021012431010603905,-0.021138835698366165,-0.02159428596496582,-0.004719393327832222,-0.01192499604076147,-0.02092190831899643,0.039900053292512894,0.06936603039503098,0.09189741313457489,0.047431427985429764,0.017463868483901024,0.015929140150547028,-0.009717054665088654,-0.0017552804201841354,-0.037988632917404175,0.01587982103228569,0.02304331585764885,0.1028040200471878,0.10488597303628922,0.08255968242883682,0.02947298251092434,0.07068706303834915,0.0832681730389595,0.07073806971311569,0.06749927252531052,-0.01295634638518095,-0.08373362571001053,-0.07584098726511002,0.003928069956600666,0.002295108512043953,-0.03213110193610191,0.015745246782898903,-0.020718421787023544,0.015108435414731503,0.02653724141418934,0.025290023535490036,0.03365199640393257,0.0014831338776275516,-0.018044253811240196,-0.06349610537290573,-0.056103698909282684,-0.09854283183813095,-0.09687157720327377,-0.1281232386827469,-0.0367184616625309,0.08005113899707794,0.11745120584964752,0.07837451994419098,0.08814965933561325,0.06398589164018631,0.10538483411073685,0.12700875103473663,0.07034313678741455,0.016019148752093315,-0.03438633680343628,-0.06075458973646164,-0.022252237424254417,-0.0032818522304296494,-0.04626712203025818,-0.0053598228842020035,-0.03635352849960327,-0.04111405089497566,-0.02376066893339157,0.016481244936585426,0.016650309786200523,-0.03356250748038292,-0.045601844787597656,-0.13793936371803284,-0.11852514743804932,-0.14922058582305908,-0.1374986618757248,-0.16913622617721558,-0.04046020284295082,0.11936359107494354,0.09808579832315445,0.10441610217094421,0.06798668205738068,0.06811586022377014,0.0724995955824852,0.08517216145992279,0.02707081474363804,-0.0014763951767235994,-0.05167081207036972,-0.04139938950538635,0.014532855711877346,0.018931763246655464,-0.02109415829181671,-0.008047429844737053,0.01240953803062439,0.023789986968040466,0.033355191349983215,0.0025018895976245403,-0.022134512662887573,-0.07066977024078369,-0.1419336348772049,-0.1631261259317398,-0.15568505227565765,-0.13879527151584625,-0.08485174924135208,-0.04120798036456108,0.052172090858221054,0.09741049259901047,0.0638352707028389,0.08304651826620102,0.07241587340831757,0.08002591878175735,0.08904217183589935,0.012250036001205444,-0.04814225062727928,-0.01928541250526905,-0.024732723832130432,-0.04331929609179497,-0.03577498346567154,-0.007234876975417137,-0.03478866443037987,-0.03259598836302757,0.0044715264812111855,-0.010091980919241905,-0.010291045531630516,-0.05392376333475113,-0.04253765940666199,-0.10722942650318146,-0.16104774177074432,-0.10042034834623337,-0.11840278655290604,-0.03817266598343849,-0.03781266510486603,0.028368346393108368,0.06826212257146835,0.0869932696223259,0.06362053006887436,0.06953221559524536,0.038655202835798264,0.06542402505874634,-0.006363995838910341,-0.014987284317612648,-0.09442516416311264,-0.04605267941951752,-0.04151169955730438,0.011826819740235806,-0.03177105262875557,-0.009023815393447876,0.010566411539912224,-0.044040337204933167,-0.03666294366121292,-0.011576950550079346,-0.012049291282892227,-0.010901706293225288,-0.023100757971405983,-0.06195921078324318,-0.10159838944673538,-0.10415074229240417,-0.08314531296491623,-0.04975403845310211,-0.0008490311447530985,0.06563056260347366,0.08601242303848267,0.07033013552427292,0.04716810956597328,0.04268081113696098,0.03443513438105583,0.055593617260456085,-0.029343681409955025,-0.06735115498304367,-0.09254463016986847,-0.06311571598052979,-0.07301300764083862,-0.007639009039849043,0.01610974594950676,-0.046706121414899826,-0.045280665159225464,0.023733923211693764,-0.037948332726955414,-0.0011511400807648897,-0.025903932750225067,-0.036902494728565216,-0.04726794362068176,-0.09812181442975998,-0.11639349162578583,-0.08875632286071777,-0.05970423296093941,-0.07347284257411957,-0.02575359120965004,0.056480877101421356,0.046461138874292374,0.07462261617183685,0.019936304539442062,-0.003724309615790844,0.024164289236068726,0.0283515602350235,-0.01700402982532978,-0.023057235404849052,-0.02999631129205227,-0.045790061354637146,-0.0014450259041041136,-0.017316918820142746,-0.03753507137298584,0.007433596532791853,-0.029032548889517784,0.0008253648411482573,-0.01721135713160038,0.02228417433798313,-0.03176480531692505,-0.016280481591820717,-0.017852436751127243,-0.03649766370654106,-0.10024856775999069,-0.07895578444004059,-0.09516508132219315,-0.051472585648298264,-0.03529762476682663,0.05087066441774368,0.05678825080394745,0.0198828037828207,0.004708125721663237,-0.02892812341451645,0.007053938694298267,0.0037253836635500193,0.02694401703774929,0.07312856614589691,0.05294175446033478,-0.02057567983865738,-0.006679319776594639,-0.02445276454091072,-0.029895566403865814,-0.02976544015109539,-0.03457874804735184,-0.043877534568309784,-0.03560924902558327,-0.004317455925047398,0.003918187227100134,0.034741658717393875,0.0013400566531345248,-0.028612105175852776,-0.09808161109685898,-0.1021452471613884,-0.1115754023194313,-0.09881387650966644,-0.0905660018324852,-0.029037058353424072,-0.003964872565120459,-0.010767009109258652,-0.032971613109111786,-0.0739218220114708,0.008440427482128143,0.037366561591625214,0.07393898814916611,0.06989414989948273,0.07542350888252258,0.03868177533149719,0.017045898362994194,-0.002826496260240674,-0.020287523046135902,0.0188443660736084,0.003958116285502911,0.009626008570194244,0.003514765063300729,0.017639918252825737,0.054937321692705154,0.0705193430185318,-0.011133511550724506,-0.039421290159225464,-0.03422962874174118,-0.08806073665618896,-0.13859687745571136,-0.19625788927078247,-0.1409415900707245,-0.14935965836048126,-0.08953237533569336,-0.1330956369638443,-0.04809746891260147,0.0291216429322958,0.05768761783838272,0.06930936872959137,0.06590346992015839,0.05618785321712494,0.10409072786569595,0.038476575165987015,0.03861386701464653,0.004223058465868235,0.002863779664039612,-0.013066082261502743,0.0003119405300822109,0.0037031874526292086,0.017630770802497864,-0.0300208181142807,0.07245636731386185,0.09420906752347946,0.07962527871131897,0.006421784404665232,-0.02286708354949951,-0.0924251526594162,-0.11196178197860718,-0.13203240931034088,-0.12202219665050507,-0.18078991770744324,-0.1306465119123459,-0.13433721661567688,-0.006692195776849985,0.04893570765852928,0.09416207671165466,0.0848659947514534,0.08438649028539658,0.07907435297966003,0.10456324368715286,0.11064647138118744,-0.01319020427763462,-0.039579734206199646,-0.04786752164363861,0.0002842136309482157,-0.021515600383281708,0.007369548082351685,0.02332180365920067,0.013345008715987206,0.041887953877449036,0.07800093293190002,0.08122461289167404,0.04163380339741707,0.017897794023156166,-0.01120844017714262,-0.06319501250982285,-0.10939500480890274,-0.13829734921455383,-0.08664257824420929,-0.12363855540752411,-0.04179678112268448,0.008267000317573547,0.09622103720903397,0.07470908015966415,0.12069135904312134,0.08009225130081177,0.10195077955722809,0.08744923025369644,0.03264236822724342,-0.002845006762072444,-0.04718434810638428,-0.050266291946172714,-0.04102562740445137,-0.024216001853346825,-0.03773284703493118,-0.003732140175998211,0.012750383466482162,0.07532435655593872,0.10861862450838089,0.12529602646827698,0.08606907725334167,0.03831063583493233,0.0856308713555336,0.058077193796634674,-0.04286656156182289,-0.0388733372092247,-0.08586463332176208,-0.08066388964653015,0.0157094057649374,0.0033869741018861532,0.07476896047592163,0.10325320810079575,0.12570767104625702,0.09138952940702438,0.07155982404947281,0.06728480756282806,-0.020825091749429703,-0.017413029447197914,-0.030848976224660873,-0.04539620503783226,-0.0018613185966387391,0.0005026319995522499,-0.043945133686065674,0.007065862882882357,-0.020238636061549187,0.05024884641170502,0.0919937863945961,0.09224307537078857,0.09434971958398819,0.09792689979076385,0.02686256170272827,0.027087105438113213,0.01146482490003109,-0.046359214931726456,-0.03965714946389198,-0.038967449218034744,-0.01440976932644844,0.007960392162203789,0.027625687420368195,0.02833821065723896,0.08870161324739456,0.07023867219686508,0.07930974662303925,0.0200206208974123,-0.02032150886952877,-0.008921664208173752,-0.0593598335981369,-0.024399297311902046,-0.004125170409679413,-0.009658685885369778,-0.037256598472595215,-0.04273546487092972,0.011151823215186596,0.014615325257182121,0.05235081911087036,0.07606629282236099,0.07586624473333359,0.012521935626864433,0.032678402960300446,-0.017480704933404922,0.031824082136154175,0.02489074133336544,-0.012102555483579636,-0.030495421960949898,-0.039806216955184937,0.02615988627076149,0.04508829861879349,0.06518051773309708,0.05454561114311218,0.044505298137664795,0.003959491848945618,-0.04314722120761871,-0.01925179921090603,-0.032758019864559174,-0.02086765691637993,-0.014739660546183586,-0.004854092374444008,-0.02761472389101982,0.01718856394290924,-0.007330283522605896,0.0006872101803310215,-0.00510753458365798,0.04405137896537781,0.05395679175853729,0.08586812764406204,0.09263818711042404,0.050343237817287445,0.04046641290187836,0.044145189225673676,0.005469254683703184,-0.03009060025215149,0.016102071851491928,0.006238322239369154,-0.010288981720805168,-0.028967060148715973,0.031272295862436295,0.01689974218606949,-0.011831109412014484,0.0008423039689660072,-0.04373088851571083,0.008476070128381252,-0.01605861634016037,-0.011704371310770512,-0.015849096700549126,0.0054157148115336895,-0.014623422175645828,0.016819849610328674,-0.005873305257409811,-0.023369913920760155,-0.03233983367681503,0.0420483760535717,0.022544579580426216,0.08221246302127838,0.08929891139268875,0.09260614961385727,0.08874069154262543,0.09762062877416611,0.11247355490922928,0.11168120056390762,0.09358057379722595,0.030665352940559387,0.035605721175670624,0.044630762189626694,0.016978444531559944,-0.03118499368429184,-0.03983172029256821,-0.05076901614665985,-0.0016168496804311872,-0.015138366259634495,0.001478989259339869,0.019243109971284866,-0.006039719562977552,0.016238432377576828,-0.046479232609272,0.02011919766664505,-0.043591298162937164,0.005863724742084742,0.006501880474388599,0.021463457494974136,-0.031143097206950188,0.02343170903623104,0.04441676288843155,0.06315036863088608,0.0781988725066185,0.05254673585295677,0.07147287577390671,0.10944947600364685,0.08920716494321823,0.030830683186650276,-0.013718321919441223,0.008637161925435066,-0.0352439358830452,-0.04205676168203354,0.026236386969685555,-0.047099266201257706,-0.048795320093631744,-0.03703748434782028,0.004373874515295029,0.0006767501472495496,0.009606564417481422,-0.012951536104083061,-0.027029309421777725,-0.010598037391901016,0.0011961832642555237,-0.030764013528823853,-0.020111989229917526,-0.03628771752119064,-0.010888153687119484,-0.039916276931762695,0.015857048332691193,-0.013016708195209503,-0.01345701515674591,0.02141760289669037,0.0005890285829082131,-8.81391461007297e-05,-0.045918434858322144,-0.01547727920114994,-0.047887638211250305,-0.002694386290386319,-0.0247962549328804,-0.03127192333340645,-0.03708500415086746,-0.022899655625224113,-0.0402202382683754,0.01614098809659481,-0.017010584473609924,0.014701141975820065,-0.04364590719342232,-0.006517268251627684,0.024178396910429,-0.024792224168777466,-0.04284922778606415,-0.007229766342788935,-0.005997664760798216,-0.015238828025758266,0.0052301883697509766,-0.006175222806632519,0.019943712279200554,-0.03991815447807312,0.009424129500985146,-0.039401598274707794,-0.009970937855541706,-0.02872789464890957,0.006915844511240721,0.021419707685709,0.024078885093331337,-0.016085349023342133,-0.03721746429800987,0.019142284989356995,0.00863034650683403,0.015538576059043407,0.017222551628947258,0.01634417101740837,-0.02974247746169567,-0.028479300439357758,0.005522620398551226,0.010424096137285233,-0.00957321934401989
0.005256637465208769,0.01639310084283352,0.019326580688357353,0.009138258174061775,0.04358472302556038,0.0397370345890522,-0.01573541760444641,0.024705925956368446,-0.01584632880985737,0.018951723352074623,-0.017591658979654312,0.029906485229730606,0.009064164012670517,0.019949832931160927,-0.014627492986619473,-0.015674544498324394,0.005780836101621389,0.028782064095139503,0.008157080039381981,0.03931589797139168,0.03279922530055046,0.017923327162861824,-0.021497095003724098,0.03318556770682335,0.033986832946538925,-0.009448125958442688,0.03305314853787422,0.016513442620635033,0.0018793747294694185,0.004566670395433903,0.03429466858506203,0.012972138822078705,-0.013907542452216148,0.041252702474594116,0.0030341539531946182,0.02197282761335373,0.012123748660087585,0.004433522932231426,-0.009314874187111855,-0.004221505485475063,-0.014067932032048702,-0.02856140024960041,0.0036810056772083044,-0.026072047650814056,0.0040256790816783905,-0.009442616254091263,-0.016085147857666016,0.007854265160858631,0.013900554738938808,-0.022554924711585045,0.04137744382023811,0.04073387384414673,-0.011452073231339455,0.008614812046289444,0.007913126610219479,0.04474304988980293,0.0035605058073997498,0.02051726169884205,0.003960870206356049,-0.019738368690013885,-0.0030620789621025324,-0.012224100530147552,0.03687803074717522,-0.010205128230154514,-0.004153757821768522,0.006747172214090824,-0.016085321083664894,-0.03177960589528084,-0.04271332174539566,-0.04230894893407822,-0.04875043034553528,-0.04284559562802315,-0.029368357732892036,0.002480507828295231,-0.01608884707093239,-0.0011889481684193015,0.019764963537454605,-0.011344998143613338,0.04022981971502304,0.01022005919367075,0.038760725408792496,0.03630440682172775,0.029582912102341652,0.03375919535756111,-0.024669745936989784,0.02655784599483013,0.02514789067208767,0.041749149560928345,0.0038956589996814728,0.014227320440113544,0.016904396936297417,0.009047852829098701,0.03252847120165825,-0.011312508024275303,-0.0022895019501447678,-0.03398329019546509,-0.039983607828617096,-0.05912475660443306,-0.07907751947641373,-0.02706713229417801,-0.06803280860185623,-0.025586649775505066,-0.01415763795375824,-0.026019558310508728,-0.002542155561968684,-0.023164991289377213,-0.026476673781871796,-0.005731852259486914,0.005232928320765495,0.022893797606229782,-0.009796928614377975,0.035481661558151245,0.042665932327508926,0.02716890163719654,-0.01850607804954052,0.04137013852596283,0.016995644196867943,-0.007168951909989119,-0.001391480676829815,0.004119907505810261,-0.014110777527093887,0.009639075957238674,-0.05298817530274391,-0.037854403257369995,-0.02929965779185295,-0.07146641612052917,-0.10251417011022568,-0.06627532094717026,-0.0661517083644867,-0.06535425782203674,-0.0665816143155098,-0.03298873081803322,-0.009714200161397457,-0.0026028724387288094,0.011633011512458324,0.03355785831809044,0.01700912043452263,-0.004331042990088463,-0.008978384546935558,0.020512780174613,0.010656638070940971,0.03448016569018364,0.031413812190294266,0.008355370722711086,0.02992941625416279,-0.008047446608543396,0.013486411422491074,0.004465695004910231,0.01291073951870203,0.03145400807261467,0.008826850913465023,-0.01767408475279808,-0.023903226479887962,-0.048553016036748886,-0.05453098937869072,-0.07640226185321808,-0.04379693418741226,0.004010998178273439,0.02855365350842476,0.05653102695941925,0.03137025237083435,0.05156838893890381,0.04216867312788963,0.08090775460004807,0.10274681448936462,0.04833434149622917,0.04776836559176445,0.013064282946288586,0.03801602125167847,0.019683590158820152,-0.02279374748468399,-0.00989255029708147,0.032679375261068344,-0.00966224167495966,0.006077652797102928,0.03589291125535965,0.01418679766356945,-0.013097948394715786,0.013852403499186039,-0.06003134325146675,-0.09367553889751434,-0.07732579857110977,-0.14517062902450562,-0.14323993027210236,-0.11138243973255157,-0.09308512508869171,-0.09867941588163376,-0.038117874413728714,-0.03495033085346222,0.04807870462536812,0.03089231438934803,0.08798714727163315,0.13452626764774323,0.03685816749930382,0.004130846355110407,-0.016080768778920174,0.017450090497732162,0.014232940040528774,0.04503380134701729,-0.02282349392771721,-0.02473006397485733,0.049146875739097595,0.019442729651927948,0.017096394672989845,0.03832332044839859,-0.027782101184129715,-0.03174188733100891,-0.06552472710609436,-0.07860898971557617,-0.12505777180194855,-0.11667611449956894,-0.21278266608715057,-0.1780628263950348,-0.16292983293533325,-0.11238022893667221,-0.09951994568109512,-0.034997835755348206,-0.00247845146805048,0.037662819027900696,0.08339544385671616,0.0949135571718216,0.060527507215738297,-0.009951337240636349,-0.018709946423768997,0.005154020618647337,-0.0069396719336509705,-0.014890947379171848,0.030560635030269623,-0.016466721892356873,0.026207881048321724,0.022939765825867653,0.01657533459365368,-0.02526504173874855,-0.0568077377974987,-0.022744841873645782,-0.0366167314350605,-0.09767910838127136,-0.10927986353635788,-0.13775001466274261,-0.21535341441631317,-0.20646879076957703,-0.18839450180530548,-0.10088057816028595,-0.05665618181228638,-0.008610326796770096,-0.04901934415102005,0.015121928416192532,0.051016826182603836,0.01547787431627512,0.03794555738568306,0.00973438285291195,-0.016188500449061394,-0.018214697018265724,-0.016731180250644684,0.025760430842638016,0.02099822834134102,-0.002983763348311186,-0.009089620783925056,-0.02210639789700508,-0.03989974036812782,0.010242143645882607,-0.02140444703400135,-0.03710705786943436,-0.056849148124456406,-0.016443070024251938,-0.05089303106069565,-0.0714544802904129,-0.25227925181388855,-0.16301831603050232,-0.0572783499956131,-0.039838388562202454,0.008787324652075768,-0.006053654011338949,0.0004899614723399282,-0.017860546708106995,-0.005245395936071873,-0.05919785797595978,-0.009832092560827732,0.007174434140324593,-0.029546156525611877,-0.021211301907896996,-0.01262584887444973,0.03832806274294853,-0.02974195033311844,-0.037298355251550674,-0.017914585769176483,0.00065470120171085,-0.014154505915939808,-0.02897564508020878,0.0023759431205689907,0.05888450890779495,0.0333094485104084,0.040161896497011185,0.04124685004353523,-0.0877070501446724,-0.20264773070812225,-0.10024021565914154,-0.004313739947974682,0.05358263850212097,-0.001875598100014031,-0.007065207697451115,-0.04207420349121094,-0.05247729271650314,-0.04371070861816406,-0.030030779540538788,-0.052524104714393616,-0.0449584536254406,0.018378209322690964,0.03075844794511795,0.02066676877439022,-0.012343653477728367,-0.022160204127430916,0.006246333476155996,0.010045168921351433,-0.045612044632434845,-0.010027309879660606,0.014784196391701698,0.08002175390720367,0.09628903120756149,0.1551567018032074,0.15855343639850616,0.06925766170024872,-0.12023795396089554,-0.20161359012126923,-0.025229807943105698,0.11230884492397308,0.10822319984436035,-0.032822225242853165,0.005935278255492449,-0.050511281937360764,-0.03548930957913399,-0.08191917836666107,-0.0495622381567955,-0.00480693019926548,-0.014434752985835075,0.03356507793068886,0.03495096415281296,0.002035677433013916,0.018543263897299767,0.024493668228387833,-0.018156686797738075,-0.011813915334641933,-0.022877249866724014,0.0466570109128952,0.05899897590279579,0.09777913242578506,0.1445275992155075,0.1674528419971466,0.24547891318798065,0.10259188711643219,-0.05108226090669632,-0.13276143372058868,0.011496328748762608,0.1603507399559021,0.09506607055664062,0.02841334417462349,-0.008483901619911194,-0.03073674626648426,0.002173519926145673,-0.011087964288890362,-0.02434472367167473,-0.028212089091539383,0.023585308343172073,-0.02041647396981716,-0.011069209314882755,-0.01132981013506651,0.021003680303692818,-0.021313372999429703,0.02179074101150036,0.02636723965406418,0.00942869670689106,0.10358772426843643,0.12397570163011551,0.1473795771598816,0.11804124712944031,0.19118882715702057,0.24813130497932434,0.15408554673194885,-0.03314831107854843,-0.05105266720056534,0.05050010234117508,0.1532774567604065,0.16990484297275543,0.0862814337015152,0.055272750556468964,0.024681849405169487,0.030126873403787613,-0.026255352422595024,-0.025796834379434586,0.007955950684845448,-0.00699453242123127,0.04002058133482933,6.490740634035319e-05,0.005379049107432365,0.040038395673036575,0.022114694118499756,-0.007007735315710306,0.001487560337409377,0.04878155514597893,0.13527221977710724,0.15052759647369385,0.11451717466115952,0.13294067978858948,0.13738468289375305,0.19220894575119019,0.13811080157756805,0.014785622246563435,-0.06778733432292938,0.09802930057048798,0.15864510834217072,0.14808522164821625,0.11297714710235596,0.1286296397447586,0.08260492235422134,0.014205306768417358,0.03664153814315796,0.009671255946159363,-0.01941234990954399,-0.023229876533150673,0.04111092537641525,0.0122262854129076,-0.0024899321142584085,-0.012475955300033092,-0.015950268134474754,0.02790146879851818,0.056668736040592194,0.09136799722909927,0.09722326695919037,0.16926391422748566,0.145858496427536,0.1514911651611328,0.11739350110292435,0.0714888796210289,0.08569865673780441,0.011793435551226139,0.041547492146492004,0.1231895387172699,0.18598322570323944,0.15621806681156158,0.10069409757852554,0.06771203875541687,0.03612194210290909,0.012445888482034206,-0.021441886201500893,0.019333332777023315,-0.004618224687874317,-0.017235755920410156,0.013011971488595009,0.0012283630203455687,0.03901364281773567,0.016676360741257668,-0.011166229844093323,-0.015533830970525742,0.010307051241397858,0.020085038617253304,0.04263317957520485,0.1346699446439743,0.12841081619262695,0.08422574400901794,0.06644406914710999,0.012299994938075542,-0.004780702292919159,0.037720248103141785,0.1227298378944397,0.20135965943336487,0.2041131854057312,0.15301160514354706,0.08672361820936203,0.012196101248264313,0.03540089353919029,-0.0069503262639045715,-0.016882868483662605,-0.000912636227440089,-0.05174487084150314,-0.013451672159135342,0.025356316938996315,-0.025570131838321686,-0.020158229395747185,-0.023186996579170227,-0.0009553093113936484,-0.037481553852558136,-0.01968495175242424,0.012693667784333229,0.03156435117125511,0.06501053273677826,0.1197332963347435,0.04377036169171333,0.042701419442892075,-0.019453251734375954,0.02694334089756012,0.12153081595897675,0.2155805379152298,0.16658924520015717,0.11732856184244156,0.055127471685409546,0.05188002064824104,-0.03335077315568924,-0.033719755709171295,-0.04145275428891182,-0.05734061822295189,-0.018620280548930168,-0.009599843993782997,0.0014277341542765498,-0.02836308442056179,0.021358095109462738,0.0359063595533371,0.01482568122446537,0.02701219543814659,-0.04132837802171707,-0.01889941841363907,-0.07286765426397324,-0.019720034673810005,-0.02837296389043331,-0.017741559073328972,-0.05143269896507263,-0.10989435762166977,-0.08276255428791046,0.03215417638421059,0.1104603111743927,0.1107741966843605,0.11902805417776108,0.09493277966976166,-0.024964600801467896,-0.049781810492277145,-0.038312919437885284,-0.07310044020414352,-0.0639042854309082,-0.07389023900032043,-0.04000876098871231,-0.036299701780080795,-0.014778719283640385,0.03382636234164238,0.04162216931581497,-0.020421655848622322,-0.00098674395121634,0.00012465464533306658,0.010738224722445011,-0.03801603242754936,-0.027370501309633255,-0.054476913064718246,-0.12415099143981934,-0.13006477057933807,-0.13636672496795654,-0.12460794299840927,-0.15042492747306824,-0.08904368430376053,-0.0738629475235939,0.03378726541996002,-0.00602434016764164,-0.029997626319527626,-0.04607042670249939,-0.03894077613949776,-0.1003488227725029,-0.05706822872161865,-0.055444490164518356,-0.06551066040992737,-0.03881512209773064,-0.00031080114422366023,-0.01320553757250309,0.04043162241578102,0.03692122548818588,-0.014945514500141144,-0.010982032865285873,-0.01205751858651638,0.0023688862565904856,-0.04826235771179199,-0.028652958571910858,-0.09889654070138931,-0.1431857794523239,-0.1686830371618271,-0.13910871744155884,-0.1230052188038826,-0.11475232243537903,-0.08622182160615921,-0.13293036818504333,-0.04600515589118004,-0.03273417428135872,-0.010183908976614475,-0.010840481147170067,-0.028491944074630737,-0.06486613303422928,-0.03282872587442398,-0.01954410783946514,-0.05160173401236534,0.009113248437643051,-0.003340371185913682,0.024462897330522537,0.038813237100839615,0.009200815111398697,-0.020551007241010666,-0.010208443738520145,0.028166301548480988,-0.01983894594013691,-0.025547325611114502,-0.0156746506690979,-0.10641306638717651,-0.09160145372152328,-0.1178850457072258,-0.09785928577184677,-0.09472013264894485,-0.0705607533454895,-0.07082448154687881,-0.05506217107176781,-0.0663936585187912,-0.05255793035030365,-0.015105348080396652,-0.033612288534641266,0.017311297357082367,-0.037087563425302505,0.014178522862493992,-0.01769973151385784,0.024560824036598206,-0.03603511303663254,-2.03010713448748e-05,-0.027438683435320854,0.04449944570660591,0.007929489947855473,0.007207944057881832,0.01822672039270401,0.034744542092084885,0.002145233564078808,0.014469343237578869,0.0018468998605385423,-0.026392661035060883,-0.06113620474934578,-0.1016448587179184,-0.08707194030284882,-0.0820237472653389,-0.038176845759153366,-0.023203710094094276,-0.055932268500328064,-0.053641606122255325,-0.010624604299664497,-0.01375368982553482,0.02718549221754074,0.0157998725771904,0.056588899344205856,-0.009331049397587776,0.050592049956321716,-0.010796498507261276,-0.013716713525354862,-0.02835053950548172,0.023287571966648102,-0.005259013269096613,0.021862318739295006,0.035293396562337875,0.00048762233927845955,-0.007073302287608385,0.04173721745610237,0.02471417747437954,0.006675193086266518,-0.023429587483406067,-0.04086051508784294,-0.006563968490809202,-0.013525894843041897,0.007398057729005814,-0.04585389047861099,-0.0456412211060524,-0.04430386424064636,-0.04651482030749321,0.004957234021276236,0.04467137157917023,0.05541582405567169,0.07320095598697662,0.06205257400870323,0.07556240260601044,0.036295268684625626,-0.013109584338963032,-0.022483214735984802,-0.013788643293082714,0.028369465842843056,-0.009997740387916565,0.004967081360518932,0.04229121282696724,-0.025394754484295845,-0.02219155989587307,-0.017923424020409584,0.01188295055180788,0.0163433775305748,0.018696846440434456,-0.03544631227850914,-0.04744858294725418,0.011951963417232037,0.004961421713232994,-0.017774244770407677,-0.037576135247945786,-0.013253753073513508,-0.05291828140616417,-0.03098629228770733,-0.03558681905269623,-0.01752611994743347,0.010958708822727203,0.05052194744348526,0.046786919236183167,-0.019020643085241318,0.040085889399051666,0.013633864931762218,-8.126038301270455e-05,0.011271991766989231,0.017072727903723717,0.031350698322057724,-0.006559285335242748,0.022397777065634727,-0.008007328025996685,0.021531200036406517,-0.01751905493438244,0.024470366537570953,-0.003092080121859908,-0.040562622249126434,-0.005900956690311432,-0.02701164036989212,-0.04913331940770149,-0.06013839319348335,-0.1203642338514328,-0.06467180699110031,-0.06704021245241165,-0.08666826039552689,-0.06201552227139473,-0.10574827343225479,-0.03083798661828041,-0.07860948890447617,-0.008485975675284863,0.012892583385109901,0.02647213079035282,0.015821048989892006,-0.02374706231057644,0.01636754907667637,-0.0034648783039301634,-0.0057175117544829845,0.042487483471632004,0.005475349724292755,-0.025771507993340492,0.030662626028060913,0.018063830211758614,0.03435564413666725,-0.003943607676774263,-0.03182537853717804,-0.02566731534898281,-0.034893207252025604,-0.0582013837993145,-0.06148955225944519,-0.016599388793110847,-0.024430150166153908,-0.061649810522794724,-0.026355793699622154,-0.05229152739048004,-0.03497611731290817,-0.030164344236254692,-0.005138101987540722,0.0013151810271665454,0.03179506957530975,-0.029113031923770905,0.01238690223544836,0.02710072323679924,0.007114834152162075,0.013224802911281586,-0.003643958130851388,-0.02317115105688572,-0.013859815895557404,0.016000380739569664,0.030741475522518158,0.006026590242981911,0.009714334271848202,-0.015206380747258663,0.011324816383421421,-0.0018012606306001544,0.03997182846069336,0.04050691798329353,-0.010684422217309475,0.028446078300476074,-0.0014254837296903133,0.03676445409655571,-0.0185456071048975,-3.221265797037631e-05,0.025365879759192467,-0.019353369250893593,0.0429038368165493,0.04280511662364006,0.02284921705722809,-0.010682366788387299,-0.0007338458672165871,0.01680448092520237,0.010922472923994064,0.015467208810150623,0.026331355795264244
0.040746040642261505,0.006568512413650751,-0.016862934455275536,-0.03879861533641815,-0.004788545425981283,-0.0137019669637084,-0.01176448818296194,-0.02270578220486641,-0.021889004856348038,0.007866380736231804,-0.005575971212238073,-0.03981143981218338,-0.02743423730134964,-0.0017860818188637495,0.02067752368748188,-0.031046876683831215,0.006750898435711861,0.012984835542738438,0.014621366746723652,0.01754680648446083,-0.01723260059952736,-0.04101698845624924,-0.02539803460240364,0.02267489582300186,0.0016254945658147335,-0.01862642914056778,-0.024395931512117386,0.026775691658258438,-0.01854734867811203,0.02106240764260292,0.025851957499980927,-0.03536475449800491,0.019352126866579056,-0.010884669609367847,-0.004699095152318478,-0.030628627166152,-0.035240959376096725,-0.03695720061659813,0.020656302571296692,-0.026999857276678085,0.0025598008651286364,-0.0007746264454908669,-0.013422627933323383,0.001917038345709443,-0.03245978057384491,0.012757543474435806,0.012718724086880684,-0.022117124870419502,0.001538610551506281,-0.010311969555914402,-0.020300686359405518,-0.024219935759902,0.02593604475259781,0.012279556132853031,-0.03680086135864258,0.02317819371819496,0.005492542404681444,0.018005788326263428,-0.03266334533691406,0.007656498346477747,0.021392593160271645,-0.02588462270796299,0.0001806544023565948,-0.01189176645129919,-0.004152924753725529,-0.010986173525452614,-0.042467303574085236,0.012459137476980686,-0.04127712920308113,0.018155384808778763,-0.004759113769978285,-0.03861178457736969,-0.005954579450190067,0.0012836330570280552,-0.03650795295834541,-0.03282416611909866,-0.0333576537668705,-0.03735537454485893,0.007683664094656706,-0.014356400817632675,0.014009465463459492,-0.0033047639299184084,-0.01232398021966219,-0.015974245965480804,0.005466476548463106,0.004235102329403162,0.025001905858516693,-0.011507546529173851,-0.04330732300877571,-0.013988696038722992,-0.024812839925289154,-0.03708131983876228,0.020648153498768806,-0.01625828817486763,-0.02732834778726101,-0.006950815208256245,-0.00938599742949009,-0.047162752598524094,-0.008295932784676552,-0.06952778249979019,-0.059136271476745605,-0.006307967472821474,-0.04326239228248596,0.016945281997323036,0.024584509432315826,0.029450520873069763,-0.03302861005067825,0.0037074468564242125,-0.04363376274704933,-0.014239396899938583,-0.013106453232467175,-0.021072272211313248,-0.013155232183635235,-0.025185689330101013,0.022356538102030754,0.001122042303904891,-0.04375102370977402,0.004880018066614866,-0.040594298392534256,-0.014593753032386303,-0.02968776226043701,-0.07706001400947571,-0.08378411084413528,-0.03461528196930885,-0.05028088763356209,-0.043243762105703354,-0.08512978255748749,-0.08467363566160202,-0.04271096736192703,0.018528081476688385,3.3460491977166384e-06,0.03536008670926094,0.01228279434144497,-0.02745678462088108,0.0472271703183651,0.04607022926211357,-0.0022023716010153294,-0.014272412285208702,0.013553539291024208,-0.034962479025125504,0.022421590983867645,0.009254702366888523,0.021030861884355545,-0.032891012728214264,0.00783385057002306,-0.04829082265496254,-0.05282150208950043,-0.03406749293208122,-0.07660885155200958,-0.026709968224167824,-0.009566820226609707,-0.04885559156537056,-0.03140581026673317,-0.07172856479883194,-0.048246946185827255,-0.0667891651391983,-0.008709356188774109,-0.009607350453734398,0.019762102514505386,0.029922479763627052,0.015363184735178947,0.021510642021894455,0.0467211939394474,0.09497750550508499,0.05977359786629677,0.023769773542881012,0.03496445342898369,0.008730907924473286,-0.018693899735808372,-0.011791705153882504,-0.035886771976947784,0.009336838498711586,-0.018859537318348885,-0.02657247707247734,-0.037273671478033066,-0.046245723962783813,-0.06466365605592728,-0.003148225601762533,-0.016460813581943512,-0.0013174568302929401,0.06766990572214127,0.021262720227241516,-0.006632944103330374,-0.004972169175744057,-0.014184126630425453,-0.012042267248034477,-0.01073914673179388,0.009947109967470169,0.028881549835205078,0.07054249197244644,0.07981181889772415,0.06982024013996124,0.14048008620738983,0.12043441832065582,0.03791670873761177,-0.018625982105731964,0.01295129768550396,-0.030508777126669884,0.02402782067656517,-0.030019331723451614,-0.018566371873021126,-0.07241377979516983,-0.036623723804950714,-0.03037828952074051,0.002826283685863018,-0.008656255900859833,0.06980903446674347,0.07877614349126816,0.041655536741018295,0.04100586846470833,-0.03427460789680481,0.022023065015673637,-0.062199488282203674,-0.0036484701558947563,0.027960404753684998,0.003565566847100854,0.06231825426220894,0.05347608029842377,0.07879819720983505,0.07259202748537064,0.14316998422145844,0.19380469620227814,0.11141078919172287,0.031933367252349854,-0.02260570414364338,-0.04181606322526932,-0.012448249384760857,-0.015749093145132065,-0.033731915056705475,-0.06474348902702332,-0.057926587760448456,-0.041480652987957,0.01175847090780735,0.049871232360601425,0.05981660634279251,0.04957433044910431,0.04657568782567978,0.033908866345882416,-0.05699831247329712,-0.07804708927869797,-0.06770000606775284,-0.07213873416185379,-0.03277160972356796,-0.0181062500923872,0.04484881833195686,0.07447338849306107,0.054509151726961136,0.13069212436676025,0.19197595119476318,0.21823900938034058,0.1329738050699234,0.028434189036488533,0.00936670321971178,0.023952366784214973,0.010110883973538876,-0.015405102632939816,-0.014812855049967766,-0.08884312957525253,-0.027764132246375084,-0.005600577685981989,0.02509991079568863,0.07128205895423889,0.05031026154756546,0.10072991251945496,0.12786874175071716,0.07072220742702484,0.012373066507279873,-0.06856518238782883,-0.1019652932882309,-0.13129714131355286,-0.07622578740119934,-0.04337629675865173,0.001102882670238614,0.01384652964770794,0.11310573667287827,0.11010054498910904,0.17814970016479492,0.2524856925010681,0.1635652780532837,0.018325170502066612,-0.005786282010376453,-0.015843607485294342,-0.039728958159685135,-0.02580328844487667,-0.025578554719686508,-0.06289716809988022,-0.0324486643075943,0.030676664784550667,0.026457948610186577,0.07788252085447311,0.11857687681913376,0.10603989660739899,0.15361706912517548,0.10490506142377853,0.06222398206591606,0.00010671711061149836,-0.04865366965532303,-0.13267789781093597,-0.09295947104692459,-0.1161104291677475,-0.09605841338634491,-0.06338483095169067,-0.052484795451164246,-0.0102546326816082,0.09436553716659546,0.15489862859249115,0.0939764678478241,-0.008626694791018963,-0.036250077188014984,-0.009810153394937515,0.006746675819158554,-0.04465172812342644,-0.037511613219976425,-0.019084183499217033,0.014089653268456459,0.03770695626735687,0.07898111641407013,0.1061563491821289,0.08453799039125443,0.12130096554756165,0.1371132880449295,0.1365642249584198,0.12586218118667603,0.014072430320084095,-0.04500061273574829,-0.07612372189760208,-0.09629186242818832,-0.13916705548763275,-0.12677748501300812,-0.19688591361045837,-0.1726873517036438,-0.1351708471775055,-0.05139036849141121,0.043666090816259384,0.06247447803616524,0.01883341558277607,0.023555295541882515,0.025206850841641426,0.012042835354804993,-0.026833675801753998,-0.008680969476699829,-0.04136263206601143,-0.029608361423015594,0.07615400850772858,0.0451277457177639,0.057797353714704514,0.020597806200385094,0.08558869361877441,0.15035706758499146,0.12151751667261124,0.12525232136249542,-0.009789318777620792,-0.10869520157575607,-0.14405840635299683,-0.15107789635658264,-0.12929382920265198,-0.16205979883670807,-0.13712254166603088,-0.20448625087738037,-0.20906475186347961,-0.15071889758110046,-0.05497079715132713,0.01009805966168642,-0.0028100404888391495,-0.023490944877266884,-0.029577530920505524,-0.009343726560473442,-0.025063300505280495,-0.02946116030216217,0.022203359752893448,0.004223782569169998,0.03303084895014763,0.047225721180438995,0.031888268887996674,0.07031072676181793,0.10063239187002182,0.12585006654262543,0.15110571682453156,0.06355054676532745,0.015548604540526867,-0.13885754346847534,-0.11848297715187073,-0.08692359179258347,-0.0628998801112175,-0.05508650466799736,-0.08289293944835663,-0.11213883012533188,-0.1293773204088211,-0.09933469444513321,-0.06159459054470062,0.00038153803325258195,0.017885854467749596,-0.0208917036652565,0.023704417049884796,-0.002010706579312682,0.004411163739860058,-0.02507675066590309,-0.02063361369073391,0.008206764236092567,-0.022203676402568817,-0.030827296897768974,0.057989876717329025,0.08954712003469467,0.11170852184295654,0.08497236669063568,0.07098004966974258,0.06154803931713104,-0.04333609715104103,-0.05393601581454277,-0.11320125311613083,-0.10874795913696289,-0.08983366191387177,-0.04730744659900665,-0.013152972795069218,-0.04911678284406662,-0.06392458081245422,-0.10479015111923218,-0.07365570962429047,0.010340258479118347,0.015996649861335754,-0.0064969477243721485,-0.021385304629802704,-0.038917288184165955,-0.03666854277253151,-0.026350941509008408,-0.038197487592697144,-0.05749179422855377,-0.02536259964108467,-0.059486616402864456,-0.0026535799261182547,0.05859043449163437,0.0639013797044754,0.06547137349843979,0.024060385301709175,-0.028638312593102455,-0.13446754217147827,-0.114504873752594,-0.10737600922584534,-0.09266388416290283,-0.009947284124791622,-0.03169585391879082,-0.016503557562828064,-0.04309600219130516,-0.032340820878744125,-0.05738376826047897,-0.0460766963660717,-0.0026290591340512037,-0.025029482319951057,0.010392147116363049,0.006718447897583246,0.015412102453410625,-0.03241749852895737,0.023735634982585907,-0.022382836788892746,-0.06834501773118973,-0.05794059857726097,-0.12375400960445404,-0.10588209331035614,-0.11890919506549835,-0.07634174823760986,-0.051973044872283936,-0.07388733327388763,-0.05214984342455864,-0.1094331443309784,-0.06276161223649979,-0.06843432039022446,-0.072502002120018,-0.03911107778549194,-0.0361931174993515,0.0022505149245262146,-0.028651446104049683,-0.032704129815101624,-0.03669266775250435,0.014944606460630894,-0.03016522340476513,-0.004936531651765108,0.011155988089740276,-0.0024193478748202324,-0.0014294552383944392,-0.014529682695865631,-0.0026450147852301598,0.0007777750142849982,0.02811289392411709,0.032015521079301834,-0.047499433159828186,-0.0850185826420784,-0.1122756227850914,-0.11795449256896973,-0.12776997685432434,-0.1277586668729782,-0.12354864180088043,-0.097680002450943,-0.0702764242887497,-0.022473987191915512,0.019360419362783432,0.05873500928282738,0.00012231068103574216,0.0317600816488266,0.003911822568625212,-0.03164568543434143,-0.015912605449557304,-0.011887135915458202,-0.03079121932387352,-0.002073778072372079,-0.026502231135964394,0.007595728151500225,-0.006195548456162214,0.006478041876107454,-0.0001987497234949842,-0.03006492368876934,0.018556613475084305,0.09336340427398682,0.06827130168676376,-0.017074227333068848,-0.09118466079235077,-0.08549299836158752,-0.09491337835788727,-0.09115014970302582,-0.054557908326387405,-0.010216052643954754,-0.03790165111422539,-0.009374646469950676,0.007006494328379631,0.01328486017882824,0.010332079604268074,0.04980073496699333,0.01518773753196001,0.0037585985846817493,0.02829405479133129,-0.0038536156062036753,-0.04768308624625206,-0.020256338641047478,0.0037249329034239054,-0.03300541639328003,0.02765653468668461,-0.012695862911641598,-0.010755586437880993,0.038080181926488876,0.06533848494291306,0.0974087342619896,0.10374349355697632,0.0885314866900444,0.03382629156112671,0.0017518348759040236,0.014953365549445152,0.045014165341854095,0.0496673658490181,4.7624118451494724e-05,0.004434611648321152,0.018588528037071228,-0.01171546708792448,0.044916994869709015,0.031534478068351746,0.040706221014261246,0.03268473222851753,0.055707551538944244,0.024925896897912025,0.0022530308924615383,0.011407540179789066,-0.02674887701869011,-0.040646519511938095,0.02050483599305153,-0.03749465569853783,-0.014851191081106663,0.0065534682944417,-0.036632731556892395,0.04767456278204918,0.09500129520893097,0.059562403708696365,0.12677711248397827,0.1466214507818222,0.0789029523730278,0.08390375226736069,0.01756499893963337,0.012386983260512352,-0.014261291362345219,-0.04208873212337494,0.007843973115086555,0.052737221121788025,0.04095364362001419,0.03085159696638584,-0.0001950844598468393,0.046910397708415985,0.07226317375898361,-0.0013231007615104318,-0.02642958238720894,0.016950400546193123,0.022897643968462944,-0.014147934503853321,-0.03498441353440285,0.012272628955543041,-0.017968297004699707,-0.04443554952740669,-0.006891072262078524,-0.02409978210926056,0.032773684710264206,0.08734208345413208,0.07529399544000626,0.06746120005846024,0.05683157965540886,0.07914961129426956,0.03370792418718338,0.04279950261116028,0.012072641402482986,0.029010819271206856,0.03672443702816963,0.020694395527243614,0.022077931091189384,-0.0034450641833245754,0.02565053291618824,0.04362946003675461,0.07507142424583435,0.031585708260536194,0.013115576468408108,-0.036965321749448776,0.019935650750994682,0.0016979074571281672,0.02058790996670723,0.01642550341784954,-0.026015281677246094,-0.034760523587465286,0.026997022330760956,-0.023103121668100357,-0.018618503585457802,0.03250443562865257,0.044303350150585175,0.05473829060792923,0.00949631817638874,0.06480379402637482,0.036860525608062744,0.06848955899477005,0.03180710971355438,0.0072598522529006,0.05160210281610489,-0.0018207678804174066,0.03490160405635834,0.06494816392660141,0.031038276851177216,0.056526876986026764,0.013387809507548809,-0.013023905456066132,-0.010973313823342323,-0.034332167357206345,-0.010907297022640705,-0.03536835312843323,0.022701695561408997,0.01249775756150484,0.023284273222088814,-0.02757435292005539,0.016948694363236427,-0.03110254369676113,-0.0334799624979496,-0.01432081963866949,0.021092111244797707,0.029393866658210754,0.10166490823030472,0.04651062563061714,0.047634564340114594,0.04896090552210808,0.0380561389029026,0.035719238221645355,0.0321393683552742,0.01116243377327919,-0.003821923630312085,-0.010514458641409874,-0.005559636279940605,0.016001341864466667,-0.021128837019205093,-0.03371824324131012,0.0008935238583944738,-0.031145654618740082,-0.02741154655814171,-0.036176085472106934,0.007908613421022892,0.006828049197793007,-0.013603588566184044,-0.034236207604408264,0.00030571958632208407,0.019598623737692833,-0.005009230226278305,0.010127970948815346,0.017212338745594025,0.014166437089443207,0.07927068322896957,0.06513478606939316,0.06798896938562393,0.08097141981124878,0.06171206757426262,0.013747036457061768,0.0011468493612483144,0.018810641020536423,-0.03306613117456436,0.013096201233565807,0.005236055701971054,-0.03832106664776802,0.010831556282937527,0.02561230957508087,-0.029205814003944397,-0.034878626465797424,-0.027299173176288605,-0.03491731733083725,0.011827290989458561,-0.007567641790956259,-0.014194450341165066,0.018260052427649498,0.00563834561035037,0.019036119803786278,-0.01703757606446743,0.008709501475095749,-0.0066602351143956184,-0.02520000748336315,0.03163878992199898,-0.014314541593194008,0.0036135539412498474,-0.011526099406182766,0.0077847507782280445,-0.0005974914529360831,-0.02707459218800068,-0.032067615538835526,-0.038135454058647156,-0.006568263750523329,-0.03579636663198471,-0.018184855580329895,0.022532502189278603,-0.02905827760696411,0.013494572602212429,-0.02939634956419468,-0.007544191088527441,-0.017426759004592896,-0.018733259290456772,-0.02970138192176819,-0.031065255403518677,0.007139542605727911,0.023550687357783318,-0.02019120752811432,0.024953534826636314,-0.008598977699875832,-0.010956529527902603,-0.01003873161971569,-0.02483173832297325,0.02352753095328808,0.014067914336919785,-0.035241175442934036,-0.04575673118233681,-0.005632811691612005,-0.049582384526729584,-0.0194027628749609,-0.007832876406610012,-0.015495606698095798,-0.04339763894677162,-0.013340899720788002,0.000946264190133661,-0.03683213144540787,-0.020293990150094032,-0.018971722573041916,0.006947975140064955,-0.04251262545585632,0.024537082761526108,-0.020185720175504684,-0.019145723432302475,-0.02439352124929428,-0.008336749859154224,-0.010209442116320133,0.0072175790555775166,0.005843738559633493,-0.02472957968711853,0.008439961820840836,-0.03212197124958038,-0.02098195254802704,-0.021972455084323883,0.008129848167300224,0.005280655808746815,0.0003135659790132195,0.010257940739393234,-0.015027914196252823,-0.004365948028862476,-0.02970334142446518,0.006268416531383991,-0.03681693598628044,0.015515707433223724,0.0014400274958461523,-0.003939262591302395,-0.02028186246752739,0.016401328146457672,-0.0029380894266068935
