-0.2621249258518219,0.019421130418777466,-0.0215457770973444,0.017820771783590317,-0.017289137467741966,-0.027182690799236298,-0.03306879848241806,0.020037934184074402,-0.021176356822252274,-0.01507517695426941,-0.016820311546325684,0.006142564117908478,-0.0014700181782245636,0.0315011702477932,-0.016956964507699013,0.0048319026827812195,-0.028836600482463837,0.03419577702879906,0.026447437703609467,0.002531588077545166,-0.01178477518260479,0.016643915325403214,-0.009361587464809418,0.033583756536245346,0.022069036960601807,-0.007333951070904732,-0.032693732529878616,0.006116654723882675,0.0008202195167541504,0.016942113637924194,-0.004226330667734146,0.021841591224074364,-0.12638355791568756,0.10246682912111282,0.0962304100394249,0.08152548223733902,0.0081472834572196,-0.029901375994086266,-0.08305826038122177,-0.04046215862035751,-0.13830626010894775,-0.10350015014410019,-0.049131691455841064,-0.11830494552850723,-0.12064200639724731,-0.09937191009521484,-0.1452162116765976,-0.12278825789690018,-0.031183335930109024,-0.1422436535358429,-0.0798567682504654,-0.17009150981903076,-0.15304221212863922,-0.21789970993995667,-0.21528851985931396,-0.1438346952199936,-0.027685975655913353,-0.03548545390367508,0.013666292652487755,-0.018821094185113907,0.06726967543363571,-0.07878333330154419,-0.1300988644361496,-0.10090489685535431,-0.11117252707481384,-0.1345980018377304,-0.12473135441541672,-0.08772170543670654,-0.06777296215295792,-0.029236311092972755,-0.08993522077798843,-0.02881935052573681,-0.1048818975687027,-0.13651828467845917,-0.09517480432987213,-0.08974461257457733,-0.09739290922880173,-0.011582999490201473,-0.0427054725587368,-0.08532795310020447,-0.21501818299293518,-0.18756362795829773,-0.30844372510910034,-0.24079038202762604,0.00029307231307029724,-0.024997644126415253,0.05606573820114136,0.0823606625199318,0.0056857457384467125,-0.06745019555091858,-0.15597939491271973,-0.11932327598333359,-0.1346781700849533,-0.00840328261256218,-0.06248823553323746,-0.04338211193680763,0.031308017671108246,-0.03267717361450195,-0.05087608844041824,-0.025483153760433197,-0.05579653009772301,-0.026197392493486404,-0.027079390361905098,-0.030823979526758194,-0.018342338502407074,-0.0756581574678421,-0.052032019942998886,-0.029645122587680817,-0.018556570634245872,-0.10936231166124344,-0.2231367528438568,-0.2511287033557892,-0.02978426404297352,-0.032820720225572586,-0.07297562062740326,0.0027653444558382034,-0.02200433239340782,-0.06709134578704834,-0.05826504901051521,-0.1353847235441208,-0.012779084034264088,-0.05510489270091057,-0.045326653867959976,-0.06648819148540497,-0.1337495595216751,-0.08732210099697113,-0.06668899208307266,-0.054424602538347244,-0.05560220777988434,-0.012556458823382854,-0.03637761250138283,-0.07787134498357773,-0.061957914382219315,-0.0566084124147892,-0.11895512044429779,-0.08755271881818771,-0.08259982615709305,-0.056630462408065796,-0.17531739175319672,-0.2737531065940857,0.03152457997202873,-0.07864747941493988,-0.19236096739768982,-0.08046428114175797,-0.018834933638572693,-0.09780808538198471,-0.0610513873398304,-0.09424423426389694,-0.1094968244433403,-0.10097265988588333,-0.09184268862009048,-0.10017556697130203,-0.15496014058589935,-0.15878181159496307,-0.09641052782535553,-0.060020145028829575,-0.014966949820518494,0.07146245986223221,0.026672080159187317,0.008010071702301502,0.008947523310780525,-0.05480780825018883,-0.09473051130771637,-0.11411498486995697,-0.10140151530504227,-0.043727874755859375,-0.08887402713298798,-0.21378599107265472,0.02809593454003334,-0.028090011328458786,0.0030540816951543093,-0.03755383566021919,-0.020732315257191658,-0.11086435616016388,-0.05264410376548767,-0.11217743903398514,-0.06140124425292015,-0.08572281152009964,-0.11288909614086151,-0.09662280231714249,-0.06503221392631531,-0.07973124086856842,-0.06488104909658432,-0.018609339371323586,0.03237538784742355,0.07667452096939087,0.1062614843249321,0.049518730491399765,0.009055646136403084,-0.035758476704359055,-0.041619084775447845,-0.06614542752504349,-0.12059654295444489,-0.11392458528280258,-0.040164124220609665,-0.17928268015384674,-0.1267869919538498,-0.08790604025125504,-0.14368441700935364,-0.051575083285570145,-0.03972536325454712,0.0018769156886264682,-0.0928555354475975,-0.11134212464094162,-0.10897870361804962,-0.13194847106933594,-0.12856726348400116,-0.031631313264369965,-0.038242608308792114,-0.04086076468229294,0.04611111804842949,0.07659715414047241,0.08436152338981628,0.10953822731971741,0.08922774344682693,0.1283496916294098,0.09928406774997711,0.06693243235349655,0.010670575313270092,-0.025796862319111824,-0.025289250537753105,-0.14041295647621155,-0.13276022672653198,-0.18234194815158844,-0.08294231444597244,-0.0817456766963005,-0.025218673050403595,-0.07932734489440918,-0.09637968987226486,-0.061652667820453644,-0.0523340068757534,-0.0963912084698677,-0.03749562054872513,-0.02207207679748535,-0.0615229569375515,0.019492672756314278,-0.01124136708676815,0.02702401950955391,0.010582328774034977,0.057935986667871475,0.039911337196826935,0.08681270480155945,0.09240101277828217,0.027604561299085617,0.07057247310876846,0.034339409321546555,0.087205670773983,0.1301908642053604,0.025211617350578308,-0.062201354652643204,-0.11384065449237823,-0.18579792976379395,-0.09021531045436859,-0.08182885497808456,-0.10834023356437683,-0.09498657286167145,-0.059408459812402725,-0.021711409091949463,0.020949162542819977,-0.02383471094071865,-0.05509711056947708,-0.014787311665713787,-0.029780326411128044,-0.03470674529671669,-0.03092990629374981,0.021809972822666168,-0.009049788117408752,-0.03656857833266258,-0.0014933869242668152,0.027260523289442062,0.01983567886054516,0.012832650914788246,-0.0236830897629261,0.019892927259206772,0.051484208554029465,0.09989064186811447,0.09183809906244278,0.02188406139612198,-0.010380640625953674,-0.0682234987616539,-0.03593463450670242,-0.08018700778484344,-0.12295276671648026,0.04972345009446144,-0.04330556094646454,0.06328197568655014,-0.028982805088162422,0.013344167731702328,-0.0036714666057378054,-0.0168140921741724,-0.044381752610206604,-0.009075921960175037,-0.034545186907052994,-0.04398128390312195,-0.049291789531707764,-0.09130176901817322,-0.059009652584791183,-0.027064785361289978,-0.022885948419570923,-0.018687792122364044,-0.017494499683380127,0.018592003732919693,0.07030902057886124,0.12126614898443222,0.10420464724302292,0.09580560028553009,0.07806304097175598,0.13827918469905853,0.031089868396520615,-0.06383877247571945,-0.027169710025191307,0.04351157695055008,0.09206744283437729,0.11080285906791687,0.07389245182275772,0.033542606979608536,0.010717405006289482,0.054766714572906494,0.012132751755416393,0.02817370556294918,-0.0026609329506754875,-0.05717291682958603,-0.05304274335503578,-0.11077519506216049,-0.09709299355745316,-0.06882308423519135,0.012844238430261612,-0.018679179251194,-0.01534771453589201,0.07230354100465775,0.10651548951864243,0.16559667885303497,0.13088242709636688,0.09772714972496033,0.23969364166259766,0.3726537823677063,-0.034860335290431976,-0.007957011461257935,-0.017562249675393105,0.12399115413427353,0.10183649510145187,0.09571361541748047,0.10302770137786865,0.04040498659014702,0.02617296576499939,0.034770142287015915,0.09392087906599045,0.04613276571035385,0.020899685099720955,-0.040029559284448624,-0.12224945425987244,-0.13624908030033112,-0.13252799212932587,-0.10159803926944733,-0.14799319207668304,-0.1026485487818718,-0.027583478018641472,0.08159113675355911,0.16565927863121033,0.12135045230388641,0.11177825182676315,0.12144256383180618,0.24428392946720123,0.2917225658893585,-0.020765677094459534,-0.034486155956983566,0.08125907182693481,0.13722734153270721,0.19062070548534393,0.11612997949123383,0.10071341693401337,-0.0021438796538859606,0.1101081445813179,0.10268120467662811,0.1354014128446579,0.012510387226939201,-0.033702537417411804,-0.04223547503352165,-0.14228643476963043,-0.27301231026649475,-0.24290986359119415,-0.19114211201667786,-0.20641985535621643,-0.14186756312847137,-0.01922024041414261,0.11698118597269058,0.13595987856388092,0.08833737671375275,0.0671936571598053,0.1416417360305786,0.23600605130195618,0.20226368308067322,0.03521933779120445,0.02353435754776001,0.1456563025712967,0.1661628782749176,0.11861247569322586,0.0845712348818779,0.08817193657159805,0.030137330293655396,0.08265276998281479,0.1300245076417923,0.038545288145542145,0.017487382516264915,-0.03337875008583069,-0.10602188110351562,-0.25078174471855164,-0.3513945937156677,-0.3324761688709259,-0.21429046988487244,-0.13102012872695923,-0.06720627099275589,0.023120440542697906,0.12847565114498138,0.07332690805196762,0.07877065241336823,0.08032025396823883,0.13081075251102448,0.1291721761226654,0.056878603994846344,0.01934921368956566,-0.04564341530203819,0.09350134432315826,0.1241159439086914,0.09451518207788467,0.0398133248090744,0.08033273369073868,0.10134601593017578,0.1299705058336258,0.13697084784507751,0.05745767429471016,-0.003623733762651682,-0.05451453849673271,-0.10012328624725342,-0.2660772502422333,-0.366800457239151,-0.24280574917793274,-0.09655465185642242,-0.048283644020557404,0.04546802490949631,0.12959571182727814,0.15562401711940765,0.09965444356203079,0.014367237687110901,0.02515324018895626,0.06718968600034714,0.06661397963762283,0.015300696715712547,-0.020793430507183075,-0.059417564421892166,0.10901780426502228,0.08824935555458069,0.07700545340776443,0.09996704757213593,0.10859142988920212,0.09764549881219864,0.11918670684099197,0.10063975304365158,0.0668414756655693,-0.016648001968860626,-0.038064539432525635,-0.1406445950269699,-0.3165759742259979,-0.28383782505989075,-0.16821591556072235,-0.056022241711616516,0.0394604317843914,0.14011648297309875,0.1835445761680603,0.09849890321493149,0.011881012469530106,0.005761274136602879,-0.0049802823923528194,0.008833019994199276,0.014495141804218292,0.009265583008527756,-0.0011787638068199158,-0.11679871380329132,-0.07776779681444168,0.06922599673271179,0.053984642028808594,0.05818607285618782,0.09748951345682144,0.1497693657875061,0.12202104181051254,0.03919949010014534,-0.0036054709926247597,0.017174407839775085,-0.06826438754796982,-0.1294756829738617,-0.25507843494415283,-0.1450706124305725,-0.053538620471954346,0.028971780091524124,0.11252409219741821,0.15088926255702972,0.1475900262594223,0.08875808864831924,-0.015659334138035774,-0.007846062071621418,-0.035521503537893295,-0.04043439030647278,-0.07133815437555313,0.08012770116329193,-0.005685755982995033,-0.06463560461997986,-0.12428339570760727,-0.0038487091660499573,0.0010859199101105332,0.05755769461393356,0.035760119557380676,0.09086626768112183,0.0542469285428524,0.03907337784767151,0.025203082710504532,-0.030609477311372757,0.0005142095615155995,-0.13603320717811584,-0.19688938558101654,-0.06091401353478432,-0.015765344724059105,0.03174353763461113,0.11578536033630371,0.10317932814359665,0.052244070917367935,-0.04390690103173256,-0.06462576985359192,-0.049840137362480164,-0.03013927862048149,0.010958166792988777,0.0011164112947881222,0.014946511015295982,-0.018375618383288383,-0.11353827267885208,-0.08665436506271362,-0.07658284157514572,-0.04915415868163109,-0.03886288404464722,-0.010848280042409897,0.04608958214521408,0.07076426595449448,0.03318684175610542,-0.013347738422453403,0.0008321810164488852,0.007639743387699127,-0.0030021648854017258,-0.07677055150270462,-0.07708857953548431,0.03800608962774277,0.082989402115345,0.05788664147257805,0.04200846329331398,0.02306954935193062,-0.023644693195819855,-0.03222884237766266,-0.07925129681825638,0.05017140880227089,-0.02342747151851654,0.007023298181593418,0.031438395380973816,0.015125712379813194,-0.06406280398368835,0.04347594827413559,-0.03910801187157631,-0.058744803071022034,-0.06334226578474045,-0.05400218069553375,-0.01608259417116642,0.05171743407845497,0.06366387009620667,0.0802917629480362,0.020496785640716553,-0.003258570795878768,-0.011567414738237858,-0.00529302516952157,0.012647073715925217,0.03836222365498543,0.08961225301027298,0.06669587641954422,0.036186158657073975,-0.010341141372919083,-0.05825874209403992,-0.048972662538290024,-0.02972077950835228,0.022401638329029083,-0.051340773701667786,0.04063698276877403,-0.06117327883839607,0.007017853204160929,-0.08410444110631943,-0.01375607494264841,-0.03361385315656662,-0.02330792136490345,-0.05972175672650337,-0.09956584125757217,-0.05401378870010376,0.07956811040639877,0.12074004113674164,0.06792215257883072,0.06309682875871658,0.04833110794425011,0.000123638630611822,0.06000790372490883,0.06016251817345619,0.05188773199915886,0.04915279522538185,0.017476322129368782,-0.024495691061019897,-0.05149336904287338,-0.02257733978331089,-0.023680126294493675,-0.07647161930799484,-0.009621662087738514,0.04243319854140282,0.00508998055011034,0.06975573301315308,-0.01470114104449749,-0.0280426237732172,-0.08877028524875641,-0.04448742792010307,-0.023569820448756218,-0.01203229371458292,-0.0504143051803112,-0.046923987567424774,-0.011979438364505768,0.10509027540683746,0.13076964020729065,0.14962127804756165,0.1108219251036644,0.09619356691837311,0.06750987470149994,0.06326303631067276,0.03290719911456108,0.013352099806070328,-0.03076668083667755,-0.06369921565055847,-0.026447758078575134,0.0015320435632020235,-0.09409433603286743,0.015717685222625732,-0.016673650592565536,-0.0577637255191803,-0.046556323766708374,-0.2243751734495163,-0.0030144192278385162,0.020220477133989334,0.03281444311141968,-0.012163958512246609,-0.0008039515232667327,0.002213658532127738,-0.010061860084533691,-0.0049301330000162125,0.040660310536623,0.11490140855312347,0.13654127717018127,0.12020890414714813,0.12968996167182922,0.10529989004135132,0.09723307937383652,0.07278601080179214,0.05056626349687576,-0.029124105349183083,-0.022928621619939804,0.007516173180192709,-0.018164407461881638,0.00033671860001049936,-0.012971639633178711,0.004014174919575453,-0.027371283620595932,-0.040278710424900055,-0.0683947503566742,-0.15408207476139069,-0.017906177788972855,-0.03219097480177879,-0.12049669772386551,-0.10319159179925919,-0.005229956470429897,0.023899856954813004,0.017914904281497,0.05008178949356079,0.04591820016503334,0.06103738397359848,0.09709486365318298,0.19060193002223969,0.15533770620822906,0.16937339305877686,0.12800057232379913,0.07420917600393295,-0.005701423157006502,0.0236323531717062,-0.019849708303809166,-0.03810562193393707,-0.05781305208802223,-0.06160317361354828,-0.05343000963330269,-0.03194759786128998,-0.13113081455230713,-0.09126406908035278,-0.1249203085899353,-0.1499970704317093,-0.01128721795976162,0.001120924949645996,-0.16686636209487915,-0.023960215970873833,0.01845942996442318,0.08441190421581268,0.05157335475087166,0.007704514544457197,0.002716211136430502,0.038156311959028244,0.026926999911665916,0.12381595373153687,0.07675816863775253,0.06730031967163086,0.10871551930904388,0.0732584074139595,0.0913889929652214,0.032833363860845566,-0.046883273869752884,-0.09239386022090912,-0.06262662261724472,-0.10782209783792496,-0.1560724526643753,-0.20259569585323334,-0.23446506261825562,-0.18254347145557404,-0.0887320339679718,-0.010397755540907383,0.01028687134385109,-0.00610312819480896,0.012063505128026009,-0.049107782542705536,-0.021953383460640907,0.11313750594854355,0.014655896462500095,0.039121322333812714,-0.05977938696742058,0.010109951719641685,-0.01296455692499876,0.055385950952768326,0.012783573940396309,0.04174819216132164,0.029786042869091034,0.08770160377025604,0.05188366025686264,0.00739405769854784,0.00444562966004014,0.005257717799395323,-0.12514133751392365,-0.049627769738435745,-0.07909215986728668,-0.18560726940631866,-0.1416371613740921,-0.08741588890552521,-0.03968352451920509,0.020787198096513748,0.021480247378349304,0.006730474531650543,-0.004962550476193428,-0.0026743412017822266,-0.005895895883440971,-0.009025506675243378,-0.027166014537215233,-0.02671574428677559,-0.03497587889432907,-0.03198510408401489,0.00762978196144104,-0.0352119617164135,-0.031049486249685287,-0.006085895001888275,0.0024044401943683624,0.01623249426484108,-0.010422991588711739,0.0255955271422863,0.0065734125673770905,0.00037538260221481323,-0.013787759467959404,0.019278917461633682,0.015439365059137344,-0.01711679808795452,0.024997025728225708,0.03457063063979149,-0.0039903223514556885,0.033141326159238815,-0.02353479340672493
0.8529880046844482,-0.018255090340971947,0.02961667999625206,-0.014669930562376976,-0.03069181740283966,0.007415834814310074,-0.01274142600595951,-0.006516449153423309,0.031977903097867966,-0.00106072798371315,0.02639242634177208,-0.03135387971997261,-0.00824795477092266,0.008586768060922623,-0.007789866998791695,0.03487561270594597,0.006918925791978836,-0.015497971326112747,-0.007215294986963272,0.023439403623342514,-0.03520940616726875,-0.03411031514406204,0.015853572636842728,0.004789702594280243,-0.026818254962563515,0.034284282475709915,0.016691729426383972,0.024021681398153305,0.016126275062561035,-0.01698973774909973,0.02975687012076378,-0.00389747298322618,-0.09353087097406387,-0.23334883153438568,-0.10691045224666595,-0.2334022969007492,-0.27173492312431335,-0.1870221048593521,-0.21303917467594147,-0.10900136083364487,-0.1492134928703308,-0.1658453345298767,-0.16418126225471497,-0.19044357538223267,-0.17381638288497925,-0.20912739634513855,-0.2182198464870453,-0.28109973669052124,-0.3254423439502716,-0.369829922914505,-0.274391233921051,-0.26205959916114807,-0.1360311061143875,-0.18187867105007172,-0.14095723628997803,-0.09655265510082245,-0.00176263228058815,-0.02345321513712406,0.05606207624077797,0.02398831769824028,-0.10421805083751678,-0.13925567269325256,-0.16707463562488556,-0.14440691471099854,-0.09112079441547394,-0.06621185690164566,-0.053590282797813416,0.005342794116586447,-0.03274378553032875,-0.009651328437030315,-0.012043967843055725,-0.04417810216546059,-0.11530382186174393,-0.06764278560876846,-0.10012252628803253,-0.06761375814676285,-0.0903412327170372,-0.0574725866317749,-0.08971986919641495,-0.04766541346907616,-0.012188892811536789,-0.1359747350215912,-0.056643981486558914,-0.03795737400650978,-0.008034352213144302,0.017761453986167908,-0.13685756921768188,-0.07242733240127563,-0.16729804873466492,-0.16701070964336395,-0.13599304854869843,-0.1268691122531891,-0.08933846652507782,-0.110385462641716,-0.05483461543917656,-0.05701639875769615,-0.01356770470738411,0.01834825426340103,-0.03543265163898468,-0.0069712805561721325,-0.150759756565094,-0.16584455966949463,-0.12471150606870651,-0.03945532441139221,-0.05057114362716675,0.006150428205728531,0.007644081488251686,0.017366677522659302,-0.010440102778375149,-0.015116741880774498,-0.14354245364665985,-0.19437630474567413,0.01273355633020401,-0.0859278067946434,-0.20085886120796204,-0.05563056096434593,-0.09733809530735016,-0.14151905477046967,-0.09659704566001892,-0.09601389616727829,-0.1329309344291687,-0.19124643504619598,-0.0831948071718216,-0.06191173568367958,-0.11436058580875397,-0.10846514254808426,-0.1800709068775177,-0.16921056807041168,-0.15719865262508392,-0.21095238626003265,-0.15798375010490417,-0.0809519812464714,-0.09329907596111298,-0.04174547269940376,0.026873545721173286,-0.01527378335595131,-0.01195496879518032,-0.03923621028661728,0.018815722316503525,-0.4547732174396515,-0.030604854226112366,-0.05793038755655289,-0.08301913738250732,-0.11985068768262863,-0.06480376422405243,-0.08642850071191788,-0.03953622281551361,-0.04736731946468353,-0.12798970937728882,-0.16067510843276978,-0.1954411119222641,-0.17984430491924286,-0.19867713749408722,-0.2189026027917862,-0.19882944226264954,-0.1932038515806198,-0.18129386007785797,-0.18600809574127197,-0.16451673209667206,-0.1350841075181961,-0.10332176834344864,-0.04527632147073746,-0.13536706566810608,-0.05974274501204491,-0.09992200136184692,-0.06770045310258865,-0.035761017352342606,-0.6024245619773865,0.003577493131160736,-0.059441983699798584,-0.1610051989555359,0.011062657460570335,-0.10889878123998642,-0.11462389677762985,-0.07701423019170761,-0.10869646072387695,-0.08681406825780869,-0.1416698396205902,-0.11875773221254349,-0.1696947067975998,-0.13894236087799072,-0.13473252952098846,-0.130087211728096,-0.05227364972233772,-0.0834716185927391,-0.08480358868837357,-0.06838586926460266,-0.11744040995836258,-0.18861426413059235,-0.10106328874826431,-0.1275564283132553,-0.12108705937862396,-0.0714825764298439,-0.11298969388008118,-0.12648464739322662,-0.7604255080223083,-0.0007039704360067844,-0.05858483165502548,-0.12447497248649597,-0.0344184935092926,-0.1029859408736229,-0.09234537184238434,-0.18802742660045624,-0.11092060804367065,-0.12197211384773254,-0.09961061924695969,-0.11641640216112137,-0.1343570053577423,-0.10429668426513672,-0.07461373507976532,-0.00742820231243968,0.020405981689691544,0.01506847981363535,0.005061581265181303,-0.04167049005627632,-0.06894861906766891,-0.12400103360414505,-0.06800548732280731,-0.1202087253332138,-0.07161955535411835,-0.0912180170416832,-0.10831184685230255,-0.19399860501289368,-0.7494630813598633,-0.04464036598801613,-0.11402960866689682,-0.13755473494529724,0.0071257660165429115,-0.0795065239071846,-0.061511967331171036,-0.12089186906814575,-0.14201878011226654,-0.14729613065719604,-0.16299624741077423,-0.14720168709754944,-0.09656120091676712,-0.09611640870571136,-0.0020374490413814783,0.05832947790622711,0.11753832548856735,0.1263033002614975,0.05064382404088974,-0.03747494891285896,-0.09410535544157028,-0.15965615212917328,-0.04511892795562744,-0.0653008371591568,-0.06111975759267807,-0.12608270347118378,-0.12813155353069305,-0.2557995915412903,-0.6987945437431335,-0.013551359064877033,-0.10626345127820969,-0.11924079805612564,0.0046618627384305,-0.09226195514202118,-0.07543163746595383,-0.05623071268200874,-0.05342308059334755,-0.0768185555934906,-0.1334853619337082,-0.13166819512844086,-0.11139512807130814,-0.06541985273361206,0.04926430061459541,0.10901594907045364,0.177996426820755,0.1395869255065918,0.10882598161697388,-0.03510989993810654,-0.12484082579612732,-0.0961325466632843,-0.004931424744427204,-0.04397101700305939,-0.048476532101631165,-0.10455002635717392,-0.08812367916107178,-0.22119775414466858,-0.541812002658844,-0.032271288335323334,-0.07192064821720123,-0.2679945230484009,-0.12804728746414185,0.014888165518641472,-0.10665575414896011,-0.03586949035525322,-0.009036088362336159,-0.14200359582901,-0.1516747921705246,-0.08321599662303925,-0.10539407283067703,-0.06821047514677048,0.03604155033826828,0.12507596611976624,0.2069874405860901,0.24537906050682068,0.10765352100133896,-0.041539549827575684,-0.09813898056745529,-0.029524965211749077,-0.007774985395371914,-0.039567116647958755,-0.02366732992231846,-0.08019322901964188,-0.12893949449062347,-0.25684666633605957,-0.29688194394111633,-0.004447419196367264,-0.1188540831208229,-0.23241586983203888,-0.16008679568767548,-0.07579623907804489,0.017575442790985107,-0.04545671120285988,-0.06397437304258347,-0.18337282538414001,-0.12416953593492508,-0.12371160089969635,-0.13984999060630798,-0.011332854628562927,0.11025696247816086,0.18635787069797516,0.27916568517684937,0.3233608901500702,0.09142420440912247,0.06795250624418259,-0.009071312844753265,-0.0046286191791296005,0.004839000757783651,-0.10536004602909088,-0.037378184497356415,-0.0013394985580816865,-0.05598225072026253,-0.2027360051870346,-0.17423352599143982,0.02384036034345627,0.006904825568199158,-0.3603159785270691,-0.06919996440410614,-0.1189470961689949,-0.03833480924367905,-0.00711137056350708,-0.059278201311826706,-0.15624597668647766,-0.10264462232589722,-0.11605564504861832,-0.03825751692056656,0.002406847896054387,0.11383645981550217,0.22048668563365936,0.32887062430381775,0.26980575919151306,0.1569204032421112,0.0802064910531044,0.052192673087120056,0.025386279448866844,0.01993248425424099,-0.00415848009288311,-0.04108733683824539,-0.0826219767332077,-0.0962730124592781,-0.1921149045228958,-0.2055400311946869,0.03196768835186958,-0.004414785653352737,-0.29562824964523315,-0.12507469952106476,-0.09042291343212128,-0.04480021819472313,0.036055777221918106,-0.07026143372058868,-0.10313784331083298,-0.14090123772621155,-0.01971089094877243,0.03678256273269653,0.1291709989309311,0.17724639177322388,0.2589535117149353,0.3350673019886017,0.24131469428539276,0.10359450429677963,0.04434213042259216,-0.015783490613102913,0.049502503126859665,0.008342462591826916,-0.07448513060808182,-0.07594979554414749,-0.08597173541784286,-0.06885495036840439,-0.07084529101848602,-0.24243701994419098,0.003880579024553299,0.026200786232948303,-0.25279727578163147,-0.19094116985797882,0.0005875261267647147,-0.002339318860322237,0.015227104537189007,-0.08091531693935394,-0.04850899800658226,-0.06642071902751923,0.04728786274790764,0.05878280848264694,0.08392898738384247,0.13159339129924774,0.3091580271720886,0.2742467224597931,0.22206832468509674,0.05336013808846474,-0.03616167977452278,-0.03995436429977417,-0.03410353511571884,-0.006072858814150095,-0.13247032463550568,-0.1264277845621109,-0.08621656894683838,-0.06939637660980225,-0.1625368446111679,-0.22538647055625916,-0.021971281617879868,-0.08032958954572678,-0.40785861015319824,-0.08952830731868744,-0.08115611225366592,-0.07046189904212952,-0.03372844308614731,-0.023306066170334816,-0.016630157828330994,0.025534918531775475,-0.014802013523876667,0.000931595335714519,0.05684022232890129,0.19345517456531525,0.3345174193382263,0.265490859746933,0.11462327837944031,0.019547969102859497,-0.01459026150405407,-0.055142033845186234,-0.11256512254476547,-0.11740098148584366,-0.17414642870426178,-0.10790527611970901,-0.08672953397035599,-0.07398564368486404,-0.2021649330854416,-0.18922948837280273,0.019398357719182968,-0.05575888231396675,-0.5487557649612427,-0.1489749699831009,-0.16914421319961548,-0.1604534238576889,0.012122387997806072,-0.06166890636086464,-0.0006503826007246971,-0.035069841891527176,-0.07451560348272324,-0.04147692397236824,0.11702102422714233,0.2233636975288391,0.3108270764350891,0.17410790920257568,0.022250313311815262,-0.016310645267367363,-0.05845675244927406,-0.09978436678647995,-0.20806223154067993,-0.23687167465686798,-0.20539654791355133,-0.1334061175584793,-0.0759090781211853,-0.08281140774488449,-0.08238200098276138,-0.27006134390830994,0.02529691532254219,-0.05157491937279701,-0.5794965028762817,-0.4928760528564453,-0.20670868456363678,-0.11186427623033524,0.04148491844534874,-0.0333826020359993,-0.040004558861255646,-0.09804495424032211,-0.08493475615978241,0.0007139298249967396,0.174374058842659,0.22673308849334717,0.21490640938282013,0.11886050552129745,0.03729408234357834,-0.02772538922727108,-0.11612316966056824,-0.13568201661109924,-0.1618272215127945,-0.2955644726753235,-0.216680109500885,-0.15160585939884186,-0.15569601953029633,-0.22143137454986572,-0.17408297955989838,-0.19581882655620575,0.033171188086271286,0.012110494077205658,-0.6848680973052979,-0.45461028814315796,-0.25673767924308777,-0.09144007414579391,-0.027675287798047066,-0.06707767397165298,-0.08031553030014038,-0.1162005290389061,-0.09187091141939163,0.014566421508789062,0.12520329654216766,0.24637651443481445,0.2108951061964035,0.08159954845905304,0.03631512448191643,0.0012651151046156883,-0.09627026319503784,-0.13055221736431122,-0.17438605427742004,-0.1732339859008789,-0.1431340128183365,-0.0592065192759037,-0.0647728368639946,-0.11326669901609421,-0.06444379687309265,-0.2054150253534317,-0.02075355499982834,-0.03401295840740204,-0.6283351182937622,-0.34926775097846985,-0.188881054520607,-0.03829977661371231,-0.049628764390945435,-0.13679106533527374,-0.06631394475698471,-0.09783750027418137,-0.04642411321401596,0.08019904792308807,0.12942370772361755,0.21703827381134033,0.16234898567199707,0.08675950765609741,0.012255599722266197,-0.015657387673854828,-0.09718265384435654,-0.11909275501966476,-0.09666640311479568,-0.05059171840548515,-0.06919188797473907,0.016266826540231705,-0.019702516496181488,0.03249894827604294,-0.00545916985720396,-0.04076496884226799,-0.04880532622337341,-0.04085511341691017,-0.6218516826629639,-0.22361791133880615,-0.10668809711933136,-0.1040663942694664,-0.09028968214988708,-0.11644221842288971,-0.06444362550973892,-0.11345348507165909,-0.018654879182577133,0.0720009058713913,0.13632462918758392,0.1407189667224884,0.10452159494161606,0.08952933549880981,-0.007947455160319805,-0.01735210232436657,-0.08422482758760452,-0.12159088253974915,-0.041858747601509094,0.016442006453871727,0.12734059989452362,0.05829695239663124,0.1252308040857315,0.09115670621395111,0.06627663969993591,0.017705028876662254,-0.0008972409996204078,-0.08146819472312927,-0.4362471103668213,-0.16415834426879883,-0.05577414110302925,-0.08964785933494568,-0.05711888521909714,-0.06605685502290726,-0.04457426816225052,-0.026157308369874954,-0.007335515692830086,0.013759004883468151,0.07076419144868851,0.05060230940580368,0.009726746939122677,-0.002568491268903017,-0.05015520751476288,-0.05854273587465286,-0.10162218660116196,-0.07029291987419128,-0.03183774650096893,0.0229681096971035,0.08015909790992737,0.1691782921552658,0.10836025327444077,0.10384029895067215,0.0986141636967659,-0.1324407011270523,-0.001626294106245041,-0.03338877484202385,-0.2823825776576996,0.024042494595050812,0.05258549004793167,-0.020412521436810493,0.061590198427438736,0.058760497719049454,-0.030965769663453102,0.04622232913970947,0.015701783820986748,-0.011871271766722202,-0.06658405810594559,-0.02213083766400814,-0.047228921204805374,-0.06097154691815376,-0.06753448396921158,0.008529835380613804,-0.019145211204886436,-0.03254268318414688,0.03427906706929207,0.0698472335934639,0.13189829885959625,0.19648918509483337,0.10933060944080353,0.17839865386486053,0.08318467438220978,-0.05954878032207489,-0.007521169260144234,-0.010613560676574707,-0.08470796048641205,0.0251382514834404,0.11907283961772919,0.014609056524932384,0.09643832594156265,0.06902353465557098,0.07582297176122665,0.0679595023393631,-0.017772063612937927,-0.07562534511089325,-0.06338178366422653,-0.06605327874422073,-0.06175468862056732,0.04115752875804901,0.05423547700047493,0.028099361807107925,0.1143832802772522,0.07720562815666199,0.09317220002412796,0.05451510101556778,0.06840555369853973,0.1524866372346878,0.12168516963720322,0.1378408670425415,0.154061958193779,-0.006087178364396095,0.004249393939971924,-0.0045079756528139114,-0.07451622188091278,0.016127130016684532,0.12463898211717606,0.07278759777545929,0.09824765473604202,0.09440827369689941,0.1238897368311882,0.07212554663419724,0.03788794204592705,-0.07379785925149918,-0.06924497336149216,0.004323797300457954,0.05986311286687851,0.10320877283811569,0.14834031462669373,0.10262648016214371,0.17946958541870117,0.14933638274669647,0.12173435091972351,0.04691331833600998,-0.023000556975603104,0.06567253172397614,0.021447941660881042,0.10589202493429184,0.06714952737092972,-0.006641454063355923,0.03566194698214531,0.031570564955472946,0.04009730741381645,-0.04581015929579735,0.07750286906957626,0.027975358068943024,0.11904382705688477,0.045749641954898834,0.04010158032178879,0.045466531068086624,-0.0335337370634079,-0.05906492844223976,-0.1128537729382515,-0.0732656866312027,-0.006465214304625988,0.001607705606147647,0.12856444716453552,0.18492701649665833,0.12126694619655609,0.15750689804553986,0.07807956635951996,-0.0029971646144986153,-0.08675356954336166,0.07070783525705338,0.012767483480274677,0.09715452790260315,0.01875304989516735,-0.0920441746711731,0.022688299417495728,-0.00875767320394516,-0.0857025608420372,-0.03999771922826767,-0.1255841851234436,-0.1569020003080368,-0.18835903704166412,-0.24182219803333282,-0.25441843271255493,-0.351767361164093,-0.29561367630958557,-0.22329053282737732,-0.22713008522987366,-0.2556994557380676,-0.2836357653141022,-0.24455192685127258,-0.17699898779392242,-0.057024773210287094,-0.08513837307691574,-0.01613309048116207,-0.03705378994345665,-0.030852433294057846,0.04948316887021065,-0.12101410329341888,-0.05693556368350983,-0.05744321644306183,-0.0938238799571991,-0.0037671823520213366,-0.021764695644378662,0.03154746815562248,0.0003899708390235901,0.00477353110909462,-0.025466596707701683,-0.009615311399102211,-0.01744903437793255,-0.007996641099452972,-0.030154604464769363,-0.0002489015460014343,0.017487816512584686,0.014064494520425797,0.025946427136659622,-0.03205350786447525,-0.007089776918292046,-0.02847936935722828,0.01615181192755699,0.014622453600168228,-0.02676355093717575,-0.021259194239974022,-0.02470165118575096,0.0019385144114494324,0.011726859956979752,0.0018932037055492401,0.02108316868543625,-0.013988601043820381,0.03314311429858208,-0.004978504031896591,-0.03528376668691635
0.14031808078289032,-0.035161472856998444,0.0325692854821682,-0.0012607574462890625,-0.02810613252222538,0.00027436763048171997,-0.0252212043851614,-0.031576961278915405,-0.008627785369753838,0.015833675861358643,0.013340651988983154,0.0023518986999988556,0.013701476156711578,0.009169399738311768,-0.014975924044847488,0.03213619813323021,-0.013464456424117088,0.008113071322441101,0.017299320548772812,0.017447326332330704,-0.005545893684029579,-0.02133481577038765,-0.02842031419277191,-0.026608839631080627,0.001246340572834015,-0.03270803019404411,-0.02674049697816372,-0.00921475887298584,-0.01949864625930786,-0.01278364285826683,-0.008453723043203354,-0.031175581738352776,-0.03067777492105961,-0.03628373518586159,-0.062256935983896255,-0.058832451701164246,0.028342312201857567,-0.05713944137096405,0.04305576533079147,0.09558719396591187,0.09184569120407104,0.1298120617866516,-0.014178003184497356,0.016870522871613503,0.0015003710286691785,-0.018119432032108307,0.07015223801136017,-0.03476318344473839,-0.05426366627216339,-0.07979930937290192,-0.04923932999372482,0.04257482290267944,-0.0537511371076107,-0.18415845930576324,-0.17584416270256042,-0.15582306683063507,-0.020022882148623466,-0.011410394683480263,-0.024369798600673676,-0.17990659177303314,0.0009555089054629207,0.008913489058613777,0.013983417302370071,0.07842738926410675,0.08372658491134644,0.029789378866553307,0.07229877263307571,0.0073666879907250404,0.01550048403441906,-0.01862260140478611,0.01761629246175289,-0.009270770475268364,-0.07405851781368256,0.022729195654392242,-0.020547091960906982,-0.03887191787362099,0.008125151507556438,0.0007268282352015376,-0.04310266301035881,-0.17202520370483398,-0.13830934464931488,-0.18972860276699066,-0.23468124866485596,-0.29617100954055786,0.009301848709583282,-0.032136816531419754,0.05027826502919197,0.05441693589091301,0.06310374289751053,0.00907646119594574,0.029567837715148926,0.0010869773104786873,-0.006401647347956896,0.0043876576237380505,-0.03816138952970505,0.011369801126420498,-0.062345899641513824,-0.07024398446083069,-0.10506022721529007,-0.08590361475944519,-0.0174065250903368,-0.044433824717998505,-0.0636301338672638,-0.054951902478933334,-0.05553131178021431,-0.050906866788864136,-0.04220840334892273,-0.11226080358028412,-0.15617389976978302,-0.18635407090187073,-0.26387980580329895,-0.2680147886276245,-0.018846742808818817,0.09003452956676483,0.08127772063016891,0.06289929896593094,-0.052641548216342926,-0.052923236042261124,-0.032192036509513855,0.019885577261447906,-0.06749221682548523,-0.047627415508031845,-0.03145403414964676,-0.07503893971443176,-0.06768710166215897,-0.06940662860870361,-0.07608721405267715,-0.0743546187877655,-0.04836014658212662,-0.04548070207238197,-0.01898009702563286,-0.0266188383102417,-0.06409525126218796,-0.1157037690281868,-0.11741514503955841,-0.1274273693561554,-0.09609387814998627,-0.12704558670520782,-0.240316703915596,-0.278755247592926,0.01194172352552414,0.0685591995716095,0.11243481934070587,0.05652759596705437,-0.026058778166770935,-0.06888087838888168,-0.02720251865684986,0.0038802821654826403,0.020501472055912018,0.059450242668390274,0.04044046998023987,0.03402302414178848,0.0642315000295639,0.04732297733426094,0.013250983320176601,-0.0012560202740132809,0.0489451140165329,-0.04160634055733681,-0.09385364502668381,-0.10339492559432983,-0.13291746377944946,-0.10193698108196259,-0.10952427238225937,-0.14717161655426025,-0.11445412039756775,-0.13096240162849426,-0.17732298374176025,-0.14452865719795227,0.015933305025100708,0.07772878557443619,-0.00578062329441309,-0.0021037443075329065,-0.026895787566900253,-0.034080762416124344,0.025236481800675392,0.053585637360811234,0.06676457077264786,0.048559803515672684,0.04008118808269501,0.09375961869955063,0.07542338967323303,0.08629685640335083,0.019336728379130363,0.023571977391839027,-0.01808656007051468,-0.06094701215624809,-0.09395302087068558,-0.07431826740503311,-0.10742702335119247,-0.09291154146194458,-0.0743074044585228,-0.12742501497268677,-0.13988906145095825,-0.05225692316889763,-0.11691149324178696,-0.12918387353420258,-0.05846328288316727,0.017539387568831444,0.05039205029606819,0.056005630642175674,0.054171252995729446,0.10330304503440857,0.09351176023483276,0.1427825391292572,0.05163225904107094,0.10818620026111603,0.08811309188604355,0.10620611160993576,0.029580162838101387,-0.008064174093306065,0.03800368309020996,0.04648299887776375,-0.05212428420782089,-0.03797820210456848,-0.1145378053188324,-0.11125921458005905,-0.09561320394277573,-0.03748304769396782,-0.10241050273180008,-0.07837458699941635,-0.10372643172740936,-0.1108180359005928,-0.18980100750923157,-0.1968693733215332,-0.0572882816195488,0.044412530958652496,0.11293821036815643,0.2321140170097351,0.12839457392692566,0.09031061828136444,0.135259211063385,0.10568618029356003,0.018519457429647446,-0.029182640835642815,-0.04951796308159828,-0.03497276455163956,-0.015925345942378044,-0.02965507283806801,-0.029585398733615875,-0.06060958653688431,-0.06415454298257828,0.01991376280784607,-0.06328795850276947,-0.031582217663526535,-0.05698619410395622,-0.06856191158294678,-0.0452621765434742,-0.039983078837394714,-0.04964693635702133,-0.11768429726362228,-0.1625545173883438,-0.18885400891304016,-0.03488890454173088,-0.0027994296979159117,0.28947699069976807,0.31868571043014526,0.19505344331264496,0.11429083347320557,0.0205739364027977,-0.03635869175195694,-0.06578676402568817,-0.08013758808374405,-0.08172591030597687,-0.09683297574520111,-0.13185659050941467,-0.07600714266300201,-0.08650941401720047,-0.08594432473182678,-0.05079023167490959,-0.06583524495363235,-0.07035890221595764,-0.062075573951005936,-0.06627257168292999,-0.02927452325820923,0.02330571413040161,0.03589741513133049,0.014500854536890984,-0.045329950749874115,-0.06293428689241409,-0.09946471452713013,-0.040152840316295624,0.0004822904011234641,0.3518119156360626,0.2556849718093872,0.08411173522472382,-0.03811866417527199,-0.06835390627384186,-0.1253974735736847,-0.14254671335220337,-0.06097361072897911,-0.10792738944292068,-0.1923644244670868,-0.2147803157567978,-0.23951327800750732,-0.20486372709274292,-0.13793635368347168,-0.10403864830732346,-0.13136085867881775,-0.10777287930250168,-0.056572236120700836,-0.1086607351899147,-0.03452698513865471,0.05050419270992279,0.01095359306782484,-0.02222808264195919,0.0301937535405159,-0.010398141108453274,0.05721199885010719,0.016033444553613663,-0.06587085872888565,0.11962249130010605,0.07627380639314651,-0.09457667917013168,-0.21223923563957214,-0.24109724164009094,-0.20205213129520416,-0.2239936739206314,-0.22367681562900543,-0.22472384572029114,-0.29548490047454834,-0.23621419072151184,-0.21770399808883667,-0.2199030965566635,-0.2226899266242981,-0.20838865637779236,-0.18869653344154358,-0.19409896433353424,-0.10958928614854813,-0.06450613588094711,-0.036950722336769104,-0.010219397954642773,-0.017855189740657806,-0.041943468153476715,0.03492841497063637,0.021613819524645805,0.13396868109703064,0.005947016179561615,-0.017367342486977577,-0.09050863236188889,-0.3072587549686432,-0.3660564422607422,-0.40758731961250305,-0.3196609914302826,-0.352264404296875,-0.27123308181762695,-0.26349061727523804,-0.21611134707927704,-0.24392880499362946,-0.21842508018016815,-0.2136312872171402,-0.17704230546951294,-0.23110081255435944,-0.21314942836761475,-0.18365943431854248,-0.17580220103263855,-0.15371136367321014,0.011137180030345917,-0.07394091039896011,-0.06592068821191788,-0.08932483941316605,-0.01867726817727089,-0.01649428904056549,0.16753380000591278,0.10882144421339035,0.02275538444519043,0.026681315153837204,-0.4393874406814575,-0.6635575294494629,-0.5105462670326233,-0.42125198245048523,-0.33017316460609436,-0.2560299038887024,-0.2173021286725998,-0.23607057332992554,-0.2501274645328522,-0.15195980668067932,-0.20814210176467896,-0.1727578341960907,-0.14983420073986053,-0.12234951555728912,-0.06222127377986908,-0.09340880066156387,-0.10953708738088608,-0.08150753378868103,-0.11243241280317307,-0.10513589531183243,-0.1563003957271576,-0.09131595492362976,-0.1277441531419754,-0.04213358834385872,0.06004031375050545,0.13394849002361298,0.005485512316226959,0.004223618656396866,-0.6332058310508728,-0.6249344348907471,-0.40958911180496216,-0.22873404622077942,-0.12978404760360718,-0.09847021847963333,-0.08677108585834503,-0.11716306954622269,-0.05520005524158478,-0.11561742424964905,-0.08198559284210205,-0.05229833722114563,-0.03987425938248634,-0.03430645167827606,-0.0021526466589421034,0.0016211707843467593,-0.09099401533603668,-0.11441321671009064,-0.08481115102767944,-0.12534227967262268,-0.08194713294506073,-0.11065346002578735,-0.12035747617483139,-0.07248952984809875,-0.057599667459726334,0.14035560190677643,-0.021645933389663696,-0.0725470632314682,-0.4067780375480652,-0.27594229578971863,-0.071563720703125,0.0007139920489862561,0.039615336805582047,0.0027724159881472588,0.03178314492106438,-0.0021923789754509926,0.04757435619831085,0.015493600629270077,0.09757928550243378,0.0841936394572258,0.09535980224609375,0.10175256431102753,0.050387993454933167,-0.01267156656831503,-0.09138631075620651,-0.08739237487316132,-0.07080382108688354,-0.12401775270700455,-0.015124741941690445,-0.13917827606201172,-0.11643914878368378,-0.12639036774635315,-0.007950402796268463,0.17929096519947052,0.02833617851138115,-0.0642082467675209,0.06198297068476677,0.06797052174806595,0.07403289526700974,0.04382483661174774,0.08146344870328903,0.13093502819538116,0.0924614667892456,0.12079264968633652,0.117704838514328,0.1333499252796173,0.14114604890346527,0.14056392014026642,0.14316245913505554,0.0963306799530983,0.056010060012340546,-0.04167252406477928,-0.036524929106235504,-0.055608127266168594,-0.05799708887934685,-0.03715062513947487,-0.058153823018074036,-0.06941107660531998,-0.056786224246025085,-0.08550497144460678,0.04311585798859596,0.20216459035873413,-0.02922964282333851,0.026768941432237625,0.23509542644023895,0.23497936129570007,0.05552978813648224,0.06836555153131485,0.07597567141056061,0.07152573764324188,0.0372566282749176,0.08519565314054489,0.12850069999694824,0.1289556324481964,0.13255277276039124,0.1961473822593689,0.1373273879289627,0.15374886989593506,0.031377166509628296,0.0007568526780232787,0.006150619592517614,0.060978684574365616,0.01290211919695139,0.04090770334005356,-0.03377794101834297,-0.0543534979224205,0.04041960835456848,0.021043628454208374,0.07638683170080185,0.07534409314393997,-0.011562786996364594,0.04100462421774864,0.3663143813610077,0.2550332546234131,0.1223931834101677,0.123182512819767,0.07603350281715393,0.044743187725543976,0.06745783984661102,0.15471751987934113,0.12184229493141174,0.1601688414812088,0.17686697840690613,0.16849736869335175,0.14805655181407928,0.1510988026857376,0.1281070113182068,0.07875414937734604,0.13608267903327942,0.07128015160560608,0.06474966555833817,0.06921995431184769,-0.022232940420508385,-0.04752085730433464,0.035292018204927444,0.028053268790245056,0.058857932686805725,0.08615151792764664,-0.021060416474938393,0.026679035276174545,0.2250179648399353,0.20121917128562927,0.15329033136367798,0.1413588672876358,0.08190793544054031,0.12183111160993576,0.11857174336910248,0.12516555190086365,0.17303426563739777,0.16990898549556732,0.2168332040309906,0.10166012495756149,0.11338319629430771,0.1638043373823166,0.09623852372169495,0.11420197784900665,0.12224145978689194,0.08998724818229675,0.08548268675804138,0.05894946679472923,0.0512358695268631,0.03858067840337753,0.03396053984761238,0.04526616632938385,0.05345364287495613,0.12178394943475723,0.0014601435977965593,-0.047515496611595154,0.15512727200984955,0.12407653033733368,0.17240841686725616,0.1463879644870758,0.1482403427362442,0.142133429646492,0.1760842353105545,0.10787656158208847,0.18172235786914825,0.1575603038072586,0.09062370657920837,0.1572382003068924,0.11901349574327469,0.12118412554264069,0.12596213817596436,0.13439491391181946,0.15562640130519867,0.14515039324760437,0.16137981414794922,0.1337442845106125,0.13144177198410034,0.09662149846553802,0.05594633147120476,0.062301941215991974,0.07411172240972519,0.15183034539222717,-0.005932927131652832,-0.06455805152654648,0.06058735400438309,0.11788569390773773,0.11759967356920242,0.1157771646976471,0.11302871257066727,0.1351623684167862,0.1424466073513031,0.10276320576667786,0.1259923130273819,0.05673636868596077,0.08063686639070511,0.07302660495042801,0.10220640897750854,0.1416429877281189,0.18609115481376648,0.1981099247932434,0.18700098991394043,0.19066157937049866,0.20627041161060333,0.22615718841552734,0.19666345417499542,0.15868012607097626,0.11326169222593307,0.14101430773735046,0.044817909598350525,0.012245630845427513,0.0001564808189868927,-0.033595312386751175,0.02900182083249092,0.07261861115694046,0.14099550247192383,0.11868070811033249,0.15894001722335815,0.1400919109582901,0.111975759267807,0.1176062524318695,0.03930233046412468,0.040157292038202286,0.030830534175038338,0.046391602605581284,0.11241649836301804,0.16930364072322845,0.14195077121257782,0.16842135787010193,0.16449107229709625,0.15945325791835785,0.18843507766723633,0.24134188890457153,0.2112758457660675,0.16661663353443146,0.16886578500270844,0.09631706029176712,0.08910807222127914,0.08196737617254257,-0.006252612918615341,-0.01968739740550518,0.06609883904457092,0.13638979196548462,0.15911801159381866,0.14233455061912537,0.14138072729110718,0.18925045430660248,0.15594987571239471,0.09457569569349289,0.06481670588254929,-0.031408246606588364,-0.007613263558596373,-0.022655101493000984,0.007628523278981447,0.0055422536097466946,-0.01845364086329937,-0.0014551040949299932,0.09265094995498657,0.10209563374519348,0.17778483033180237,0.19590720534324646,0.1605142503976822,0.20548668503761292,0.1150917187333107,0.06919941306114197,0.0045618643052875996,0.09087706357240677,-0.0017235837876796722,0.013973359018564224,0.06829563528299332,0.19050469994544983,0.17941682040691376,0.10985863953828812,0.10735512524843216,0.14431710541248322,0.10041707009077072,0.10514329373836517,0.09147629886865616,-0.013040987774729729,-0.03165664151310921,-0.10373018682003021,-0.13248205184936523,-0.12040485441684723,-0.11641362309455872,-0.0622357539832592,0.01329953595995903,0.007659688591957092,0.06526613235473633,0.12745003402233124,0.19424165785312653,0.0765773206949234,0.09827207773923874,0.10630083829164505,0.13825418055057526,0.13832096755504608,-0.012844013050198555,0.01041458547115326,0.014781841076910496,0.11274069547653198,0.20644783973693848,0.10810007154941559,0.08758958429098129,0.09816408157348633,0.12801498174667358,0.07730904966592789,0.07443220168352127,-0.006379060912877321,-0.06457124650478363,-0.12762412428855896,-0.10898655652999878,-0.2018166333436966,-0.20889094471931458,-0.15083397924900055,-0.13443003594875336,-0.0698457732796669,0.02694006823003292,0.07110664248466492,0.054779741913080215,0.05574099346995354,0.09725427627563477,0.06763126701116562,0.07591485232114792,0.15664148330688477,0.035698506981134415,0.01787712052464485,-0.08899644762277603,0.057303883135318756,0.09299959242343903,0.07462950795888901,0.02166156843304634,0.009628493338823318,-0.09779739379882812,-0.06754458695650101,0.02530701830983162,-0.04282290115952492,-0.11109849065542221,-0.08652574568986893,-0.07633617520332336,-0.10766259580850601,-0.07491105049848557,-0.02938200905919075,-0.04505298659205437,0.019373230636119843,0.029836297035217285,0.024871263653039932,-0.03830337151885033,-0.0032732589170336723,0.028117235749959946,-0.011095426045358181,0.1177356168627739,-0.02278699167072773,-0.014446182176470757,-0.017515158280730247,-0.004242870956659317,-0.005463127046823502,-0.03262893483042717,0.03054065629839897,0.008980829268693924,0.003632050007581711,-0.016140086576342583,0.008553296327590942,0.029330309480428696,-0.017929447814822197,0.011031672358512878,-0.020288139581680298,-0.02134346216917038,-0.009364664554595947,-0.021752431988716125,-0.03265562653541565,0.006984986364841461,-0.00041090697050094604,-0.027233198285102844,-0.00013120099902153015,-0.021491199731826782,0.023334305733442307,0.035087306052446365,0.024411510676145554,0.00945771113038063,0.031495895236730576,0.01158105581998825
-0.4317018389701843,0.0308111272752285,0.004172485321760178,0.0336926095187664,0.020500626415014267,0.026443947106599808,0.004102598875761032,0.008854411542415619,0.009270519018173218,0.027963344007730484,-0.009684469550848007,0.025625605136156082,0.03524613752961159,-0.0024605058133602142,-0.0076296161860227585,-0.011015573516488075,-0.021036123856902122,6.279721856117249e-05,0.010520264506340027,0.011993244290351868,-0.029391758143901825,-0.03538958355784416,-0.023219034075737,-0.01470959186553955,-0.009557222947478294,0.02479405701160431,-0.029286250472068787,-0.030677463859319687,0.008608043193817139,0.014441926032304764,0.02718670293688774,-0.07084726542234421,0.09227698296308517,-0.03420862928032875,0.051144834607839584,0.056503552943468094,0.027738993987441063,0.03820382431149483,0.030176008120179176,-0.05748767405748367,-0.10680420696735382,0.0005016856011934578,-0.07391974329948425,-0.10533236712217331,-0.005873439367860556,-0.04959525913000107,-0.00021726603154093027,-0.03893095254898071,0.011667763814330101,0.06828078627586365,0.05082283914089203,-0.05816226825118065,-0.12094253301620483,-0.19246315956115723,-0.1168394610285759,-0.1079239621758461,0.029636289924383163,-0.02899671159684658,-0.056688092648983,0.1204293891787529,0.05224734917283058,0.08537989854812622,0.027115099132061005,-0.034106407314538956,0.06688253581523895,0.024498334154486656,-0.039972614496946335,-0.05308740958571434,-0.035634610801935196,-0.004271197132766247,0.053115181624889374,0.02313189208507538,0.060467325150966644,0.07120482623577118,0.025149455294013023,0.06806391477584839,-0.008582613430917263,-0.06724754720926285,-0.0898614451289177,-0.02624344453215599,-0.07130879163742065,-0.14814092218875885,-0.16967876255512238,-0.1630934327840805,-0.034004710614681244,0.02245759218931198,-0.17832110822200775,-0.03924315422773361,-0.07464680075645447,0.005232433322817087,-0.0012786570005118847,0.027284540235996246,-0.007800912018865347,0.0012700974475592375,-0.003948126453906298,-0.023557253181934357,0.03747560828924179,0.09067738056182861,0.05297793447971344,-0.012558136135339737,-0.005638937000185251,0.03309670090675354,0.0026484481059014797,-0.046382419764995575,-0.014874259009957314,-0.023259203881025314,0.02835633046925068,-0.03412000834941864,-0.05284816771745682,-0.13908697664737701,-0.1083950400352478,-0.280737042427063,0.0022360682487487793,-0.08084992319345474,-0.11548798531293869,0.009922577999532223,-0.05790945887565613,0.07033083587884903,0.03950412943959236,-0.0182754285633564,0.1046486347913742,0.13376395404338837,0.09904573857784271,0.12619496881961823,0.11550871282815933,0.13862383365631104,0.03824576735496521,0.061523716896772385,-0.010646604001522064,-0.03714723140001297,-0.057560380548238754,-0.07078219950199127,-0.07273508608341217,-0.05449729040265083,-0.023618582636117935,-0.07143061608076096,0.020745567977428436,0.005250918213278055,-0.08041508495807648,-0.0007034477894194424,0.026320960372686386,-0.027109365910291672,-0.059156619012355804,-0.01698490045964718,0.04176706075668335,0.07975953817367554,0.0739891529083252,0.08032252639532089,0.1633683145046234,0.18098273873329163,0.17559176683425903,0.17732174694538116,0.10010188072919846,0.08502180874347687,0.11551158875226974,0.07280875742435455,0.004678460769355297,-0.07433820515871048,-0.058328792452812195,-0.07692042738199234,-0.10852054506540298,-0.05162348970770836,-0.017475297674536705,0.0007912450237199664,-0.005828924011439085,0.04708768054842949,0.01047064084559679,0.11832453310489655,-0.027745716273784637,-0.049087975174188614,-0.07427005469799042,0.052307210862636566,0.07201231271028519,0.09519211947917938,0.07870978862047195,0.09196627885103226,0.11527456343173981,0.09393338114023209,0.06816799193620682,0.05543830618262291,0.02732204832136631,0.0703733041882515,0.08057516068220139,0.07114487886428833,0.07444615662097931,0.004351294599473476,-0.05349744111299515,-0.048136573284864426,-0.027976268902420998,-0.007993458770215511,-0.006888288538902998,0.029513876885175705,0.022790001705288887,0.07323713600635529,0.06527793407440186,0.057606473565101624,-0.060709305107593536,-0.11247454583644867,0.12755106389522552,0.1036757305264473,0.052739791572093964,0.07100792229175568,0.024278150871396065,-0.008809266611933708,0.02041560411453247,-0.021678298711776733,-0.1072109267115593,-0.1001598909497261,-0.03678077459335327,0.03465089574456215,0.13531538844108582,0.13618133962154388,0.11778149753808975,0.059872664511203766,0.06461390107870102,0.010486114770174026,0.005179275758564472,0.02739042229950428,0.11768171936273575,0.09664424508810043,0.0810648500919342,0.12824364006519318,0.18289010226726532,0.041487425565719604,-0.0213889479637146,-0.09150059521198273,0.14864914119243622,0.15751923620700836,0.017397122457623482,-0.06651588529348373,-0.041682254523038864,-0.08877862244844437,-0.08633808046579361,-0.17273327708244324,-0.1721784621477127,-0.10839933902025223,-0.06014198064804077,-0.01082616113126278,0.07609926164150238,0.13347938656806946,0.10200566798448563,0.09401407837867737,0.10974714905023575,0.12025972455739975,0.10114260762929916,0.1393691599369049,0.13092041015625,0.18338201940059662,0.11547664552927017,0.16599923372268677,0.2307531237602234,0.056538671255111694,-0.03976370394229889,-0.08758173137903214,0.05939914658665657,0.013095567002892494,-0.1015816181898117,-0.1183781549334526,-0.12479811906814575,-0.19909238815307617,-0.17570999264717102,-0.2262500524520874,-0.17936037480831146,-0.19518719613552094,-0.08793992549180984,-0.021121714264154434,-0.020104244351387024,0.007844099774956703,0.08341803401708603,0.06507401913404465,0.09086272120475769,0.06180986389517784,0.125666543841362,0.1001199334859848,0.09240180253982544,0.12661510705947876,0.03972196206450462,0.1038929671049118,0.1791568249464035,0.08236685395240784,-0.05805107578635216,-0.08067218959331512,-0.11824069917201996,-0.12363532185554504,-0.2257062792778015,-0.2348676323890686,-0.23664647340774536,-0.2276182770729065,-0.1972305029630661,-0.20473423600196838,-0.19008351862430573,-0.22572074830532074,-0.18983590602874756,-0.09015977382659912,-0.04319564253091812,0.03401125594973564,-0.002244300441816449,0.01324673742055893,0.03984115272760391,0.04403736814856529,0.052989281713962555,0.06007502228021622,0.07524315267801285,0.03661944344639778,0.09521019458770752,0.08739306777715683,0.027449700981378555,-0.050377752631902695,-0.0065973661839962006,-0.05523145943880081,-0.21656207740306854,-0.340612530708313,-0.2698652744293213,-0.23079603910446167,-0.2978251874446869,-0.20382824540138245,-0.1067596822977066,-0.11983976513147354,-0.1542852371931076,-0.18477340042591095,-0.14652760326862335,-0.06962388753890991,0.014394751749932766,0.058732036501169205,0.018133828416466713,0.07571005076169968,0.00039229574031196535,0.05119704455137253,0.04497352987527847,0.04725716635584831,-0.014346023090183735,-0.08198897540569305,-0.06154461205005646,-0.06441525369882584,-0.1602020561695099,-0.1420707404613495,0.014883063733577728,0.02639039233326912,-0.23741282522678375,-0.23560874164104462,-0.21943624317646027,-0.1423945426940918,-0.13164299726486206,-0.0937349945306778,-0.09062469750642776,-0.09263435006141663,-0.05426568165421486,-0.0762469470500946,-0.01749560981988907,0.036066945642232895,0.0750376507639885,0.10117803514003754,0.05137999728322029,0.06957829743623734,0.029511597007513046,0.006565024610608816,0.005702183116227388,0.0050643752329051495,-0.04365098848938942,-0.10421457141637802,-0.18614506721496582,-0.1791767179965973,-0.29579228162765503,-0.2970786690711975,0.004523821175098419,0.016624022275209427,-0.13006512820720673,-0.15043196082115173,-0.002370096044614911,0.028860174119472504,-0.018825208768248558,-0.03885878250002861,-0.06041835993528366,-0.054304007440805435,0.07307028770446777,0.11412196606397629,0.09221240878105164,0.13938969373703003,0.11881646513938904,0.12249546498060226,0.07373861223459244,0.05968479812145233,-0.005828836001455784,-0.06633507460355759,-0.011388330720365047,-0.005011013709008694,-0.056099943816661835,-0.08074495941400528,-0.1689157336950302,-0.13089554011821747,-0.22040684521198273,-0.1512678861618042,-0.02237650752067566,0.027333665639162064,0.010099216364324093,0.0298115573823452,-0.0395188182592392,-0.04974483698606491,-0.049532532691955566,-0.0537661574780941,-0.027539584785699844,0.0266359094530344,0.037867654114961624,0.049421120434999466,0.07386172562837601,0.10537511110305786,0.08238843083381653,0.07485036551952362,0.07825751602649689,0.0017874834593385458,-0.048361338675022125,-0.00557386688888073,-0.023627715185284615,-0.004670680034905672,-0.014197956770658493,-0.04631970077753067,-0.003779151476919651,-0.04792880266904831,0.0452413409948349,0.02925783395767212,0.003125753253698349,-0.05347645655274391,0.11248122155666351,-0.010572495870292187,-0.1223563626408577,-0.1932559758424759,-0.1855219602584839,-0.1684800237417221,-0.12811806797981262,-0.07824333757162094,-0.07448311150074005,-0.06424258649349213,-0.08479070663452148,-0.0736105665564537,-0.006292429286986589,0.031737253069877625,0.019238334149122238,0.03883161395788193,0.014103001914918423,0.025934644043445587,0.008676023222506046,0.016216091811656952,0.04137827083468437,0.06496750563383102,0.045883093029260635,0.03710290789604187,0.0933326929807663,0.0634814202785492,-0.031045297160744667,-0.06863522529602051,-0.04602859541773796,-0.06205778568983078,-0.09825649857521057,-0.18093927204608917,-0.20909595489501953,-0.21940484642982483,-0.16238147020339966,-0.07192179560661316,-0.11696604639291763,-0.17023420333862305,-0.1921466886997223,-0.06768681854009628,-0.053095459938049316,-0.06555099040269852,0.007073595654219389,0.014776952564716339,-0.006603180896490812,0.050763100385665894,0.07498958706855774,0.0736478790640831,0.08069969713687897,0.09755512326955795,0.09601905941963196,0.12039093673229218,0.06757884472608566,0.032839033752679825,0.006303507834672928,-0.04292912036180496,-0.028765803202986717,-0.012744396924972534,-0.06369809806346893,-0.060834527015686035,-0.12720105051994324,-0.18335284292697906,-0.17624740302562714,-0.19775937497615814,-0.19878076016902924,-0.21121379733085632,-0.20890763401985168,-0.19512036442756653,-0.17917202413082123,-0.10523080080747604,-0.11963178217411041,-0.03616759926080704,0.009881565347313881,0.11807209998369217,0.1248297467827797,0.16222228109836578,0.1066007912158966,0.11736869812011719,0.09413274377584457,0.10335726290941238,0.0744301900267601,0.20860213041305542,0.02578095719218254,-0.07940486818552017,-0.05333190783858299,0.017799917608499527,-0.0494723916053772,-0.06723734736442566,-0.05658108741044998,-0.143356055021286,-0.1302279829978943,-0.15680590271949768,-0.19244830310344696,-0.17773652076721191,-0.27435216307640076,-0.24625498056411743,-0.2202877253293991,-0.19993388652801514,-0.058108605444431305,0.008002595975995064,0.030265554785728455,0.13485270738601685,0.11939729750156403,0.09204822033643723,0.12260352075099945,0.10201184451580048,0.13926978409290314,0.10952584445476532,0.1603061556816101,0.07506448775529861,0.0082370825111866,-0.06877633184194565,-0.05639675259590149,0.03503068536520004,-0.013304992578923702,0.013838453218340874,0.034417733550071716,-0.03421863913536072,-0.042975135147571564,-0.10934392362833023,-0.05124245956540108,-0.14603689312934875,-0.13054534792900085,-0.13269658386707306,-0.09374148398637772,-0.06980981677770615,-0.021742910146713257,0.019091002643108368,0.10968296974897385,0.11638494580984116,0.11224950850009918,0.10713718831539154,0.12962235510349274,0.0921458750963211,0.08871972560882568,0.06767193973064423,0.17328064143657684,0.03289113938808441,-0.045712634921073914,-0.08341703563928604,0.024061547592282295,0.08031656593084335,0.09253297001123428,0.021641047671437263,0.006294859107583761,0.05533229559659958,-0.009052586741745472,-0.022288942709565163,-0.03753169998526573,0.01636136695742607,-0.0138508016243577,0.06702187657356262,-0.01185679156333208,-0.010129522532224655,0.03227803111076355,0.040819864720106125,0.019716424867510796,0.021984154358506203,0.057066790759563446,0.05672767385840416,0.06603305041790009,0.007510591764003038,0.06841478496789932,0.07146524637937546,0.052562613040208817,-0.12717756628990173,-0.03279322013258934,-0.04986518248915672,0.0354534275829792,0.02340216562151909,0.03790958970785141,0.023273834958672523,0.07141242921352386,0.050399161875247955,0.05612928792834282,0.01545671932399273,0.014655754901468754,0.028045132756233215,-0.03829088807106018,0.04808703437447548,0.0324099063873291,0.034466709941625595,-0.027764655649662018,-0.01196669228374958,0.018579136580228806,0.08714162558317184,0.014506847597658634,0.030709167942404747,0.008172980509698391,0.03876432031393051,0.010788902640342712,0.03549434244632721,0.041518133133649826,-0.028209563344717026,0.0043488554656505585,-0.07142018526792526,0.07103927433490753,0.013767927885055542,0.01095657330006361,0.06532866507768631,-0.0015139556489884853,0.032066792249679565,0.0760452076792717,0.04461805149912834,0.0407261960208416,0.0010018933098763227,0.0395304374396801,0.03145795315504074,0.015431876294314861,-0.05446938797831535,-0.007036236580461264,0.007620564196258783,-0.0046784719452261925,0.0012603674549609423,0.004525317810475826,0.023429211229085922,0.022786369547247887,0.06590892374515533,0.016128411516547203,-0.04094894230365753,-0.01308728102594614,-0.04363086447119713,0.001962844282388687,-0.014575622975826263,0.040464360266923904,-0.016893504187464714,-0.05418270453810692,-0.037320323288440704,0.0012075230479240417,0.08363264054059982,0.06555982679128647,0.12956206500530243,0.14186306297779083,0.08476760983467102,0.013987202197313309,0.038673218339681625,0.03575799614191055,0.040781278163194656,0.03342709317803383,0.005862586200237274,-0.022199569270014763,-0.03197261318564415,0.02369636856019497,0.05917736142873764,0.048726651817560196,-0.02344084344804287,0.04610932990908623,-0.002460598247125745,-0.1365337073802948,-0.03966331109404564,0.020339742302894592,-0.034345902502536774,0.014400982297956944,0.02109919674694538,-0.05402030795812607,-0.03171825408935547,0.03970788046717644,0.03441135212779045,0.03997962921857834,0.05854177474975586,0.06923264265060425,0.07693818211555481,0.12367665767669678,0.062620148062706,0.0714031457901001,-0.018073750659823418,0.015367462299764156,-0.01937853917479515,-0.03393439203500748,-0.02822202444076538,-0.041133638471364975,-0.006576161831617355,-0.0259129349142313,-0.018863338977098465,-0.0026315811555832624,-0.19707325100898743,-0.09324164688587189,-0.1616438925266266,-0.015024036169052124,0.023478012531995773,-0.23138444125652313,-0.0010289984056726098,-0.014518935233354568,-0.022928088903427124,0.04703106731176376,0.003808246925473213,0.0315169021487236,0.0029219205025583506,-0.0031703391578048468,0.016050972044467926,0.0328073687851429,0.02900055982172489,0.02855365350842476,0.037800565361976624,-0.01067992951720953,-0.02182847633957863,0.026338009163737297,-0.056863561272621155,-0.048372793942689896,-0.03039391338825226,-0.06912410259246826,-0.07004591077566147,-0.1839810311794281,-0.23153407871723175,-0.25162091851234436,-0.03081061877310276,0.010458972305059433,0.03209030255675316,-0.06071515753865242,-0.18877717852592468,-0.02698173001408577,0.05323382467031479,-0.024444544687867165,0.01301954872906208,0.08240865916013718,0.04354829341173172,-0.019037289544939995,0.021659811958670616,0.0015642708167433739,-0.048570409417152405,-0.0017683232435956597,0.03503556549549103,-0.003586977254599333,0.07126357406377792,-0.0168691948056221,-0.05233681574463844,-0.11707904934883118,-0.14189893007278442,-0.10558296740055084,-0.1344607174396515,-0.2060033082962036,-0.1499086171388626,-0.10860449820756912,-0.03863115608692169,-0.02376585453748703,-0.03566586971282959,-0.030374906957149506,-0.010128604248166084,-0.004789778962731361,0.02810303494334221,0.03551114723086357,0.01836041733622551,0.028188634663820267,-0.013081775978207588,-0.034351807087659836,-0.004252638667821884,-0.02602575719356537,-0.029901275411248207,-0.028110191226005554,0.023279305547475815,0.026915546506643295,0.01807187870144844,0.0062150247395038605,-0.03399166092276573,-0.031980715692043304,-0.027224987745285034,0.021014437079429626,0.03544273599982262,-0.006241189315915108,-0.009662603959441185,-0.03449533134698868,0.0236530601978302,0.015068620443344116
0.16208145022392273,0.01815680041909218,0.006319079548120499,0.028824936598539352,-0.015314621850848198,0.01663188636302948,-0.027520079165697098,-0.013236569240689278,0.01998823881149292,-0.030419282615184784,-0.012828094884753227,-0.01604709029197693,-0.024688445031642914,0.010368671268224716,0.012508831918239594,0.012947186827659607,0.00876934826374054,0.027067195624113083,0.021931014955043793,0.010183390229940414,-0.03487246856093407,0.00464237853884697,0.025274083018302917,0.005434535443782806,-0.004688680171966553,-0.017230354249477386,0.0015500746667385101,0.025981299579143524,-0.003914188593626022,0.029462989419698715,0.020540978759527206,-0.08679711818695068,0.04932931065559387,0.09591107070446014,-0.04096321389079094,-0.14247027039527893,-0.1199638620018959,-0.15429732203483582,-0.04291953146457672,-0.09154728055000305,-0.11668161302804947,-0.01827044039964676,-0.03461926057934761,-0.07070740312337875,0.019867466762661934,0.02618245780467987,-0.0006795926601625979,0.09543425589799881,0.017857618629932404,0.08993513137102127,0.047658488154411316,0.1196364015340805,0.10477879643440247,0.14640231430530548,0.12796065211296082,0.1161135882139206,-0.02993074618279934,0.02298756316304207,-0.118019238114357,-0.03092476911842823,0.01604965329170227,-0.008897775784134865,0.02437513880431652,0.037340667098760605,-0.10711003839969635,-0.060215793550014496,-0.03451418876647949,-0.07002131640911102,-0.03161114081740379,-0.07356663048267365,-0.07718931883573532,-0.08320854604244232,-0.07670166343450546,-0.11759194731712341,-0.14782530069351196,-0.09725841879844666,-0.028435349464416504,-0.05463767424225807,-0.03570152819156647,0.01596134901046753,0.11016879975795746,0.17328016459941864,0.22545836865901947,0.26103469729423523,-0.03523164987564087,0.005737774074077606,-0.06525564938783646,-0.08691287040710449,0.04349073767662048,0.037152569741010666,0.006815766915678978,-0.03307702764868736,-0.00885979924350977,-0.07480683922767639,-0.10218865424394608,-0.028033562004566193,-0.011017759330570698,-0.00399754336103797,-0.03869747743010521,-0.134776771068573,-0.21352137625217438,-0.17154540121555328,-0.11779069155454636,-0.03381381556391716,0.015196826308965683,0.04795707017183304,0.05079280585050583,0.11925847828388214,0.15019938349723816,0.19529063999652863,0.2466677725315094,0.3002772033214569,-0.024686984717845917,-0.06997855752706528,-0.09155987203121185,0.03289584070444107,-0.02567189931869507,0.03400154411792755,-0.0070289368741214275,0.003581604454666376,-0.012742935679852962,-0.03576972335577011,-0.023320801556110382,-0.07270482927560806,-0.034529540687799454,-0.10278847068548203,-0.11263610422611237,-0.19928942620754242,-0.16345395147800446,-0.1908772587776184,-0.11491682380437851,-0.006669560447335243,0.04668884724378586,0.055127326399087906,0.07814867049455643,0.1386767029762268,0.07924606651067734,0.18738946318626404,0.2376597374677658,0.2486758530139923,-0.015967408195137978,-0.0736672431230545,-0.02893250808119774,0.010895672254264355,-0.046831607818603516,0.022577885538339615,0.004492487758398056,-0.008849223144352436,-0.020825307816267014,-0.013614191673696041,-0.003601671429350972,-0.09745902568101883,-0.13685496151447296,-0.16149288415908813,-0.20763720571994781,-0.20608730614185333,-0.21627859771251678,-0.13513042032718658,-0.07971859723329544,-0.023067129775881767,0.020409628748893738,0.04660859331488609,0.05662579461932182,0.08295699954032898,0.05751620605587959,0.018091846257448196,0.12111823260784149,0.16692379117012024,0.024516906589269638,-0.03829334303736687,0.046819139271974564,-0.12022782862186432,-0.052199918776750565,0.044201143085956573,-0.04623125120997429,0.0016764778411015868,-0.028279922902584076,-0.017491986975073814,0.0016617687651887536,-0.07991324365139008,-0.14019377529621124,-0.17397980391979218,-0.25431227684020996,-0.24426749348640442,-0.19500704109668732,-0.13096721470355988,-0.050885409116744995,-0.0006104005733504891,0.03513665497303009,-0.05108039453625679,-0.011040784418582916,-0.03442661836743355,-0.039848651736974716,-0.03340032324194908,-0.038934990763664246,0.0008374098688364029,-0.06725417077541351,0.06258957833051682,-0.15647676587104797,-0.20762920379638672,-0.13376067578792572,-0.10084263980388641,-0.06458019465208054,-0.10164090991020203,-0.06174732744693756,-0.059690382331609726,-0.050273824483156204,-0.08165846765041351,-0.10150747746229172,-0.21995994448661804,-0.22255954146385193,-0.19163979589939117,-0.15093444287776947,-0.061828237026929855,0.04782239347696304,0.038097407668828964,-0.0052154469303786755,-0.06673546135425568,-0.12409181147813797,-0.09503047168254852,-0.11121747642755508,-0.12674126029014587,-0.33306756615638733,-0.4966376721858978,-0.10316967964172363,0.06289653480052948,-0.28585320711135864,-0.3197995722293854,-0.1415136605501175,-0.06904680281877518,-0.1401216685771942,-0.05310169607400894,-0.039137788116931915,-0.02598404884338379,0.02349752187728882,0.057419002056121826,0.027795784175395966,-0.12044256925582886,-0.1831643432378769,-0.12181452661752701,-0.050847966223955154,0.02577407844364643,0.05545895919203758,0.07054111361503601,-0.028289878740906715,-0.10328586399555206,-0.11458801478147507,-0.15116898715496063,-0.11329159140586853,-0.2102367877960205,-0.4720378816127777,-0.8118352890014648,-0.030884569510817528,-0.032318517565727234,-0.3564307689666748,-0.2849719822406769,-0.14755254983901978,-0.04484691843390465,-0.025155991315841675,-0.06449030339717865,0.025542527437210083,0.013799148611724377,0.12354601919651031,0.14235706627368927,0.11422248184680939,0.0003253307950217277,-0.0274194423109293,0.0061993710696697235,0.012977948412299156,0.010906707495450974,0.10713299363851547,0.055509015917778015,-0.013739255256950855,-0.1154654398560524,-0.07130962610244751,-0.07695655524730682,-0.1490049958229065,-0.2286154329776764,-0.47511255741119385,-0.52386075258255,-0.08624090254306793,-0.07960360497236252,-0.39349696040153503,-0.12550491094589233,-0.00140131707303226,0.0036264178343117237,0.05972551554441452,0.036193765699863434,0.07445788383483887,0.15932616591453552,0.15329979360103607,0.19795222580432892,0.23278814554214478,0.1841159611940384,0.10209821164608002,0.05340658873319626,-0.018009882420301437,0.010141897015273571,0.07932786643505096,0.11135448515415192,0.011699153110384941,0.010235439985990524,-0.018095171079039574,-0.02136784978210926,0.0047424351796507835,-0.15287593007087708,-0.2549884021282196,-0.2938489317893982,0.00344187393784523,0.07011645287275314,-0.18903222680091858,-0.014416255056858063,0.07729930430650711,0.10647732019424438,0.15643660724163055,0.10458726435899734,0.20059555768966675,0.16875527799129486,0.26619914174079895,0.269601434469223,0.2756115794181824,0.25019875168800354,0.14184002578258514,0.02490317076444626,-0.010806705802679062,0.027022091671824455,0.14969277381896973,0.12157988548278809,0.12036438286304474,0.06890396773815155,0.06960048526525497,0.012207772582769394,0.10707619786262512,0.010705077089369297,-0.10620824247598648,-0.12616585195064545,0.031143750995397568,0.035102102905511856,0.06158975884318352,0.08228561282157898,0.1713794767856598,0.13225530087947845,0.20099887251853943,0.20266063511371613,0.1842494010925293,0.2680882513523102,0.22941890358924866,0.2903457581996918,0.2436007261276245,0.19789865612983704,0.06747027486562729,0.037995100021362305,0.0913764238357544,0.13849489390850067,0.2777344584465027,0.1958726942539215,0.14385955035686493,0.1351122111082077,0.12845350801944733,0.11418168991804123,0.09099763631820679,0.10285553336143494,-0.10072946548461914,-0.12647102773189545,0.024476751685142517,0.0028625428676605225,0.18875615298748016,0.23629449307918549,0.19881810247898102,0.19412872195243835,0.16757133603096008,0.17434857785701752,0.16981355845928192,0.2419976443052292,0.18836721777915955,0.1656239926815033,0.1362931877374649,0.02490159682929516,0.062051452696323395,0.06546128541231155,0.0846516564488411,0.1746673285961151,0.2552814185619354,0.17912304401397705,0.1393502801656723,0.1137896329164505,0.08374345302581787,0.039049576967954636,0.05179154500365257,-0.018734019249677658,-0.1553448736667633,-0.1359936147928238,-0.016021814197301865,0.027750622481107712,0.13997937738895416,0.20065364241600037,0.129368856549263,0.13000832498073578,0.11147315800189972,0.1011701375246048,0.14386464655399323,0.12876065075397491,0.06655856966972351,0.07890726625919342,0.07895679771900177,0.06090357154607773,0.014121384359896183,0.01395324431359768,0.1484527289867401,0.20617853105068207,0.23837998509407043,0.14137175679206848,0.13167181611061096,0.06922796368598938,0.101796954870224,-0.039059679955244064,0.03658811002969742,0.0056266626343131065,-0.039790354669094086,-0.16780366003513336,0.019934669137001038,0.028998462483286858,0.06288653612136841,-0.05478495731949806,0.07491324841976166,0.05268854275345802,0.09986275434494019,0.07601446658372879,0.027763234451413155,0.06034662947058678,0.028248406946659088,0.043362222611904144,0.05003966763615608,0.018892161548137665,0.08262200653553009,0.0857480987906456,0.14460675418376923,0.1670341193675995,0.14656640589237213,0.05238080769777298,0.04387780278921127,0.04174162447452545,0.0197204127907753,0.03704870492219925,0.09385042637586594,0.0387568324804306,-0.11428791284561157,-0.09199628978967667,-0.01730938069522381,-0.01242905668914318,-0.1447582095861435,-0.0892769992351532,-0.020647548139095306,0.07362861186265945,0.08145923912525177,0.05887867510318756,0.002321660052984953,0.012326780706644058,-0.0019665888976305723,0.054383285343647,0.09928429871797562,0.08680480718612671,0.11675010621547699,0.1463746875524521,0.16137488186359406,0.1124568060040474,0.05678960308432579,-0.011088309809565544,0.05062904208898544,0.026153666898608208,0.04141636937856674,0.0697123110294342,0.05785783380270004,0.050619836896657944,-0.1035013496875763,-0.23418855667114258,0.03410843387246132,-0.06109705939888954,-0.28706094622612,-0.12338089942932129,-0.0017785863019526005,0.11233234405517578,0.0451604388654232,0.018294502049684525,-0.026583408936858177,0.01896737702190876,0.07894265651702881,0.054234374314546585,0.07650241255760193,0.07021591812372208,0.15168049931526184,0.11499721556901932,0.08786354213953018,0.034370310604572296,-0.00807900819927454,-0.024697070941329002,-0.07636716216802597,-0.021335188299417496,0.029491102322936058,0.09678575396537781,0.08514712750911713,0.020309774205088615,-0.11339674890041351,-0.2667231559753418,0.00781894102692604,0.001536478055641055,-0.4281070828437805,-0.21151824295520782,-0.0884048193693161,0.01815698854625225,0.004703164100646973,-0.0163677129894495,-0.030094977468252182,-0.013764133676886559,0.022442074492573738,0.028408637270331383,0.010258830152451992,0.09205437451601028,0.1079372763633728,0.04696284607052803,0.007607719860970974,-0.007933920249342918,-0.04993607476353645,-0.0677163153886795,-0.09705968201160431,-0.015288149006664753,0.014551608823239803,0.04314618930220604,0.08015745133161545,0.03791915625333786,-0.09803468734025955,-0.2599557340145111,-0.009371485561132431,0.019418252632021904,-0.22712987661361694,-0.23344513773918152,-0.10619013011455536,-0.06393973529338837,-0.05054305121302605,-0.023215265944600105,-0.046240631490945816,-0.05833836644887924,-0.014111408963799477,-0.01518756803125143,0.04258275777101517,0.0562029667198658,0.013254446908831596,0.0397808700799942,-0.045545559376478195,-0.005775226280093193,-0.05585908517241478,-0.14484071731567383,-0.07994776964187622,-0.013010699301958084,-0.08715614676475525,-0.06309207528829575,-0.0337006039917469,-0.10858982056379318,-0.22236153483390808,-0.27554380893707275,0.009583917446434498,0.030940597876906395,-0.17731405794620514,-0.27452462911605835,-0.14850199222564697,-0.1014695018529892,-0.09433992952108383,-0.0988975539803505,-0.12856213748455048,-0.13077743351459503,-0.13399438560009003,-0.044401004910469055,-0.02756591886281967,-0.007468028925359249,-0.05428623780608177,-0.06070805341005325,-0.040289681404829025,-0.047763969749212265,-0.10382406413555145,-0.13939814269542694,-0.10915932059288025,-0.11351239681243896,-0.12418996542692184,-0.17274998128414154,-0.24996042251586914,-0.13780911266803741,-0.16240443289279938,-0.20269331336021423,0.0013143927790224552,0.0106614725664258,-0.1326022446155548,-0.15636377036571503,-0.1349274069070816,-0.04655468463897705,-0.11289780586957932,-0.17608308792114258,-0.23058728873729706,-0.16825738549232483,-0.23241424560546875,-0.17062559723854065,-0.16535095870494843,-0.11045879125595093,-0.09465846419334412,-0.13131096959114075,-0.08081574738025665,-0.06895743310451508,-0.09320312738418579,-0.10898374021053314,-0.10484938323497772,-0.21002764999866486,-0.19634155929088593,-0.1975688636302948,-0.2754749655723572,-0.2746180295944214,-0.11476195603609085,-0.33832332491874695,0.0014904439449310303,0.06494710594415665,-0.07885057479143143,-0.19569794833660126,-0.17580927908420563,-0.16941843926906586,-0.1528044193983078,-0.14741389453411102,-0.1781548261642456,-0.2295275330543518,-0.19718576967716217,-0.21691586077213287,-0.17824116349220276,-0.22700634598731995,-0.11411558091640472,-0.12147632986307144,-0.09281636774539948,-0.08048270642757416,-0.06430181115865707,-0.08958753198385239,-0.1083994135260582,-0.17439711093902588,-0.18478833138942719,-0.23017585277557373,-0.20189058780670166,-0.12518619000911713,-0.09030359238386154,0.007347396574914455,0.014979887753725052,-0.02678436040878296,-0.19686760008335114,-0.11351984739303589,-0.1835898756980896,-0.15956087410449982,-0.210405632853508,-0.1602584421634674,-0.1609887182712555,-0.14745478332042694,-0.20300595462322235,-0.16577047109603882,-0.2344360053539276,-0.18042245507240295,-0.12518377602100372,-0.11142752319574356,-0.034886039793491364,-0.11014606058597565,-0.056461136788129807,-0.0498756468296051,-0.0657619833946228,-0.07863298058509827,-0.1109333410859108,-0.10921601951122284,-0.05468443036079407,0.02155081182718277,0.10632913559675217,-0.01965738832950592,-0.012616187334060669,0.03163715824484825,0.03913682699203491,-0.06037677824497223,-0.1799742430448532,-0.1927952915430069,-0.07794061303138733,-0.04878449812531471,-0.07591300457715988,-0.10695840418338776,-0.13891252875328064,-0.15652436017990112,-0.13118746876716614,-0.11553686857223511,-0.07373494654893875,-0.09094890207052231,-0.04746892675757408,-0.10238292813301086,0.00010316403495380655,0.028206445276737213,0.033818069845438004,0.07836823165416718,0.049449652433395386,0.07402915507555008,0.08241860568523407,0.13264025747776031,0.10485474020242691,-0.0786643698811531,-0.022240180522203445,-0.0348508320748806,0.11050502210855484,-0.07906556129455566,-0.07699457556009293,-0.10572611540555954,-0.0957779511809349,0.04931292682886124,0.0024449434131383896,-0.02582869865000248,-0.03742457926273346,-0.04532347619533539,-0.045283906161785126,-0.023545540869235992,-0.04185305908322334,-0.01812932826578617,0.0003489392693154514,0.061738211661577225,0.06078818812966347,0.1706233024597168,0.14378933608531952,0.15772728621959686,0.18351368606090546,0.19438385963439941,0.18475201725959778,0.2042797952890396,0.12035255134105682,-0.10445615649223328,-0.02040478214621544,0.03500143811106682,0.026575343683362007,0.07330163568258286,-0.05265255644917488,0.026821257546544075,0.07616259157657623,0.045348525047302246,0.1036490723490715,0.09164638072252274,0.1307922899723053,0.08589444309473038,0.17347921431064606,0.13489608466625214,0.14849695563316345,0.14053718745708466,0.16995349526405334,0.09136717021465302,0.05113387480378151,0.03166233003139496,0.1367572546005249,0.08202935755252838,0.1125493273139,0.08785626292228699,0.15375886857509613,0.03635716810822487,0.02504553832113743,0.005366096738725901,0.007469449192285538,-0.023152071982622147,-0.03546096011996269,-0.01438758336007595,-0.027019143104553223,0.034924525767564774,-0.016881892457604408,0.02354651689529419,0.02600402757525444,-0.01139734499156475,0.026733536273241043,-0.02096259593963623,0.007264748215675354,-0.017944302409887314,-0.020882433280348778,0.001436036080121994,0.009786799550056458,-0.010611424222588539,0.007525064051151276,-0.03149600327014923,0.022739682346582413,0.02813609316945076,-0.009452657774090767,-0.026985161006450653,0.030724700540304184,-0.007579885423183441,-0.02733323909342289,0.019734632223844528,-0.010209126397967339
0.6030277013778687,-0.029260223731398582,-0.003017004579305649,0.0063280463218688965,-0.006809227168560028,-0.0262898001819849,0.0326760970056057,-0.016689620912075043,0.022158294916152954,-0.010481774806976318,-0.001032322645187378,0.0278470478951931,-0.023922568187117577,0.021268468350172043,-0.018897151574492455,0.0031742528080940247,0.003940880298614502,0.026979345828294754,-0.02605961635708809,0.028858821839094162,-0.028107691556215286,-0.015566665679216385,0.02919924631714821,0.027275394648313522,-0.006191441789269447,0.03541213646531105,0.01842677593231201,0.030464258044958115,-0.02976176328957081,0.02672039344906807,-0.03401649743318558,-0.11805988848209381,-0.09635676443576813,-0.1212172657251358,0.06307603418827057,-0.02670731581747532,-0.0015810971381142735,-0.04391534626483917,-0.11315082013607025,-0.1279161423444748,-0.11097398400306702,-0.16792279481887817,-0.06271184980869293,-0.13339141011238098,-0.07588231563568115,-0.11460992693901062,-0.08570127189159393,-0.0669579729437828,-0.026609325781464577,0.042611733078956604,0.0846824124455452,0.17248734831809998,0.154537633061409,0.13818268477916718,0.22873228788375854,-0.009243578650057316,-0.021300096064805984,-0.03462155908346176,-0.10519988089799881,-0.07805152237415314,-0.09414079785346985,-0.002532453741878271,-0.04756499081850052,-0.03248000890016556,-0.054637737572193146,-0.05439991503953934,-0.02936564013361931,-0.03784836456179619,-0.1083841547369957,-0.07994996756315231,-0.08552027493715286,-0.042983707040548325,-0.014414559118449688,-0.10508040338754654,-0.016274157911539078,-0.028962593525648117,0.005826583597809076,0.020824261009693146,0.0810289978981018,0.08381116390228271,0.1516251266002655,0.15340378880500793,0.1656264066696167,0.15707461535930634,0.024286072701215744,0.013400916010141373,-0.010354303754866123,-0.042522259056568146,-0.0026808632537722588,-0.013710098341107368,-0.09338515251874924,-0.011438128538429737,0.025061240419745445,0.05590220168232918,-0.004749277140945196,0.04378081113100052,0.02028954215347767,-0.04618224874138832,-0.03390546515583992,-0.06275070458650589,-0.049601830542087555,-0.02399257943034172,-0.04284484311938286,0.03763497620820999,0.03159824758768082,0.05763152241706848,0.03717584162950516,-0.01248068269342184,0.06735420972108841,0.05744381248950958,0.1498592495918274,0.3094385266304016,-0.007767286151647568,-0.08620517700910568,-0.04979294538497925,-0.10471832752227783,0.006227649748325348,-0.04854125156998634,0.01680644229054451,0.024021878838539124,-0.005739428102970123,0.08458903431892395,0.0395176000893116,0.01349275279790163,-0.015357662923634052,-0.07076407968997955,-0.07452530413866043,-0.15417525172233582,-0.09799910336732864,-0.04991675168275833,-0.015090540051460266,0.0552324503660202,0.1021028533577919,0.08800243586301804,0.1257595270872116,0.07412951439619064,0.07227139919996262,0.0012269177241250873,0.016012178733944893,0.20035356283187866,-0.00033619627356529236,-0.05460932478308678,-0.08131102472543716,-0.11779768764972687,-0.029489651322364807,-0.00728573789820075,-0.028845293447375298,-0.057914674282073975,0.00248130364343524,-0.06403561681509018,-0.04706021398305893,-0.10214721411466599,-0.1140902191400528,-0.12971074879169464,-0.09626999497413635,-0.08641581982374191,-0.02613682486116886,0.062213148921728134,0.05367106571793556,0.09264333546161652,0.14185646176338196,0.1521548628807068,0.12742221355438232,0.1219748854637146,0.1089288666844368,0.018292304128408432,0.03801053389906883,0.05732832849025726,0.030438359826803207,-0.02948831394314766,-0.10449867695569992,-0.021194886416196823,-0.05400414019823074,-0.04315166920423508,-0.04768473282456398,-0.062350258231163025,-0.07671181857585907,-0.05673282966017723,-0.06030266359448433,-0.045229315757751465,-0.09542758017778397,-0.05444909259676933,-0.025038445368409157,-0.038578495383262634,-0.0001368335506413132,-0.016047539189457893,-0.02027677185833454,0.03869679942727089,0.06941896677017212,0.0330011360347271,0.09271631389856339,0.10225986689329147,0.19432184100151062,0.19920311868190765,0.19562597572803497,0.07016073912382126,-0.01204554084688425,-0.08757837861776352,-0.04544995725154877,-0.008024368435144424,-0.009453883394598961,-0.019583074375987053,-0.0100752217695117,-0.05609025061130524,0.013688450679183006,-0.028839942067861557,0.024745898321270943,0.07783477753400803,0.073712058365345,0.031105613335967064,0.0036254082806408405,-0.06992724537849426,-0.10862909257411957,-0.11215443164110184,-0.13692140579223633,-0.10501527041196823,-0.14352990686893463,-0.09578818827867508,-0.02272200956940651,0.05200482904911041,0.17998968064785004,0.3041671812534332,0.42122888565063477,0.4655953049659729,-0.03353333845734596,-0.09099192172288895,-0.03239725902676582,0.03114170767366886,0.02690117619931698,0.027157040312886238,-0.0070144315250217915,0.08379437029361725,0.07186398655176163,0.06078649312257767,0.11821471899747849,0.11407753825187683,0.1302340179681778,0.13751262426376343,0.025372743606567383,-0.027067750692367554,-0.11170877516269684,-0.13888508081436157,-0.1465660035610199,-0.21774239838123322,-0.19790878891944885,-0.19310657680034637,-0.1857869029045105,-0.14396440982818604,0.0028146174736320972,0.22597557306289673,0.5127650499343872,0.6876658201217651,0.08417289704084396,0.014841138385236263,0.05241314321756363,0.04439772292971611,0.059340402483940125,0.007842672057449818,0.08673374354839325,0.08151818811893463,0.09983035176992416,0.111702099442482,0.07830265909433365,0.10243505239486694,0.12747836112976074,0.14577935636043549,0.07183660566806793,-0.02141009457409382,-0.08952929824590683,-0.13396847248077393,-0.15011675655841827,-0.1205887421965599,-0.12202410399913788,-0.1007871925830841,-0.1291315108537674,-0.2723753750324249,-0.14264582097530365,0.0220648180693388,0.35436582565307617,0.4892323613166809,0.10678736120462418,0.033862777054309845,0.09350594133138657,-0.001186669571325183,0.06800618767738342,0.11261986941099167,0.12443859130144119,0.06795599311590195,0.06558151543140411,0.05503867194056511,0.1296887993812561,0.1454310119152069,0.22084090113639832,0.1991027444601059,0.06141206622123718,0.03545953333377838,-0.0625484362244606,-0.07929039001464844,-0.12585346400737762,-0.11022874712944031,-0.0348992720246315,-0.055407099425792694,-0.11507131904363632,-0.287428617477417,-0.3786675035953522,-0.361148864030838,-0.17571628093719482,-0.08551037311553955,-0.031862594187259674,0.053973011672496796,0.15050008893013,0.06265487521886826,0.139876127243042,0.0871172770857811,0.10134515911340714,0.11250706762075424,0.06753546744585037,0.10388839244842529,0.13485705852508545,0.1627964824438095,0.15846776962280273,0.12194275110960007,0.04506740719079971,-0.005367367994040251,-0.10798291116952896,-0.12801063060760498,-0.1551702320575714,-0.16368862986564636,-0.1521172672510147,-0.17386700212955475,-0.2145046889781952,-0.320941686630249,-0.5168314576148987,-0.6595877408981323,-0.7613745331764221,-0.6349693536758423,-0.015917522832751274,-0.035029977560043335,0.19174323976039886,0.11916568875312805,0.11258044093847275,0.07490341365337372,0.07257841527462006,0.08874430507421494,0.02362721972167492,0.05706552416086197,0.1108497604727745,0.16187992691993713,0.15761731564998627,0.051113974303007126,-0.014078005217015743,-0.0788356140255928,-0.1353299468755722,-0.08115430921316147,-0.09260886162519455,-0.11028464138507843,-0.07722525298595428,-0.15713202953338623,-0.18926113843917847,-0.18344944715499878,-0.30880650877952576,-0.539635181427002,-0.8066860437393188,-0.6972235441207886,-0.02959592640399933,0.01909351348876953,0.1245030090212822,0.17800667881965637,0.04819260165095329,0.05576174706220627,0.057959605008363724,0.026886874809861183,0.06287995725870132,0.04697570204734802,0.094195157289505,0.15310893952846527,0.0997873917222023,0.06377891451120377,0.012088705785572529,-0.043035104870796204,-0.028072645887732506,-0.050909366458654404,-0.022518813610076904,0.025545570999383926,0.024901945143938065,-0.05656001344323158,-0.03272506967186928,-0.1077592521905899,-0.017395155504345894,-0.10585664957761765,-0.32770684361457825,-0.2636687159538269,0.016030654311180115,0.016146305948495865,0.14035341143608093,0.05309811234474182,0.019429774954915047,-0.047572504729032516,0.00369751057587564,0.011175219900906086,0.043515197932720184,0.034089989960193634,0.1609356701374054,0.1149652898311615,0.07932204008102417,0.032183606177568436,0.06796692311763763,-0.010261625051498413,-0.032369304448366165,-0.13535970449447632,-0.052423615008592606,-0.02734096720814705,0.01610148884356022,0.013590727001428604,0.0074284691363573074,-0.013367457315325737,0.004287981428205967,0.03362012282013893,-0.06360937654972076,-0.17168639600276947,0.014362312853336334,0.003363873576745391,0.1907941848039627,0.12684772908687592,-0.08769891411066055,-0.06382953375577927,-0.09559378027915955,-0.02969934791326523,-0.042711369693279266,-0.01047380082309246,-0.004229782149195671,-0.01767725497484207,-0.02987680770456791,-0.02973947674036026,-0.029468461871147156,-0.009926733560860157,-0.1044740229845047,-0.05543399229645729,-0.11491350829601288,-0.020476166158914566,0.008881368674337864,-0.03922933340072632,0.009502562694251537,0.024500491097569466,0.07022491097450256,-0.006707687396556139,0.02586154080927372,-0.04477059841156006,0.020866774022579193,0.046284858137369156,0.24865786731243134,0.08872954547405243,-0.060244377702474594,-0.12384071946144104,-0.19407320022583008,-0.15117600560188293,-0.06344250589609146,-0.1062128096818924,-0.1546046882867813,-0.1470213532447815,-0.14264580607414246,-0.14723892509937286,-0.15299691259860992,-0.14972937107086182,-0.08493254333734512,-0.030354298651218414,-0.04736978933215141,0.0015516241546720266,-0.031625669449567795,-0.009666486643254757,-0.03149965777993202,0.0667743906378746,-0.005393171217292547,0.0034427125938236713,0.06230168044567108,-0.030088359490036964,-0.005343867465853691,0.026585666462779045,0.4087342619895935,0.1994539499282837,-0.03400149568915367,-0.1514890193939209,-0.11005255579948425,-0.14828729629516602,-0.1257651001214981,-0.10497217625379562,-0.13280466198921204,-0.20009745657444,-0.15710589289665222,-0.188663050532341,-0.1953638195991516,-0.13274845480918884,-0.09113079309463501,-0.06884147226810455,-0.009083885699510574,0.028195029124617577,-0.023291025310754776,-0.017344743013381958,-0.008810404688119888,0.042764000594615936,-0.02787090465426445,-0.016929641366004944,-0.0015875388635322452,-0.042124852538108826,-0.0029632151126861572,-0.07038427144289017,0.37905609607696533,0.17716772854328156,0.08579559624195099,-0.05580339953303337,-0.13188309967517853,-0.1426517516374588,-0.14057937264442444,-0.13035345077514648,-0.11676855385303497,-0.12473300099372864,-0.11928906291723251,-0.0984073206782341,-0.057184960693120956,-0.07587703317403793,-0.010408573783934116,0.018359092995524406,0.056959833949804306,0.06796643882989883,0.006243388168513775,-0.002117777243256569,-0.030937563627958298,0.027400046586990356,-0.03603357449173927,-0.08063771575689316,-0.10461192578077316,-0.01987531967461109,0.0028055310249328613,-0.05195099487900734,0.1770593822002411,0.1889519840478897,0.18381278216838837,0.09019739180803299,0.008906208910048008,-0.06301108747720718,-0.022758951410651207,-0.06657982617616653,-0.0584452748298645,-0.06938302516937256,-0.03466637432575226,0.005665402393788099,-0.03460196033120155,0.0588100366294384,0.06820002943277359,0.07945021986961365,-0.002202455885708332,-0.02004937268793583,0.027732165530323982,0.010829830542206764,0.04443736746907234,-0.007144354749470949,-0.04975990951061249,-0.011606787331402302,-0.12274319678544998,-0.06553388386964798,-0.008950606919825077,0.023596828803420067,-0.020317308604717255,0.13923801481723785,0.16910286247730255,0.15601231157779694,0.16741541028022766,0.04403143748641014,0.02868865244090557,0.08415177464485168,0.10392973572015762,0.031089356169104576,0.032586343586444855,0.011319569312036037,0.07284923642873764,0.09133747965097427,0.04222078248858452,0.049864962697029114,0.028760680928826332,0.004924224689602852,0.004579349886626005,-0.004684180952608585,0.040762826800346375,0.03180336579680443,0.01387784443795681,0.007569357752799988,-0.12620724737644196,-0.09804975241422653,0.00769724790006876,-0.004504782147705555,0.010743015445768833,0.039896927773952484,0.05510588362812996,0.18314531445503235,0.2027934044599533,0.21686111390590668,0.18005895614624023,0.12302185595035553,0.11387348920106888,0.10033459216356277,0.10347497463226318,0.12790948152542114,0.0998191386461258,0.05268005281686783,0.04674558714032173,0.03512665629386902,0.05092654004693031,0.06227448210120201,0.027300890535116196,0.04476842284202576,0.05165649205446243,0.008356994949281216,0.04466928169131279,-0.06201872229576111,-0.09570667892694473,0.021728651598095894,-0.014549175277352333,-0.0691225677728653,-0.009466513060033321,0.0035059971269220114,-0.042237550020217896,0.061510954052209854,0.15495842695236206,0.17111346125602722,0.1787830889225006,0.14803574979305267,0.09849551320075989,0.10910840332508087,0.07017597556114197,0.00034878181759268045,0.05592114105820656,0.03222615644335747,0.061809901148080826,0.07009349763393402,0.057106517255306244,0.017249468713998795,0.08010566979646683,0.07775860279798508,0.025787120684981346,0.007372105028480291,-0.006913236808031797,0.010680804029107094,-0.04200315847992897,-0.018259786069393158,-0.029705436900258064,-0.03183146193623543,0.0017800471978262067,0.0685778334736824,-0.015280584804713726,0.022403515875339508,0.05867903307080269,0.04509478807449341,0.0749082937836647,0.05820627510547638,0.07855833321809769,0.00934057217091322,0.03172240033745766,0.0167493037879467,0.05306810885667801,0.06840724498033524,0.05204120650887489,0.08380433171987534,0.06350237131118774,0.019850002601742744,0.06332863867282867,0.04712945595383644,0.028302518650889397,-0.00036252281279303133,0.014898511581122875,-0.08150136470794678,-0.04750847816467285,0.030529730021953583,0.026907559484243393,0.01721605286002159,0.0381510853767395,0.017660072073340416,0.028747256845235825,-0.04400114715099335,-0.055057670921087265,-0.061298172920942307,-0.052364081144332886,-0.04867443069815636,-0.038008350878953934,-0.03740733116865158,-0.02703608199954033,0.04238463565707207,0.06591840088367462,0.06588532775640488,0.039386410266160965,0.06401435285806656,0.09920051693916321,0.08190888911485672,0.04682540521025658,0.062061622738838196,-0.02170470915734768,-0.02590380422770977,-0.16315361857414246,-0.1344001442193985,-0.16572241485118866,-0.14552661776542664,-0.011798577383160591,0.0031489208340644836,0.009537981823086739,-0.05943369120359421,-0.06126188859343529,-0.09435631334781647,-0.1607358604669571,-0.11353356391191483,-0.1484515219926834,-0.08223897218704224,-0.11722785234451294,0.004127269610762596,0.013760085217654705,0.04316798225045204,0.028024258092045784,0.07616252452135086,0.11910849809646606,0.057019948959350586,0.03899332135915756,-0.004452824126929045,-0.0369364470243454,0.003588662715628743,-0.046410832554101944,-0.0023122956044971943,-0.05526211857795715,0.04086989164352417,-0.08554723113775253,-0.1698484867811203,-0.017229348421096802,-0.022863486781716347,-0.08726086467504501,-0.07269171625375748,0.004046797752380371,-0.11096055060625076,-0.14246894419193268,-0.02485784888267517,0.017790891230106354,0.04257291927933693,0.045233238488435745,-0.0024764419067651033,0.041323497891426086,0.05007871985435486,0.014039824716746807,0.04101572558283806,0.07595740258693695,0.11445815116167068,0.07542398571968079,0.14495885372161865,0.041552815586328506,0.051015231758356094,0.011983450502157211,0.060877054929733276,0.016055384650826454,-0.002452526008710265,-0.1485700160264969,-0.018496695905923843,0.03315666690468788,-0.014706237241625786,0.027810897678136826,-0.012408606708049774,0.034316834062337875,0.027225349098443985,-0.012336727231740952,-0.006667371839284897,-0.008084326982498169,-0.004830552265048027,0.02548130601644516,-0.010545816272497177,-0.015300219878554344,-0.025470569729804993,0.011850178241729736,0.007547810673713684,-0.023770099505782127,0.014253560453653336,-0.017926931381225586,-0.030902616679668427,0.012778349220752716,-0.033926621079444885,-0.011952059343457222,0.02667813003063202,0.0003659948706626892,-0.02283667027950287,-0.016629155725240707,0.018076051026582718,-0.032315030694007874
